渡过盟津 渡 0.0142857
渡过盟津 盟津 0.0909091
罚 罚 0.0500000
罚 戍 0.0212766
罚 金 0.0041152
罚 效 0.0114943
罚 黥 0.0232558
罚 无 0.0006266
罚 当 0.0022173
罚 者 0.0002862
罚 刑 0.0069444
罚 作 0.0025253
贪心 心 0.0029586
谋刺 客 0.0033898
谋刺 刺 0.0153846
牧守 牧 0.0188679
浊泽 得 0.0006725
浊泽 泽 0.0084746
浊泽 浊 0.0357143
浊泽 魏 0.0010020
浊泽 宧 0.2000000
院门 门外 0.0555556
校正 正 0.0072993
校正 时 0.0012771
担保 反 0.0018587
担保 无 0.0006266
担保 王 0.0002583
担保 复 0.0010549
今天 形 0.0104167
今天 菽 0.0454545
今天 若 0.0023256
今天 其 0.0002014
今天 谷口 0.0769231
今天 考 0.0172414
今天 者 0.0008586
今天 今 0.0645161
今天 造 0.0169492
今天 计 0.0027174
今天 妄 0.0204082
今天 今日 0.4545455
今天 方 0.0026810
今天 深 0.0059880
今天 徒 0.0052910
今天 世 0.0018450
今天 此 0.0038314
变化无常 反 0.0018587
变化无常 变 0.0045872
变化无常 覆 0.0149254
逢迎 谄 0.0500000
熟悉 笔 0.0588235
熟悉 熟 0.0714286
熟悉 辞令 0.1111111
熟悉 知 0.0012706
熟悉 豪 0.0161290
熟悉 侍 0.0074074
熟悉 习 0.1538462
中潏 中潏 1.0000000
中潏 蜚廉 0.0833333
露水 水 0.0044843
露水 露 0.0666667
米作饭 食 0.0025840
米作饭 之 0.0000909
米作饭 粝 0.1666667
前时 日 0.0013831
前时 过 0.0022523
前时 前 0.0032468
前时 睢 0.0250000
园便 事 0.0008673
园便 李园 0.0333333
添 墓 0.0270270
细则 如 0.0011223
旷废 旷 0.0333333
旷废 希 0.0250000
声急 声 0.0054945
声急 故 0.0007716
以致 蓄 0.0909091
以致 陇西 0.0454545
以致 至 0.0006061
以致 盐 0.0666667
以致 若 0.0023256
以致 其 0.0004027
以致 姊 0.0147059
以致 自 0.0009470
以致 保 0.0103093
以致 贯 0.0370370
以致 伏 0.0077519
以致 刑 0.0069444
以致 身 0.0028571
以致 灾 0.0111111
以致 重 0.0028818
以致 韦 0.0256410
以致 以 0.0018765
以致 厚葬 0.0833333
以致 富 0.0074627
以致 绝 0.0028249
以致 虐 0.0500000
以致 殃 0.0344828
以致 尔 0.0106383
以致 久远 0.0555556
以致 暴虐 0.0434783
以致 使 0.0004955
以致 惛 0.1250000
以致 用 0.0013477
以致 令 0.0012019
以致 终日 0.0526316
以致 色 0.0071942
以致 昭公 0.0101010
命是听 命 0.0020921
强国 国 0.0073215
强国 彊 0.0337553
强国 交 0.0071942
强国 君 0.0007018
强国 权 0.0087719
名城 都 0.0147783
名城 城 0.0034602
名城 之 0.0000909
名城 名 0.0114679
疾病 疾 0.0489130
疾病 也 0.0005180
疾病 疾疫 0.1428571
顺利 得 0.0006725
顺利 法 0.0027701
顺利 遂 0.0021954
顺利 矣 0.0008489
顺利 大 0.0004686
顺利 也 0.0002590
顺利 利 0.0180879
顺利 行 0.0010142
顺利 兮 0.0044843
顺利 顺 0.0081301
顺利 祟 0.0666667
绝壁 山 0.0039683
有德之士 有 0.0004165
有德之士 德 0.0023419
断送 其 0.0002014
断送 绝 0.0028249
再度 再 0.0192308
再度 魏冉 0.0303030
再度 复 0.0073840
往回 还 0.0021413
往回 引 0.0040486
往回 兵 0.0007899
制造谤言 谤 0.0555556
制造谤言 造 0.0169492
大风 大 0.0009372
大风 风 0.0258621
风以东 东 0.0013699
风以东 风 0.0086207
水灌 灌 0.0204082
可信 可 0.0016584
可信 信 0.0043764
可信 矣 0.0008489
可信 用 0.0013477
曲直 苍 0.0192308
曲直 浃 0.3333333
曲直 曲直 0.3333333
曲直 周 0.0014124
曲直 皇 0.0072993
曲直 正直 0.0833333
星座 星 0.0038023
难治理 难 0.0043478
难治理 治 0.0025126
的檐椽 椽 0.0833333
编成 什 0.0322581
编成 队 0.0384615
编成 为 0.0003573
编成 皮 0.0256410
编成 四 0.0010730
编成 秸 0.1666667
五万 数 0.0013736
五万 材 0.0175439
五万 人 0.0003025
五万 五 0.0106075
五万 万 0.0148368
处理 政事 0.0952381
处理 听 0.0174419
处理 阼 0.2000000
处理 为 0.0001787
处理 政 0.0263158
处理 赋 0.0096154
处理 慎 0.0112360
处理 制 0.0046729
处理 中 0.0008734
处理 度 0.0052083
处理 张苍 0.0250000
处理 季主 0.5000000
处理 任 0.0080000
处理 吏 0.0063694
处理 迟 0.0172414
处理 请 0.0012330
处理 尔 0.0106383
处理 从 0.0017316
处理 义渠 0.1000000
处理 揆 0.0625000
处理 于 0.0008317
处理 丞相 0.0069204
处理 奏事 0.0238095
处理 事 0.0017346
处理 其 0.0002014
处理 议论 0.1000000
处理 治 0.0025126
处理 给 0.0121951
处理 应 0.0069444
处理 处 0.0049751
处理 公卿 0.0163934
处理 以 0.0001706
处理 用 0.0013477
总是 屡 0.0769231
总是 惧 0.0060976
总是 退让 0.1250000
总是 出 0.0018957
总是 槃 0.1111111
总是 辄 0.0505051
总是 侧 0.0196078
总是 自 0.0009470
总是 掩 0.0333333
总是 财 0.0129870
总是 专 0.0114943
总是 民 0.0017452
总是 身 0.0028571
总是 遽 0.0769231
总是 怀 0.0104167
总是 嚭 0.1000000
总是 景驹 0.0833333
总是 常 0.0235988
总是 而 0.0003909
总是 屏 0.0212766
总是 覆 0.0149254
总是 冀 0.0222222
总是 借 0.0232558
总是 悲 0.0126582
境外 方 0.0026810
境外 作 0.0025253
境外 外 0.0098361
潜逃 亡 0.0013889
潜逃 遁 0.0400000
潜逃 走 0.0059880
潜逃 逃 0.0357143
潜逃 之 0.0000909
抵御 御 0.0352113
抵御 以 0.0001706
抵御 之 0.0000909
抵御 发兵 0.0062112
抵御 欲 0.0007032
抵御 扞 0.0370370
抵御 却 0.0081967
抵御 距 0.0467290
抵御 驰道 0.0909091
抢夺 逐 0.0059524
抢夺 夺 0.0074627
抢夺 心 0.0029586
趁便 言 0.0007524
趁便 因 0.0065104
必要 官 0.0048544
必要 夫 0.0008969
必要 以 0.0001706
必要 而 0.0001954
必要 动 0.0057471
英武 武 0.0031250
英武 察 0.0112360
美色 爱 0.0044248
美色 色 0.0215827
亮光 光 0.0111111
稻种 稻 1.0000000
聪颖 资 0.0142857
聪颖 捷 0.0714286
聪颖 辨 0.0217391
和氏之璧 宝 0.0166667
银锡之类 属 0.0027778
银锡之类 银 0.0714286
银锡之类 锡 0.0322581
外郎 官 0.0048544
外郎 三 0.0005461
馀的耳目 者 0.0002862
馀的耳目 耳目 0.0833333
城里人 人 0.0003025
城里人 城 0.0017301
城里人 中 0.0008734
划一 国 0.0006101
划一 权衡 0.1000000
划一 平 0.0019157
划一 一 0.0019066
划一 以 0.0001706
划一 楚 0.0005734
划一 画 0.0307692
汾水 骀 0.0666667
汾水 国 0.0006101
汾水 汾 0.1944444
汾水 水 0.0044843
汾水 川 0.0094340
疲倦 也 0.0002590
疲倦 倦 0.0625000
疲倦 之 0.0000909
雒阳 雒阳 0.1428571
挟持 挟 0.0588235
挟持 晋 0.0010858
挟持 劫 0.0111111
陪侍 乘 0.0071174
陪侍 参 0.0085470
陪侍 侍 0.0592593
陪侍 独 0.0033670
谷粒 服 0.0038462
谷粒 秸 0.1666667
上席 上 0.0008183
上席 坐 0.0037313
申功 申 0.0084746
申功 功 0.0024876
嫡亲 亲 0.0031447
字聃 字 0.0344828
字聃 摐 1.0000000
不知 胶 0.0625000
不知 逊 0.1000000
不知 超 0.0384615
不知 默 0.0263158
不知 思 0.0080000
不知 未 0.0037594
不知 叔 0.0093458
不知 能 0.0011261
不知 备 0.0067568
不知 无 0.0006266
不知 不 0.0054329
不知 知 0.0355781
不知 巅 0.0769231
已 再 0.0192308
已 多 0.0040568
已 为 0.0001787
已 起兵 0.0208333
已 定 0.0084388
已 豪 0.0161290
已 妲 0.1250000
已 罚 0.0125000
已 襄公 0.0090909
已 乏 0.0357143
已 宝 0.0166667
已 诸吕 0.0080000
已 谨 0.0198020
已 无 0.0012531
已 气 0.0072993
已 廷 0.0161290
已 今 0.0031217
已 十 0.0016327
已 仙 0.0166667
已 家室 0.0769231
已 并 0.0031949
已 幽 0.0169492
已 岳 0.0138889
已 日 0.0069156
已 巨 0.0250000
已 堪 0.0434783
已 刘氏 0.0208333
已 失 0.0031153
已 皆 0.0089141
已 六 0.0043478
已 食 0.0025840
已 万 0.0029674
已 至 0.0006061
已 吾 0.0012887
已 丁 0.0408163
已 奋 0.0192308
已 笃 0.0370370
已 枝 0.0434783
已 约 0.0080645
已 死 0.0035714
已 廪 0.0400000
已 有 0.0033319
已 车 0.0034843
已 醉 0.0344828
已 母 0.0049383
已 缺 0.0238095
已 婴齐 0.2500000
已 昨 0.1428571
已 旷 0.0333333
已 大业 0.0526316
已 敝 0.0112360
已 春秋 0.0091743
已 竟 0.0076336
已 静 0.0217391
已 王僚 0.0400000
已 坑 0.0238095
已 籓 0.0800000
已 魏章 0.0769231
已 祀 0.0075758
已 梁父 0.0526316
已 田横 0.0270270
已 允 0.0526316
已 既已 0.0555556
已 旰 0.1111111
已 又 0.0043860
已 卖 0.0151515
已 产 0.0178571
已 豨 0.0161290
已 诚 0.0064935
已 者 0.0002862
已 张 0.0086207
已 鼎 0.0176991
已 自立 0.0070922
已 鸟 0.0181818
已 蜄 0.1666667
已 既 0.0440835
已 长君 0.1666667
已 痿 0.1111111
已 是 0.0006831
已 吏 0.0031847
已 固 0.0059701
已 属 0.0027778
已 矣 0.0110357
已 亦 0.0030864
已 岁 0.0014347
已 穷困 0.0588235
已 已 0.1136671
已 田广 0.0769231
已 赖 0.0370370
已 亡 0.0027778
已 方 0.0026810
已 夕 0.0188679
已 老 0.0164835
已 酉 0.0263158
已 前 0.0032468
已 急 0.0043290
已 形 0.0208333
已 卵 0.0666667
已 劳 0.0095238
已 于 0.0005545
已 羹 0.0416667
已 客 0.0033898
已 豫 0.0454545
已 期 0.0072464
已 数 0.0013736
已 罢 0.0139535
已 暴露 0.1000000
已 孝文 0.0169492
已 然后 0.0063291
已 来 0.0057915
已 跇 0.3333333
已 项梁 0.0219780
已 丁公 0.1250000
已 重华 0.2000000
已 毕 0.0076923
已 鼒 0.2500000
已 任职 0.0909091
已 兮 0.0134529
已 率 0.0053191
已 参 0.0085470
已 瓜 0.0333333
相对 黄钟 0.0588235
相对 钟 0.0625000
相对 泣 0.0096154
相对 南北 0.0303030
相对 吕 0.0064516
相对 哭 0.0125000
相对 则 0.0008078
相对 其 0.0002014
相对 对 0.0091743
相对 斗 0.0092593
相对 相 0.0034101
相对 中 0.0008734
相对 冲 0.0740741
大雅 大 0.0018744
大雅 雅 0.0677966
热病 病 0.0034130
热病 热 0.1000000
人谦 人 0.0003025
人谦 出 0.0009479
良好 善 0.0019455
良好 子 0.0003316
良好 不 0.0001698
良好 敢 0.0022989
良好 良 0.0047619
懈怠 于 0.0002772
懈怠 惰 0.1333333
懈怠 懈 0.1111111
懈怠 怠 0.1190476
懈怠 怠慢 0.0909091
懈怠 解 0.0245399
慌忙 亡 0.0013889
慌忙 拔剑 0.0454545
慌忙 太仆 0.0172414
游说者 渥 0.0588235
游说者 排 0.1428571
游说者 径 0.0222222
游说者 未必 0.0454545
游说者 则 0.0008078
游说者 申 0.0084746
游说者 无 0.0006266
游说者 说 0.0036232
游说者 省 0.0238095
游说者 深 0.0059880
游说者 者 0.0002862
游说者 泄 0.0188679
在邰 于 0.0002772
在邰 邰 0.1250000
覆亡 可 0.0008292
覆亡 亡 0.0013889
覆亡 覆 0.0149254
蔿氏 氏 0.0089286
蔿氏 蔿 0.5000000
迎送 迎 0.0041322
可 榭 0.1250000
可 离 0.0090909
可 责 0.0227273
可 为 0.0007147
可 业已 0.0500000
可 怨 0.0043860
可 忍 0.0107527
可 弱 0.0058480
可 木 0.0151515
可 险阻 0.1000000
可 无 0.0025063
可 不 0.0005093
可 拜 0.0055249
可 僵 0.1250000
可 武 0.0031250
可 挽 0.1250000
可 公仲 0.0232558
可 马 0.0053763
可 骑射 0.0625000
可 家室 0.0769231
可 日 0.0055325
可 尔 0.0106383
可 炭 0.0555556
可 析 0.0434783
可 危 0.0047847
可 悲 0.0126582
可 尺 0.0136986
可 彰 0.0476190
可 金石 0.1250000
可 埒 0.2500000
可 六 0.0043478
可 鲜 0.0769231
可 弊 0.0181818
可 贤 0.0027248
可 柰 0.0212766
可 则 0.0016155
可 魄 0.0588235
可 痛 0.0322581
可 知 0.0012706
可 说 0.0018116
可 然 0.0074738
可 补 0.0416667
可 常 0.0029499
可 而 0.0007817
可 群臣 0.0042017
可 乐 0.0027248
可 余里 0.0163934
可 国 0.0006101
可 听 0.0019380
可 通 0.0108696
可 殆 0.0178571
可 蔽 0.0322581
可 饥 0.0123457
可 赎 0.0625000
可 稼 0.0454545
可 唯独 0.0384615
可 宋 0.0032895
可 制 0.0046729
可 比 0.0062112
可 等 0.0023753
可 足 0.0122850
可 奈 0.0057143
可 固 0.0029851
可 休 0.0114943
可 阁 0.0588235
可 受 0.0025575
可 矣 0.0016978
可 功 0.0024876
可 邪 0.0060976
可 已 0.0013532
可 峄 0.1250000
可 效 0.0114943
可 曰 0.0001951
可 存 0.0090909
可 留 0.0036765
可 顺 0.0081301
可 北 0.0023202
可 毋 0.0030960
可 因 0.0026042
可 于 0.0002772
可 由 0.0075758
可 习 0.0109890
可 其 0.0002014
可 可 0.0489221
可 事 0.0017346
可 行 0.0020284
可 尚 0.0099502
可 志 0.0131579
可 念 0.0147059
可 施 0.0109890
可 应 0.0069444
可 得 0.0033625
可 卒 0.0007692
可 运 0.0250000
可 未 0.0012531
可 宁 0.0190476
可 振 0.0114943
可 支 0.0243902
可 寄 0.0250000
可 此 0.0047893
大旱 旱 0.1000000
大旱 大 0.0023430
低微 为 0.0001787
低微 微 0.0151515
低微 细 0.0250000
低微 轻 0.0066667
六亲不认 无 0.0006266
六亲不认 亲 0.0031447
六亲不认 戾 0.0400000
流 潺 0.5000000
流 交 0.0071942
流 泣 0.0192308
流 虮虱 0.0769231
流 民心 0.0714286
流 流 0.0769231
流 溢 0.0243902
流 后 0.0008285
流 脑 0.1666667
流 横 0.0172414
流 叹息 0.1111111
流 盈 0.0344828
流 血 0.0151515
流 肠 0.1000000
流 民间 0.2500000
流 凿 0.0588235
流 鄃 0.0833333
流 匮 0.0526316
射手 攻 0.0012136
射手 左 0.0073529
为了 为 0.0066107
为了 张良 0.0129870
为了 豪 0.0161290
为了 出 0.0009479
为了 辟 0.0087719
为了 忘 0.0083333
为了 籍 0.0131579
为了 民 0.0017452
为了 比 0.0062112
为了 张 0.0086207
为了 连 0.0090909
为了 义 0.0039062
为了 礼乐 0.0185185
为了 蚤 0.0111111
为了 娱 0.0909091
为了 盖 0.0079365
为了 褒斜 0.1111111
为了 便 0.0214286
为了 欲 0.0042194
为了 待 0.0046948
为了 仇 0.0166667
为了 相 0.0008525
为了 咎 0.0131579
为了 山谷 0.1666667
为了 干 0.0120482
为了 赏 0.0138889
为了 祈 0.0526316
为了 武王 0.0046948
为了 以 0.0069942
为了 他 0.0068493
为了 或 0.0036765
为了 备 0.0135135
为了 众多 0.0833333
为了 享 0.0103093
为了 显 0.0098039
国借 求 0.0026247
国借 走 0.0029940
国借 以 0.0001706
精华 精 0.0571429
暴乱 贬 0.0357143
暴乱 乱 0.0092025
暴乱 伐 0.0010142
暴乱 遂 0.0010977
暴乱 而 0.0001954
暴乱 残 0.0188679
暴乱 暴 0.0080645
暴乱 辟 0.0087719
暴乱 暴乱 0.2000000
耽误 后 0.0008285
耽误 唯恐 0.0526316
耽误 寡 0.0045045
耽误 误 0.0277778
预知其计 与 0.0004218
预知其计 知 0.0012706
预知其计 焉 0.0020325
乡镇 邑 0.0069444
乡镇 乡 0.0064103
帝武丁 帝 0.0016529
帝武丁 武丁 0.0344828
各家 百 0.0013495
各家 往来 0.0188679
各家 衣服 0.0588235
各家 家 0.0082645
引发 发 0.0067797
生了卬 卬 0.0322581
生了卬 生 0.0012225
举止 必 0.0009881
举止 也 0.0002590
举止 次 0.0051813
举止 举 0.0034364
举止 造 0.0169492
宫城 与 0.0004218
宫城 闱 0.2000000
蒲草 蒲 0.0108696
蒲草 为 0.0001787
心疼 疾病 0.1428571
心疼 泣 0.0096154
兰皋 从 0.0008658
兰皋 皋 0.0357143
兰皋 兰 0.0434783
辅佐 兹 0.0188679
辅佐 与 0.0008435
辅佐 吕尚 0.0454545
辅佐 毕公 0.1250000
辅佐 ’ 0.0066225
辅佐 佐 0.2500000
辅佐 事 0.0008673
辅佐 女 0.0021786
辅佐 士 0.0026810
辅佐 高渠弥 0.1000000
辅佐 悼公 0.0120482
辅佐 勉 0.0156250
辅佐 天子 0.0028011
辅佐 辅 0.2421053
辅佐 以 0.0010235
辅佐 霸 0.0055249
辅佐 拂 0.0588235
辅佐 之 0.0001818
辅佐 田不礼 0.1000000
辅佐 翼 0.0243902
辅佐 官 0.0048544
辅佐 师傅 0.0526316
辅佐 错 0.0181818
辅佐 亮 0.1000000
辅佐 刘氏 0.0208333
辅佐 建 0.0054645
辅佐 令 0.0012019
辅佐 相 0.0136402
辅佐 傅 0.1250000
不善言辞 口 0.0098039
不善言辞 诎 0.0333333
不善言辞 于 0.0005545
不善言辞 而 0.0001954
不善言辞 辩 0.0185185
激发 激 0.0740741
激发 欲 0.0007032
激发 以 0.0001706
缙绅 缙 0.3333333
缙绅 绅 0.0526316
缙绅 者 0.0002862
亲睦 睦 0.1666667
亲睦 慈爱 0.1666667
亲睦 亲 0.0031447
诗歌 诗 0.0227273
诗歌 歌 0.0047170
桃侯 桃 0.0416667
桃侯 侯 0.0016207
段干子 也 0.0002590
段干子 子 0.0003316
段干子 段干 0.1000000
五十六 六 0.0072464
五十六 十 0.0020408
五十六 五 0.0048216
大腿 其 0.0002014
大腿 呜 0.0666667
大腿 公 0.0009756
大腿 而 0.0005863
大腿 股 0.2500000
长方 伯 0.0052910
先君 先 0.0418502
先君 奉 0.0035088
先君 君 0.0161404
累世 世 0.0018450
沙土 沙 0.0454545
沙土 盛 0.0095238
“嗳 嘻 0.0909091
“嗳 “ 0.0002539
浦 既 0.0023202
浦 江 0.0077519
笼络 事 0.0008673
笼络 弗 0.0026455
笼络 縻 0.1000000
笼络 羁 0.0250000
笼络 襄仲 0.0833333
笼络 绝 0.0028249
祥瑞 光 0.0055556
祥瑞 异 0.0043478
祥瑞 麒麟 0.1666667
祥瑞 坛 0.0147059
祥瑞 符 0.0357143
祥瑞 至 0.0006061
祥瑞 路 0.0156250
祥瑞 瑞 0.1304348
祥瑞 有 0.0008330
祥瑞 弓 0.0256410
祥瑞 祥 0.0238095
全归 尽 0.0021978
全归 二 0.0005855
全归 诸侯 0.0011161
全归 之 0.0000909
清平 平 0.0019157
清平 治 0.0025126
清平 称 0.0039841
摧 破 0.0023502
摧 及 0.0009970
摧 索 0.0178571
摧 山崩 0.1250000
不相上下 下 0.0004484
不相上下 不 0.0001698
不相上下 楚 0.0005734
沛郡 沛 0.0326087
巨野 野 0.0086207
三分之二 二 0.0023419
三分之二 分 0.0227273
三分之二 三 0.0038230
思考 惧 0.0060976
思考 塞 0.0138889
思考 思 0.0080000
思考 以 0.0001706
着谈 滋 0.0344828
冒险 危 0.0047847
公为 为 0.0001787
公为 公 0.0009756
乃用 言 0.0007524
河鼓宿 鼓 0.0119048
河鼓宿 北河 0.0769231
殿上有楼 有 0.0008330
殿上有楼 上 0.0016367
殿上有楼 楼 0.0416667
析 析 0.0434783
共有 得 0.0006725
共有 介 0.0476190
共有 凡 0.0325203
共有 七 0.0041152
共有 四 0.0032189
共有 宗室 0.0212766
共有 之 0.0000909
共有 常山 0.0175439
共有 共 0.0035971
共有 如此 0.0093458
共有 三 0.0005461
共有 者 0.0005724
共有 同 0.0041152
共有 兄弟 0.0140845
共有 献公 0.0089286
仲卿 仲卿 1.0000000
学业 业 0.0081301
学业 学 0.0300752
学业 已 0.0027064
学业 讲 0.0400000
收入 足 0.0024570
收入 入 0.0062444
收入 食 0.0025840
收入 汤沐 0.0312500
不入 聪明 0.0833333
不入 乱 0.0030675
不入 入 0.0008921
不入 不 0.0001698
容易 祸 0.0057471
容易 耳 0.0077519
容易 易 0.1590106
容易 以 0.0001706
容易 手 0.0312500
容易 蹇 0.1666667
容易 所 0.0005896
容易 事情 0.0666667
容易 岸 0.0833333
容易 屣 0.0909091
容易 轻 0.0066667
勉为其难 其 0.0002014
勉为其难 彊 0.0021097
勉为其难 为 0.0001787
勉为其难 难 0.0043478
勉为其难 者 0.0002862
叶公 攻 0.0012136
叶公 叶公 0.7500000
叶公 共 0.0035971
了陈馀 水 0.0044843
了陈馀 泜 0.0769231
了陈馀 上 0.0008183
沉寂 孔 0.0416667
沉寂 静 0.0217391
用武之地 国 0.0006101
用武之地 武 0.0031250
用武之地 也 0.0002590
用武之地 用 0.0026954
用武之地 之 0.0000909
馀在 称 0.0039841
馀在 ， 0.0000248
馀在 陈余 0.0086207
草木 披 0.0588235
草木 釂 0.1666667
草木 丛 0.1000000
草木 草木 0.4400000
黡夺取 略 0.0112360
黡夺取 黡 1.0000000
正派 正 0.0109489
正派 人 0.0006050
正派 方 0.0026810
正派 散 0.0133333
正派 颂 0.0204082
怨恨 觖 0.1111111
怨恨 怏 0.0454545
怨恨 结怨 0.1000000
怨恨 祖伊 0.0833333
怨恨 愠 0.0909091
怨恨 怨 0.4517544
怨恨 怼 0.2727273
怨恨 督 0.0333333
怨恨 也 0.0002590
怨恨 望 0.0677966
怨恨 恨 0.0357143
怨恨 尤 0.0169492
怨恨 王 0.0002583
怨恨 怒 0.0020534
怨恨 姬 0.0097087
驱策 制 0.0046729
驱策 哉 0.0030488
驱策 役 0.0192308
赊酒 贳 0.0769231
移易 移 0.0333333
移易 易 0.0035336
全 国 0.0006101
全 皆 0.0032415
全 子 0.0003316
全 腹 0.0166667
全 悉 0.0175439
全 心 0.0029586
全 空 0.0153846
全 力 0.0042735
全 尽 0.0109890
全 飨 0.0144928
全 缺 0.0238095
全 男 0.0078125
全 驱 0.0217391
全 诏书 0.1666667
全 具 0.0094787
全 赖 0.0555556
全 在 0.0028612
全 报 0.0033003
全 备 0.0067568
全 成 0.0020325
全 举 0.0068729
全 信 0.0021882
阻挡 止 0.0035211
阻挡 阑 0.1000000
阻挡 之 0.0000909
阻挡 风雨 0.0222222
阻挡 敌 0.0108696
阻挡 当 0.0066519
阻挡 距 0.0093458
阻挡 黶 0.0625000
阻挡 限 0.0476190
战斗力 卒 0.0007692
战斗力 败 0.0016367
败走 逐 0.0059524
败走 师 0.0028090
败走 走 0.0059880
败走 败 0.0016367
奋迅 风雨 0.0222222
奋迅 奋 0.0192308
城乡 邑 0.0034722
城乡 乡 0.0064103
共工氏 共工 0.1176471
共工氏 氏 0.0044643
各帝 各 0.0041494
各帝 如 0.0011223
皇族 诸 0.0039761
皇族 刘 0.0322581
皇族 宗室 0.0425532
志也 亦 0.0015432
志也 志 0.0065789
完成 成功 0.0256410
完成 修 0.0100000
完成 返 0.0294118
完成 惧 0.0060976
完成 定 0.0063291
完成 遂 0.0010977
完成 尉 0.0136986
完成 毕 0.0230769
完成 墓 0.0270270
完成 毂 0.0769231
完成 成 0.0284553
完成 游说 0.0333333
完成 就 0.0271739
达官 贵 0.0041667
垣为代王 代 0.0018315
垣为代王 王 0.0002583
垣为代王 恒 0.0666667
市场 下 0.0008969
市场 井 0.0526316
市场 也 0.0002590
市场 便 0.0071429
市场 市 0.0373134
已往 且 0.0019724
已往 前 0.0032468
乐趣 。 0.0000485
乐趣 以 0.0001706
乐趣 乐 0.0136240
海岛 海 0.0049505
海岛 中 0.0008734
薄洛 薄 0.0125000
薄洛 洛 0.0243902
看押 吏 0.0063694
用龟贝 贝 0.2000000
用龟贝 龟 0.0333333
昆吾 旧 0.0185185
昆吾 一 0.0009533
昆吾 桀 0.0175439
昆吾 昆吾 0.4285714
统计 羸 0.2500000
统计 弱 0.0058480
夔 夔 0.4375000
松柏 柏 0.0238095
松柏 松 0.0833333
深通 知 0.0012706
深通 刑名 0.0833333
深通 务 0.0109890
深通 谏 0.0064103
深通 孔丘 0.0434783
深通 干 0.0120482
父祺 父 0.0023148
父祺 祺 0.1666667
天宇 所 0.0005896
离石 离石 0.4444444
离石 石 0.0050505
离石 者 0.0005724
兵祸 祸 0.0057471
兵祸 下 0.0004484
兵祸 也 0.0002590
兵祸 兵 0.0023697
列观 观 0.0084746
列观 治 0.0025126
列观 舆 0.0200000
众位 二 0.0005855
众位 唯 0.0079365
众位 三 0.0005461
众位 群臣 0.0042017
众位 宗室 0.0212766
过客 客 0.0033898
下殽山救援 下 0.0004484
下殽山救援 师 0.0028090
下殽山救援 殽 0.0285714
敬神祗 祗 0.0588235
棘定约 约 0.0040323
棘定约 棘 0.0555556
朝贡 贡 0.0151515
朝贡 人 0.0003025
朝贡 四 0.0010730
朝贡 朝 0.0029412
朝贡 至 0.0012121
朝贡 征 0.0080000
让人 为 0.0001787
段干木 木 0.0303030
段干木 段干 0.2000000
所作 术 0.0104167
代邸 邸 0.0263158
代邸 于 0.0002772
代邸 代 0.0018315
切切 蜰 0.1666667
骐骥 骐 0.1666667
骐骥 骥 0.0434783
企图 重 0.0028818
企图 也 0.0002590
企图 欲 0.0028129
企图 以 0.0001706
企图 志 0.0065789
企图 将 0.0005995
企图 图 0.0079365
品质 抱 0.0256410
品质 酎 0.0500000
品质 质 0.0051813
正巧 适 0.0054348
观 观 0.0593220
观 好 0.0032362
观 衡 0.0149254
观 临 0.0058824
观 欲 0.0007032
观 尹 0.0400000
观 乃 0.0004968
观 我 0.0025189
观 问 0.0019802
观 从 0.0017316
观 桂 0.1250000
观 起 0.0028490
禹是 以 0.0001706
禹是 禹 0.0083333
儿子鱓 子 0.0003316
儿子鱓 胛 0.5000000
义理连 义 0.0039062
义理连 属 0.0027778
义理连 而 0.0001954
后逃 亡 0.0013889
后逃 克 0.0090090
后逃 不 0.0001698
后逃 出 0.0009479
高高的 垒 0.0322581
高高的 高 0.0023585
各种 佩 0.0434783
各种 方术 0.1428571
各种 材 0.0350877
各种 盗铸 0.1111111
各种 图书 0.0833333
各种 殖 0.0555556
各种 众 0.0030864
各种 驯 0.0588235
各种 妙 0.0769231
各种 饱 0.0909091
各种 量 0.0416667
各种 服 0.0038462
各种 沙 0.0454545
各种 减 0.0555556
各种 五 0.0009643
各种 功 0.0024876
各种 申明 0.0625000
各种 曰 0.0001951
各种 苦 0.0090090
各种 物 0.0071685
各种 嗜 0.0588235
各种 方 0.0053619
各种 杂 0.0263158
各种 危 0.0047847
各种 朕 0.0057803
各种 司 0.0068493
各种 舞 0.0161290
各种 咎 0.0131579
各种 共工 0.0588235
各种 揆 0.0625000
各种 万 0.0014837
各种 律令 0.0526316
各种 寿 0.0091743
各种 百 0.0121457
各种 赏 0.0138889
各种 怪物 0.0500000
各种 辨 0.0217391
各种 而 0.0005863
各种 庶征 0.3333333
各种 哉 0.0030488
各种 被 0.0198020
各种 谐 0.0588235
各种 诸 0.0059642
各种 俎豆 0.0270270
各种 合 0.0063492
各种 静 0.0217391
各种 镂 0.0714286
各种 导 0.0526316
各种 白 0.0060606
各种 显 0.0098039
水波 水 0.0044843
水波 波 0.0625000
闰 闰 0.0666667
石棺 石 0.0101010
石棺 棺 0.1304348
二十日 日 0.0027663
二十日 十 0.0008163
二十日 二 0.0011710
贷款 钱 0.0119048
贷款 者 0.0002862
贷款 贷 0.0270270
隘险阻 隘 0.0909091
武王 修 0.0100000
武王 病 0.0034130
武王 步 0.0256410
武王 汤武 0.0512821
武王 赀 0.0909091
武王 丕 0.3333333
武王 钜 0.0333333
武王 樗里疾 0.0833333
武王 慎 0.0112360
武王 斋 0.0434783
武王 文武 0.2500000
武王 立 0.0004907
武王 王 0.0043916
武王 武 0.0125000
武王 既 0.0023202
武王 郊 0.0054945
武王 崩 0.0037037
武王 休 0.0114943
武王 生 0.0012225
武王 恐 0.0024331
武王 九 0.0019417
武王 牧野 0.0555556
武王 曰 0.0001951
武王 存亡 0.0263158
武王 昏乱 0.1000000
武王 放 0.0196078
武王 殷纣 0.0434783
武王 其 0.0002014
武王 叛 0.0156250
武王 商纣 0.1666667
武王 怒 0.0020534
武王 狩 0.0344828
武王 好 0.0032362
武王 武王 0.6619718
武王 而 0.0001954
武王 惠王 0.0045662
武王 毕 0.0076923
武王 告 0.0025773
武王 甘茂 0.0266667
武王 左右 0.0044843
武王 叩 0.0769231
违背 倍 0.0555556
违背 负 0.0851064
违背 弃 0.0058140
违背 高帝 0.0080645
违背 遵 0.0250000
违背 其 0.0002014
违背 违 0.2000000
违背 约 0.0080645
违背 有 0.0004165
违背 僭 0.0526316
违背 不 0.0005093
违背 背 0.0215054
违背 逆 0.0943396
违背 戾 0.0400000
违背 陋 0.0909091
违背 训 0.0416667
违背 欺 0.0172414
违背 反 0.0037175
违背 膰 0.0714286
违背 情 0.0108696
违背 距 0.0093458
违背 失 0.0062305
违背 顺 0.0081301
漏水 漏 0.0909091
舞弊 抏 0.3333333
舞弊 奸诈 0.1000000
胎 胎 0.2000000
胎 营 0.0185185
定局 定 0.0021097
定局 兵 0.0007899
泗川 泗 0.0487805
泗川 州 0.0116279
泗川 川 0.0094340
问道 曰 0.0091707
问道 问 0.0534653
问道 故 0.0007716
走远 远 0.0056818
卜式 式 0.3600000
卜式 初 0.0033113
卜式 卜式 0.7333333
运用 钟 0.0312500
运用 使 0.0004955
运用 分 0.0032468
运用 申不害 0.1111111
中外 连 0.0090909
中外 自 0.0009470
中外 之 0.0000909
中外 外 0.0032787
中外 中 0.0008734
蚂蚁 岂 0.0043290
蚂蚁 螘 0.2500000
蚂蚁 从 0.0008658
有所 心 0.0029586
有所 差 0.0312500
有所 所 0.0053066
有所 患 0.0036630
有所 有 0.0037484
有所 利 0.0025840
有所 祈 0.0526316
有所 变 0.0045872
有所 异 0.0043478
有所 叹 0.0208333
有所 之 0.0002727
有所 獘 0.1111111
有所 株 0.2000000
有所 微 0.0075758
有所 恶 0.0039841
有所 闻 0.0008403
有所 望 0.0056497
有所 托 0.1025641
起兵 北 0.0023202
起兵 师 0.0028090
起兵 蕲 0.0370370
起兵 起兵 0.1458333
起兵 卢绾 0.0294118
起兵 汤武 0.0256410
起兵 缯 0.0500000
起兵 兴 0.0044843
起兵 暴 0.0080645
起兵 汉 0.0019194
起兵 发兵 0.0372671
起兵 举兵 0.0975610
起兵 起 0.0484330
起兵 沛 0.0217391
起兵 以 0.0001706
起兵 反 0.0055762
起兵 云 0.0050251
起兵 畔 0.0099010
起兵 率 0.0053191
操劳 天 0.0006789
操劳 劝 0.0208333
操劳 劳 0.0285714
操劳 民 0.0017452
操劳 勤 0.0217391
操劳 之 0.0000909
乌获 士 0.0026810
乌获 乌获 0.4000000
身首异处 异 0.0043478
身首异处 足 0.0024570
身首异处 处 0.0049751
身首异处 头 0.0136986
落得 血 0.0151515
落得 恶 0.0039841
落得 食 0.0025840
落得 受 0.0025575
五父之衢 衢 0.2500000
距离 闲 0.0112994
距离 晋阳 0.0238095
距离 去 0.0024038
距离 椷 0.2000000
距离 级 0.0178571
距离 中 0.0008734
间隔 间 0.0052632
间隔 而 0.0001954
起义军 守 0.0028090
起义军 谯 0.0833333
起义军 地 0.0013123
起义军 中 0.0008734
起义军 盗 0.0337079
馀听说 闻 0.0008403
馀听说 陈余 0.0086207
招呼 。 0.0000485
招呼 ” 0.0002546
易 荼 0.0500000
易 是 0.0006831
易 易 0.0565371
易 易水 0.2352941
易 卦 0.0370370
易 燕王 0.0076336
易 鄚 0.2500000
易 雍 0.0067114
易 临 0.0058824
易 诡 0.0357143
易 反间 0.0312500
易 立 0.0004907
易 灾 0.0111111
好几 泣 0.0096154
好几 匝 0.1111111
好几 岁 0.0071736
好几 更 0.0040816
好几 事 0.0008673
好几 数 0.0329670
好几 所 0.0005896
好几 几 0.0112360
好几 三 0.0005461
好几 者 0.0002862
那里入海 入 0.0008921
惠帝 诈 0.0086207
惠帝 明 0.0021739
惠帝 孝惠 0.3761468
惠帝 上 0.0016367
惠帝 帝 0.0330579
惠帝 葬 0.0050000
惠帝 惠帝 0.7272727
惠帝 使 0.0004955
惠帝 从 0.0008658
惠帝 代 0.0018315
定汧县 汧 0.0526316
莒人 人 0.0003025
莒人 如 0.0011223
莒人 莒 0.0377358
庄重 庄 0.0365854
庄重 重 0.0028818
庄重 俨 0.2000000
庄重 严 0.0212766
庄重 肃 0.0357143
中土 与 0.0004218
中土 黔 0.0163934
中土 中 0.0008734
赐爵 号 0.0055556
赐爵 侯 0.0032415
赐爵 疏 0.0126582
赐爵 赐爵 0.0439560
赐爵 爵 0.0080645
妄想 垂 0.0142857
妄想 头 0.0136986
妄想 望 0.0056497
歌词 诗 0.0075758
歌词 歌 0.0047170
劝谏 听 0.0038760
劝谏 屈 0.0153846
劝谏 进谏 0.1333333
劝谏 纣 0.0066667
劝谏 劝 0.0208333
劝谏 也 0.0002590
劝谏 说 0.0054348
劝谏 谏 0.2051282
劝谏 者 0.0002862
一百四十六 百 0.0013495
一百四十六 六 0.0014493
一百四十六 十 0.0004082
一百四十六 四 0.0010730
一百四十六 虏 0.0036900
付诸 言 0.0007524
付诸 贵 0.0041667
付诸 能 0.0011261
衰世 及 0.0009970
衰世 衰 0.0082645
递 鲊 0.1428571
递 与 0.0008435
递 生 0.0012225
递 目 0.0266667
递 取 0.0012853
递 谒 0.0081301
递 器 0.0098039
递 机 0.0416667
递 卮 0.0344828
递 踵 0.0714286
递 斗 0.0092593
诗·小雅 言 0.0007524
诗·小雅 巧 0.0384615
外界 物 0.0035842
外界 巴蜀 0.0270270
外界 之 0.0000909
攻城 攻 0.0084951
攻城 徇 0.0300000
攻城 城 0.0069204
攻城 之 0.0000909
攻城 略地 0.0384615
离间 离 0.0181818
离间 间 0.0157895
离间 闲 0.0112994
离间 于 0.0002772
离间 反间 0.0312500
离间 渐 0.0243902
离间 疏 0.0126582
望诸君 望诸君 1.0000000
周太史 周太史 0.1666667
周太史 之 0.0000909
帝庙 五帝 0.0156250
送信 发 0.0033898
送信 书 0.0081744
送信 至 0.0006061
中丁帝 丁 0.0204082
中丁帝 帝 0.0016529
中丁帝 隞 0.3333333
中丁帝 中 0.0008734
亲生 亲 0.0031447
亲生 适 0.0054348
亲生 代 0.0018315
亲生 高帝 0.0080645
亲生 真 0.0136986
太行险道 行 0.0010142
太行险道 太 0.0040984
进见 既 0.0023202
进见 绐 0.0500000
进见 召见 0.0434783
进见 为 0.0001787
进见 于 0.0002772
进见 谒 0.0162602
进见 见 0.0081227
解围 自 0.0009470
解围 开 0.0066667
解围 兵 0.0007899
解围 解 0.0306748
解围 围 0.0057471
解围 割 0.0068493
解围 释 0.0081301
师父 非 0.0010753
师父 师 0.0084270
师父 云 0.0050251
斟酌 酌 0.0909091
斟酌 察 0.0112360
斟酌 斟 0.0833333
斟酌 之 0.0000909
斟酌 焉 0.0020325
斟酌 王 0.0002583
媪曾经 媪 0.0526316
媪曾经 息 0.0096154
媪曾经 尝 0.0036101
仲勤 仲 0.0120482
仲勤 如 0.0011223
枣儿 大 0.0004686
设 台 0.0120482
设 味 0.0294118
设 为 0.0003573
设 语 0.0039683
设 空 0.0153846
设 县 0.0102564
设 桂林 0.3333333
设 曲直 0.0833333
设 治 0.0050251
设 及 0.0009970
设 内 0.0031646
设 上党 0.0166667
设 置 0.0098039
设 置酒 0.0322581
设 安 0.0024450
设 小 0.0027548
设 师傅 0.0526316
设 郡 0.0055556
设 设 0.0131579
设 义渠 0.0500000
设 相 0.0008525
串 也 0.0002590
串 习 0.0109890
玉足 趾 0.2000000
玉足 举 0.0034364
玉足 玉 0.0208333
与郈 郈 0.0833333
与郈 与 0.0004218
驺忌子 驺忌子 0.7500000
驺忌子 下邳 0.0454545
悬挂 其 0.0002014
悬挂 肉 0.0142857
悬挂 头 0.0136986
悬挂 炭 0.0555556
悬挂 枭 0.0454545
悬挂 县 0.0153846
跪倒 跪 0.0434783
躁动 躁 0.0833333
涣散 离 0.0090909
涣散 入 0.0008921
涣散 意 0.0041494
涣散 不 0.0001698
涣散 志 0.0065789
涣散 散 0.0133333
涣散 之 0.0000909
马上 禽 0.0125000
马上 孟尝君 0.0080645
马上 马 0.0215054
马上 上 0.0024550
马上 之 0.0002727
马上 能 0.0011261
马上 逐 0.0059524
马上 勿 0.0063291
马上 慎 0.0112360
马上 即 0.0111732
马上 救 0.0029674
马上 使 0.0004955
马上 起 0.0028490
马上 遽 0.0769231
马上 立 0.0009814
兵卒 益 0.0025641
兵卒 卒 0.0061538
兵卒 境内 0.1000000
兵卒 男子 0.0416667
兵卒 戟 0.0476190
兵卒 自 0.0009470
兵卒 人 0.0006050
兵卒 船 0.0175439
兵卒 兵 0.0071090
依然 得 0.0006725
依然 国 0.0006101
依然 邑 0.0034722
依然 卓 0.0666667
依然 食 0.0051680
依然 故 0.0007716
勉 勉 0.0156250
勉 敕 0.2000000
武官 执 0.0060606
武官 中 0.0008734
武官 郎 0.0125000
下为帝 帝 0.0016529
下为帝 下 0.0004484
下为帝 而 0.0001954
使用 惜 0.0500000
使用 因 0.0013021
使用 文字 0.2000000
使用 烦 0.0285714
使用 侧 0.0196078
使用 脩 0.0100000
使用 所 0.0005896
使用 斤 0.0416667
使用 刑 0.0069444
使用 给 0.0121951
使用 然后 0.0063291
使用 下 0.0004484
使用 足 0.0024570
使用 币 0.0111111
使用 康叔 0.0285714
使用 以 0.0003412
使用 之 0.0001818
使用 椽 0.0833333
使用 矛 0.0625000
使用 阴谋 0.0555556
使用 也 0.0005180
使用 使 0.0024777
使用 静 0.0217391
使用 用 0.0363881
使用 享 0.0103093
使用 罕 0.0588235
协同 力 0.0042735
协同 迺 0.1111111
协同 也 0.0002590
协同 以 0.0003412
协同 并 0.0031949
协同 之 0.0001818
协同 佐 0.0288462
娃娃鱼 鱼 0.0163934
娃娃鱼 人 0.0003025
大城 大 0.0004686
大城 城 0.0017301
负洛书 书 0.0027248
子孙 先 0.0022026
子孙 子侯 0.0256410
子孙 子 0.0003316
子孙 田氏 0.0188679
子孙 姓 0.0144404
子孙 裔 0.0909091
子孙 人 0.0003025
子孙 枝 0.0434783
子孙 后 0.0008285
子孙 子孙 0.4459459
子孙 而 0.0001954
子孙 大业 0.1052632
子孙 久远 0.0555556
子孙 中衍 0.1111111
子孙 也 0.0007770
子孙 支 0.0243902
子孙 世 0.0036900
子孙 才 0.0465116
妫氏 妫 0.1666667
妫氏 氏 0.0044643
支写 支 0.0243902
支写 书 0.0027248
支写 ’ 0.0066225
德化 化 0.0149254
德化 益 0.0025641
德化 内 0.0031646
德化 封 0.0013245
德化 德 0.0070258
相劝 言 0.0015049
乱糟糟 乱 0.0030675
百业 产 0.0357143
百业 诸 0.0039761
可能 邻 0.0769231
可能 势 0.0087719
可能 能 0.0090090
可能 可 0.0232172
可能 其 0.0002014
可能 蔑 0.0625000
可能 无 0.0012531
可能 伏 0.0077519
可能 遽 0.0769231
可能 得 0.0073974
可能 足 0.0049140
可能 奈 0.0057143
可能 然 0.0014948
可能 以 0.0003412
可能 霸 0.0055249
可能 怼 0.0909091
可能 许由 0.1428571
可能 也 0.0005180
可能 官爵 0.1250000
可能 瞳 0.1428571
冒死 死 0.0080357
冒死 之 0.0000909
冒死 昧 0.1891892
幽明 明 0.0021739
幽明 幽 0.0169492
早朝 朝 0.0029412
客居 客游 0.1000000
客居 旅 0.0151515
客居 兵 0.0007899
客居 客 0.0033898
听任 听 0.0058140
听任 妇 0.0090909
听任 骜 0.0555556
听任 任 0.0080000
听任 唯 0.0079365
听任 安陵 0.1666667
听任 纵 0.0123457
听任 所 0.0005896
听任 随 0.0087719
三万 师 0.0028090
三万 三 0.0098307
三万 北河 0.0769231
三万 万 0.0281899
刀 鼓 0.0119048
刀 刀 0.2727273
刀 踵 0.0714286
定额 呈 0.2857143
定额 中 0.0008734
怏怏不乐 快 0.0400000
怏怏不乐 不 0.0001698
辞行 荀卿 0.0312500
辞行 范睢 0.0129870
辞行 既 0.0023202
辞行 于 0.0002772
辞行 淮阴侯 0.0238095
辞行 生 0.0012225
辞行 辞 0.0160428
齐心合力 力 0.0042735
齐心合力 而 0.0001954
齐心合力 戮 0.0163934
高高兴兴 喜 0.0052910
无不 搤 0.0769231
无不 战士 0.1111111
无不 皆 0.0040519
无不 服 0.0038462
无不 罔 0.0454545
无不 甘心 0.0526316
无不 莫 0.0217391
无不 倾 0.0196078
无不 乙 0.0153846
无不 则 0.0016155
无不 宾 0.0352941
无不 无 0.0031328
无不 喜怒 0.1666667
无不 共 0.0035971
无不 不 0.0030560
无不 主 0.0020492
无不 羞 0.0151515
委屈 下 0.0004484
委屈 枉 0.2222222
委屈 诎 0.0333333
委屈 亲 0.0031447
委屈 桡 0.0666667
委屈 折 0.0163934
直径 寸 0.0163934
直径 径 0.0222222
直径 珠 0.0833333
直径 尺 0.0136986
欢宴 旧 0.0185185
欢宴 欢 0.0169492
认 得 0.0006725
认 陌 0.0526316
惊恐 惊 0.0281690
惊恐 ， 0.0000248
惊恐 恐 0.0218978
惊恐 惊恐 0.2500000
惊恐 割 0.0068493
击杀伋 杀 0.0008170
击杀伋 之 0.0000909
捉拿 求 0.0026247
生疫病 疾疫 0.1428571
总计 得 0.0006725
总计 大 0.0004686
总计 凡 0.0325203
总计 要 0.0107527
牛 骍 0.3333333
牛 瘗 0.0833333
牛 太牢 0.1071429
牛 牛羊 0.2352941
牛 空 0.0153846
牛 牺 0.1666667
牛 里 0.0030581
牛 惊 0.0140845
牛 随 0.0087719
牛 牵牛 0.0526316
牛 牛 0.4473684
牛 牛车 0.1428571
牛 馈 0.0270270
牛 足 0.0024570
牛 牛马 0.1000000
牛 血 0.0151515
牛 牢 0.0298507
牛 鹿 0.0444444
牛 逋 0.0714286
牛 视 0.0099502
牛 俎豆 0.0270270
当作 樊 0.0270270
当作 穷 0.0084746
当作 为 0.0014293
当作 函 0.0250000
当作 氏 0.0044643
当作 极 0.0071942
当作 桎 0.1000000
当作 儿 0.0400000
当作 宝 0.0166667
当作 众 0.0030864
当作 士 0.0053619
当作 枝 0.0434783
当作 遇 0.0056818
当作 华 0.0317460
当作 常 0.0058997
当作 陵 0.0059172
当作 屣 0.0454545
当作 傅 0.0125000
当作 作 0.0025253
当作 急 0.0043290
菲薄 有 0.0004165
菲薄 菽 0.0454545
拜见 颜 0.0294118
拜见 于 0.0005545
拜见 见 0.0297834
拜见 请 0.0024661
拜见 景公 0.0064935
拜见 陵 0.0059172
拜见 谒 0.1544715
拜见 望见 0.0425532
拜见 求见 0.0500000
拜见 拜 0.0220994
拜见 郦生 0.0144928
譬喻 芳 0.2000000
譬喻 物 0.0035842
涉嫌 与 0.0004218
涉嫌 以 0.0001706
涉嫌 独 0.0033670
涉嫌 疑 0.0048309
断案 理 0.0135135
曲阜 阜 0.1000000
曲阜 曲 0.0125000
残缺不全 缺 0.0238095
心怀不满 黔牟 0.1111111
心怀不满 舍 0.0033003
敬服 伏 0.0155039
纶邑 纶 0.1250000
群神 群 0.0210526
群神 从 0.0008658
群神 神 0.0102041
吕氏 吕氏 0.4375000
吕氏 袒 0.0200000
吕氏 南 0.0022272
吕氏 诸吕 0.1760000
吕氏 遂 0.0010977
吕氏 受 0.0025575
吕氏 置 0.0032680
周公旦 周公 0.1451613
周公旦 者 0.0002862
周公旦 周 0.0028249
周公旦 之 0.0000909
周公旦 疑 0.0048309
周公旦 旦 0.1075949
越王 成功 0.0256410
越王 渚 0.1250000
越王 栖 0.0588235
越王 元 0.0037313
越王 越王 0.8245614
越王 旧 0.0185185
越王 也 0.0005180
越王 欲 0.0007032
越王 越 0.0239726
越王 王 0.0005167
越王 号称 0.1000000
沛丘 沛 0.0108696
沛丘 丘 0.0096154
沛丘 遂 0.0010977
卑污 也 0.0002590
卑污 污 0.0294118
卑污 涉 0.0151515
卑污 身 0.0028571
献酒 酎 0.0500000
献酒 为 0.0005360
献酒 人 0.0003025
献酒 太上皇 0.0555556
献酒 寿 0.0183486
周年 而 0.0001954
周年 期 0.0072464
误解 所 0.0005896
误解 疑 0.0048309
家族 田豹 0.1428571
家族 吕产 0.0322581
家族 魏氏 0.0263158
家族 镇 0.0769231
家族 奉 0.0035088
家族 氏 0.0089286
家族 晋国 0.0188679
家族 族 0.1338583
家族 籍 0.0131579
家族 诸吕 0.0400000
家族 桓 0.0089286
家族 收 0.0042373
家族 宗 0.0530973
家族 除 0.0056818
家族 礼乐 0.0185185
家族 服 0.0038462
家族 宗族 0.1875000
家族 项氏 0.0476190
家族 薄氏 0.0625000
家族 之 0.0002727
家族 缪 0.0243902
家族 赵氏 0.0169492
家族 崔氏 0.1111111
家族 吕氏 0.0156250
家族 灭 0.0020704
家族 刘氏 0.0208333
家族 世 0.0036900
家族 家 0.0165289
钟 长 0.0019342
钟 钟 0.3750000
钟 钟鼓 0.0666667
钟 磨 0.0625000
钟 卑梁 0.0833333
钟 者 0.0008586
行乞 乞 0.0263158
行乞 路 0.0156250
行乞 于 0.0002772
行乞 吴 0.0020576
行乞 食 0.0051680
行乞 市 0.0074627
旦才 恐惧 0.0243902
旦才 乃 0.0004968
讲解 死 0.0008929
至日 日 0.0027663
至日 长 0.0019342
至日 冬至 0.0208333
通吃 困 0.0082645
夹壁墙 人 0.0006050
夹壁墙 壁 0.0119048
夹壁墙 柏 0.0238095
亚父 与 0.0004218
亚父 亚父 0.4210526
既然如此 则 0.0016155
既然如此 然 0.0149477
既然如此 韩 0.0014663
既然如此 魏 0.0010020
既然如此 、 0.0003820
竭尽其力 力 0.0042735
竭尽其力 彊 0.0021097
志在必得 必 0.0009881
志在必得 举 0.0034364
志在必得 志 0.0065789
志在必得 之 0.0000909
雨具 具 0.0047393
招聘 其 0.0002014
招聘 贵 0.0041667
中江 江 0.0077519
中江 中 0.0008734
高 长陵 0.0454545
高 嚼 0.0769231
高 千 0.0020534
高 爵 0.0241935
高 丈 0.1408451
高 后 0.0008285
高 蜂 0.1111111
高 共 0.0071942
高 者 0.0011448
高 曲 0.0125000
高 准 0.1111111
高 高昭子 0.1250000
高 度 0.0052083
高 逋 0.0714286
高 加 0.0148148
高 京 0.0322581
高 盖 0.0079365
高 计 0.0027174
高 云 0.0050251
高 深 0.0059880
高 田乞 0.0357143
高 世 0.0018450
高 季氏 0.0181818
高 抟 0.0588235
高 变更 0.0909091
高 贯高 0.0740741
高 闲 0.0056497
高 高庙 0.0909091
高 稍 0.0133333
高 高辛 0.1052632
高 高帝 0.0161290
高 极 0.0071942
高 赵高 0.3097345
高 羡 0.0800000
高 患 0.0036630
高 高祖 0.0087719
高 高渠弥 0.1000000
高 醉 0.0172414
高 瑜 0.1250000
高 擢 0.0555556
高 声 0.0054945
高 素 0.0095238
高 高陵君 0.2222222
高 央 0.1428571
高 仞 0.1764706
高 异姓 0.0400000
高 君 0.0007018
高 尊 0.0054054
高 高 0.3089623
高 反 0.0018587
高 长 0.0077369
高 版 0.2857143
高 亢 0.0540541
高 奏 0.0105263
高 居 0.0013587
高 柴 0.0625000
高 胡亥 0.0196078
高 户 0.0061728
高 锋 0.0238095
太岁 盖 0.0079365
太岁 在 0.0014306
太岁 太 0.0040984
太岁 岁 0.0028694
太岁 寅 0.0277778
百里傒 里 0.0214067
百里傒 百 0.0094467
百里傒 谢 0.0043103
百里傒 傒 0.2800000
百里傒 之 0.0000909
曾参 曾参 0.4117647
曾参 也 0.0002590
曾参 着 0.0126582
曾参 参 0.0170940
曾参 之 0.0000909
滥杀 诛 0.0035461
滥杀 妄 0.0408163
滥杀 谓 0.0012920
滥杀 今 0.0010406
肥义 肥义 0.7500000
鸮鸟 入 0.0008921
鸮鸟 鸮 0.1428571
特产 贡 0.0151515
特产 来 0.0019305
徙居 乃 0.0004968
徙居 居 0.0013587
科目 贤良 0.0625000
装到 函 0.0250000
郦 地 0.0013123
郦 郦 0.0454545
居丧 持 0.0056497
居丧 丧 0.0075188
居丧 闇 0.0714286
居丧 亮 0.1000000
居丧 乃 0.0004968
居丧 居 0.0013587
居丧 作 0.0025253
正厅 升 0.0714286
正厅 堂 0.0212766
正厅 矣 0.0008489
尉官 尉 0.0410959
尉官 都尉 0.0256410
驾崩 崩 0.0222222
厚重 肉 0.0142857
厚重 重 0.0028818
厚重 好 0.0032362
厚重 厚 0.0047847
厚重 裕 0.3333333
钱物 财物 0.0256410
钱物 金 0.0041152
务 恤 0.0357143
务 明 0.0021739
务 务 0.0109890
务 利 0.0025840
务 者 0.0002862
务 养 0.0116279
旅费 资 0.0285714
狄子 属 0.0027778
嘉奖 嘉 0.0117647
牛角 角 0.0086207
牛角 牲 0.0384615
羹尚大羹 先 0.0022026
羹尚大羹 大 0.0004686
羹尚大羹 豆 0.1666667
羹尚大羹 羹 0.0416667
羹尚大羹 之 0.0000909
公子虔 虔 0.3846154
公子虔 公子 0.0107296
朝得金德 得 0.0006725
朝得金德 德 0.0023419
朝得金德 金 0.0041152
素色 素 0.0095238
素色 帱 0.3333333
素色 之 0.0000909
降低 贬 0.0357143
降低 卑 0.0315789
降低 膳 0.0714286
降低 绌 0.0196078
降低 贱 0.0227273
降低 而 0.0001954
供人 迁徙 0.1000000
供人 而 0.0001954
六十三 十 0.0004082
六十三 六 0.0014493
六十三 年 0.0003446
六十三 三 0.0005461
讥笑 谤 0.0555556
讥笑 君子讥 0.1000000
讥笑 十 0.0004082
讥笑 笑 0.0235294
讥笑 者 0.0005724
讥笑 讥 0.0952381
诗篇而天下 下 0.0004484
诗篇而天下 天 0.0006789
诗篇而天下 诗 0.0075758
诗篇而天下 而 0.0001954
鱼类 鱼 0.0163934
鱼类 臮 0.5000000
戌卒 百 0.0013495
戌卒 数 0.0013736
戌卒 戍卒 0.1818182
虔敬 事 0.0008673
虔敬 召公 0.0163934
虔敬 职 0.0136986
用尽 尽 0.0021978
用尽 屈 0.0153846
庆贺 贺 0.0434783
庆贺 为 0.0001787
庆贺 庆 0.0540541
庆贺 以 0.0001706
庆贺 酺 0.0250000
庆贺 者 0.0002862
庆贺 家 0.0027548
无处 无 0.0006266
无处 试 0.0116279
无处 莫 0.0021739
遗忘 忘 0.0083333
一千万 万 0.0014837
一千万 千 0.0020534
配天而祭之 天 0.0006789
配天而祭之 祖 0.0142857
酿 酿 0.1428571
前人 人 0.0003025
前人 前 0.0032468
前人 忝 0.1111111
泽做 泽 0.0084746
泽做 燕 0.0017889
泽做 王 0.0002583
伍举 伍举 0.8750000
水道 通道 0.0909091
水道 水 0.0044843
水道 漳水 0.0476190
水道 夏 0.0039062
后藏 匿 0.0093458
临汝侯 汝 0.0133333
临汝侯 侯 0.0016207
豪强 豪 0.0322581
豪强 知 0.0012706
贬低 折 0.0163934
麦芒 秀 0.1111111
麦芒 麦 0.2000000
骆 骆 0.5000000
少讲 言 0.0007524
少讲 罕 0.0588235
殇叔 叔 0.0280374
殇叔 殇 0.3750000
生前 则 0.0008078
生前 寿梦 0.0666667
生前 既 0.0023202
生前 生 0.0024450
生前 悲 0.0126582
生前 之 0.0000909
生前 谧 0.2000000
野泽 都 0.0049261
野泽 野 0.0086207
嵬攻 攻 0.0012136
嵬攻 嵬 0.5000000
道旁 道 0.0015314
先发制人 先 0.0022026
肉 于 0.0005545
肉 贩 0.0909091
肉 惠王 0.0045662
肉 宰 0.0465116
肉 肉 0.2000000
肉 胾 0.2000000
肉 胙 0.1818182
肉 者 0.0002862
定都 都 0.0394089
定都 河北 0.0344828
定都 河亶甲 0.1250000
定都 居 0.0013587
龙旗 旗 0.0175439
龙旗 龙 0.0099010
亳县 亳 0.1176471
负责 太祝 0.0416667
负责 领 0.1612903
负责 恬 0.0526316
负责 殿 0.0238095
负责 其 0.0002014
负责 黎 0.0714286
负责 尽 0.0021978
负责 有 0.0004165
负责 行 0.0010142
负责 主 0.0020492
负责 身 0.0028571
负责 长安 0.0109890
负责 吏 0.0063694
负责 水土 0.0555556
负责 各自 0.0312500
负责 郦食其 0.0833333
负责 教诲 0.1666667
负责 谒 0.0081301
负责 后稷 0.0384615
负责 用 0.0013477
劳苦 姓 0.0036101
劳苦 沐 0.0416667
劳苦 劳 0.0666667
劳苦 苦 0.0180180
劳苦 之 0.0000909
劳苦 劳苦 0.1000000
孺子荼 荼 0.0500000
孺子荼 孺子 0.0277778
小者 国 0.0006101
小者 小 0.0055096
小者 者 0.0002862
小者 弱 0.0058480
中上 赋 0.0096154
中上 上 0.0008183
中上 中 0.0008734
悲惨 卒 0.0007692
悲惨 然 0.0014948
悲惨 此 0.0009579
平望 平 0.0019157
平望 望 0.0056497
三万二千七百六十八 百 0.0013495
三万二千七百六十八 六 0.0014493
三万二千七百六十八 二 0.0005855
三万二千七百六十八 八 0.0026042
三万二千七百六十八 七 0.0020576
三万二千七百六十八 三 0.0005461
猜测 料 0.0285714
猜测 也 0.0002590
猜测 测 0.0769231
猜测 之 0.0000909
二木合 桑 0.0188679
陶朱 陶朱 0.1333333
陶朱 猗 0.2000000
出卖 况 0.0172414
出卖 也 0.0002590
出卖 己 0.0064935
出卖 阴 0.0045662
出卖 卖 0.3333333
英布 伪 0.0238095
英布 是 0.0006831
英布 英 0.0454545
英布 番 0.0416667
英布 遂 0.0010977
英布 僮 0.0454545
英布 英布 0.7142857
英布 尽 0.0021978
英布 布 0.3246753
英布 迺 0.1111111
英布 朝 0.0029412
英布 变 0.0045872
发生 起兵 0.0208333
发生 疫 0.1250000
发生 博 0.0133333
发生 灾 0.0111111
发生 山崩 0.1250000
发生 桀纣 0.0769231
发生 日 0.0138313
发生 始 0.0031250
发生 战 0.0176817
发生 琇 0.2500000
发生 至 0.0006061
发生 力 0.0042735
发生 代地 0.0476190
发生 有 0.0066639
发生 晋阳 0.0238095
发生 考 0.0172414
发生 地 0.0039370
发生 震 0.0232558
发生 内乱 0.1250000
发生 燕军 0.0277778
发生 缓 0.0454545
发生 篡 0.1000000
发生 害 0.0080645
发生 饥 0.0864198
发生 难 0.0043478
发生 潦 0.1428571
发生 旱 0.0833333
发生 大 0.0014058
发生 告缗 0.0909091
发生 发 0.0067797
发生 德 0.0023419
发生 靡 0.0208333
发生 身 0.0028571
发生 动 0.0402299
发生 下 0.0004484
发生 乱 0.0184049
发生 血 0.0151515
发生 柏 0.0238095
发生 子孙 0.0135135
发生 水 0.0044843
发生 属 0.0027778
发生 蝗 0.2000000
发生 生 0.0048900
发生 矣 0.0008489
发生 陈泽 0.0625000
发生 日蚀 0.1250000
发生 荐 0.0208333
发生 急 0.0043290
发生 作 0.0025253
发生 北 0.0023202
发生 颜 0.0294118
发生 萌 0.0625000
发生 交 0.0071942
发生 势 0.0087719
发生 争 0.0081633
发生 事 0.0017346
发生 梯 0.3333333
发生 起 0.0199430
发生 戚 0.0131579
发生 变 0.0091743
发生 火 0.0476190
发生 芮 0.0500000
发生 脱 0.0119048
发生 蚀 0.1071429
发生 将 0.0029976
发生 在 0.0014306
发生 备 0.0067568
发生 ， 0.0000248
发生 实 0.0056818
发生 舍 0.0033003
发生 月 0.0039113
几乎 数 0.0013736
几乎 邯郸 0.0080000
几乎 且 0.0019724
几乎 几 0.1797753
几乎 魏齐 0.0178571
几乎 者 0.0005724
几乎 折 0.0163934
杯酒 酒 0.0163934
杯酒 安 0.0024450
杯酒 卮 0.0689655
极力 清静 0.1428571
极力 彊 0.0021097
极力 固 0.0029851
极力 刘季 0.0222222
极力 争 0.0081633
极力 极 0.0143885
极力 强 0.0833333
城门楼 城门 0.0588235
周易·乾卦 ‘ 0.0043668
周易·乾卦 称 0.0039841
周易·乾卦 干 0.0120482
出外 渡 0.0142857
出外 使 0.0004955
出外 汲 0.1000000
出外 游猎 0.2000000
出外 出 0.0047393
出外 猎 0.0200000
出外 将 0.0005995
里巷 下 0.0004484
里巷 阎 0.0769231
里巷 守 0.0028090
里巷 仆 0.0163934
里巷 闾巷 0.0625000
里巷 闾 0.1428571
里巷 里 0.0030581
里巷 擢 0.0555556
涂山 之 0.0000909
涂山 涂山 0.0909091
人夫 人 0.0003025
人夫 兴 0.0044843
归宿 所 0.0005896
归宿 终 0.0051020
归宿 税 0.0666667
归宿 然 0.0014948
归宿 矣 0.0008489
归宿 者 0.0002862
归宿 归 0.0023256
黥刑 法 0.0027701
黥刑 黥 0.0697674
黥刑 刑 0.0069444
决口 楗 0.2000000
决口 茭 0.1250000
决口 江河 0.2500000
决口 塞 0.0486111
决口 河 0.0096774
决口 决 0.0792683
决口 瓠子 0.1250000
决口 复 0.0010549
决口 之 0.0002727
决口 筑 0.0123457
圈 赤 0.0101010
圈 圈 0.1111111
圈 匝 0.1111111
圈 钳 0.0714286
圈 三 0.0005461
圈 中 0.0008734
公季 公 0.0039024
公季 季 0.0373832
八度 度 0.0052083
八度 八 0.0026042
大加 重 0.0028818
大加 大 0.0004686
大加 显 0.0196078
刘濞 诈 0.0086207
刘濞 濞 0.4000000
刘濞 侯刘 0.1428571
后母 与 0.0004218
后母 后 0.0008285
后母 母 0.0024691
浮华 淫 0.0104167
浮华 并 0.0031949
人肉 食 0.0025840
思想 坠 0.0384615
思想 深远 0.1000000
思想 道 0.0030628
思想 意 0.0082988
思想 未 0.0012531
思想 窥 0.0277778
思想 念 0.0147059
思想 文武 0.0192308
语 言 0.0007524
语 能 0.0011261
举火 火 0.0119048
举火 悉 0.0058480
举火 举 0.0034364
举火 之 0.0000909
举火 应 0.0069444
鲍子 子 0.0006631
鲍子 鲍 0.0800000
铺路 桥 0.0270270
铺路 道 0.0015314
汉文帝 帝 0.0082645
汉文帝 既 0.0023202
汉文帝 怀王 0.0078740
汉文帝 后 0.0008285
汉文帝 文帝 0.0930233
汉文帝 天子 0.0056022
汉文帝 汉 0.0019194
汉文帝 孝文 0.0762712
风俗 国 0.0006101
风俗 乡 0.0064103
风俗 狄 0.0344828
风俗 夷 0.0056818
风俗 西戎 0.0454545
风俗 风俗 0.4285714
风俗 风 0.0086207
风俗 蛮 0.0666667
风俗 俗 0.1794872
十倍于 十 0.0004082
十倍于 倍 0.0069444
座席 曲 0.0125000
座席 坐 0.0074627
座席 席 0.0250000
自 推 0.0107527
自 谦 0.1428571
自 致 0.0037313
自 祇 0.0476190
自 所 0.0005896
自 夔 0.0625000
自 巡 0.0217391
自 慎 0.0112360
自 勉 0.0156250
自 立 0.0004907
自 形成 0.0833333
自 桑 0.0188679
自 盈 0.0689655
自 下 0.0004484
自 卑 0.0105263
自 褊 0.0909091
自 西方 0.0444444
自 减 0.1111111
自 登 0.0071429
自 效 0.0114943
自 申明 0.0625000
自 物 0.0035842
自 别 0.0080000
自 禁 0.0088496
自 梦见 0.0909091
自 旗 0.0175439
自 由 0.0227273
自 兴 0.0044843
自 封禅 0.0081967
自 削 0.0285714
自 数 0.0013736
自 自 0.0501894
自 维 0.0095238
自 俗 0.0128205
自 荒 0.0277778
自 号 0.0055556
自 起 0.0085470
自 初 0.0033113
自 介 0.0476190
自 阴阳 0.0294118
自 荣 0.0147059
自 意 0.0041494
自 侨 0.3333333
自 夫 0.0017937
自 鄙 0.0238095
自 特 0.0185185
自 而 0.0011726
自 临洮 0.1250000
自 讥 0.0476190
自 各自 0.0312500
自 即 0.0027933
自 闳 0.0333333
自 暇 0.0344828
自 逮 0.0312500
自 月 0.0013038
大醉 醉 0.0344828
房陵 迁 0.0086580
房陵 处 0.0049751
房陵 房陵 0.3333333
通融 言 0.0007524
部将 周兰 0.1250000
部将 军 0.0008333
部将 将 0.0107914
部将 裔 0.0303030
部将 诸 0.0039761
部将 别 0.0080000
部将 梅 0.1818182
部将 者 0.0002862
一清早 日 0.0013831
一清早 从 0.0008658
一清早 旦 0.0063291
鲁封国 国 0.0006101
鲁封国 鲁 0.0023095
鲁封国 据 0.0126582
不能不 可 0.0058043
不能不 不 0.0033956
不能不 能 0.0022523
盛桥 桥 0.0270270
盛桥 盛 0.0095238
结交 通 0.0036232
结交 交 0.0719424
结交 于 0.0013862
结交 私 0.0055866
结交 折 0.0163934
结交 能固 0.1666667
结交 取 0.0038560
结交 二 0.0005855
结交 士 0.0053619
结交 收 0.0042373
结交 有 0.0004165
结交 赵郝 0.0909091
结交 夫 0.0008969
结交 党 0.0119048
结交 结交 0.3333333
结交 之 0.0000909
结交 视 0.0049751
结交 亡 0.0013889
结交 结 0.1081081
结交 游 0.0106383
结交 晋 0.0010858
高氏 灭 0.0020704
高氏 高 0.0188679
高氏 鲍氏 0.1250000
俎豆 俎豆 0.2162162
俎豆 章 0.0071942
六千 六 0.0057971
六千 千 0.0082136
通向 沧 0.1428571
通向 出 0.0009479
通向 旁 0.0126582
随同 皆 0.0008104
随同 兼 0.0243902
随同 随 0.0087719
孝敬 慈 0.0357143
孝敬 义 0.0039062
孝敬 于 0.0002772
孝敬 孝 0.0116279
之流 属 0.0027778
之流 郤 0.0243902
之流 之 0.0000909
统驭 所 0.0005896
统驭 以 0.0001706
统驭 统 0.0238095
统驭 故 0.0007716
基业 最 0.0092593
基业 垂 0.0142857
基业 业 0.0650407
基业 也 0.0005180
基业 统 0.0238095
往穰城 穣 0.0083333
技法 数 0.0027473
卖 处 0.0049751
卖 售 0.3333333
卖 粥 0.2222222
卖 之 0.0000909
卖 贷 0.0270270
卖 卖 0.0454545
卖 粟 0.0160000
卖 宜阳 0.0243902
卖 行 0.0010142
卖 车 0.0034843
卖 者 0.0002862
卖 畜 0.0270270
同父异母 异 0.0043478
同父异母 母 0.0024691
见面 面 0.0070423
见面 孤 0.0080000
见面 私 0.0055866
见面 见 0.0054152
见面 子贡 0.0158730
见面 恐 0.0024331
见面 会 0.0021322
见面 曰 0.0001951
见面 也 0.0002590
见面 睹 0.0222222
见面 揖 0.0188679
见面 相 0.0017050
享受 与 0.0004218
享受 穷 0.0084746
享受 为 0.0001787
享受 淫 0.0104167
享受 食 0.0051680
享受 祇 0.0476190
享受 心 0.0029586
享受 百 0.0013495
享受 可 0.0008292
享受 姓 0.0036101
享受 位 0.0049020
享受 利 0.0025840
享受 飨 0.0144928
享受 肆 0.0277778
享受 历 0.0129870
享受 歆 0.3333333
享受 得 0.0006725
享受 丰 0.0153846
享受 包 0.0416667
享受 受 0.0025575
享受 而 0.0001954
享受 焉 0.0020325
享受 肉 0.0142857
享受 康 0.0208333
享受 音乐 0.2500000
享受 欲 0.0007032
享受 古 0.0066225
享受 礼 0.0021598
享受 享 0.0103093
享受 乐 0.0054496
我处 处 0.0049751
长驱 驱 0.0217391
长驱 长 0.0019342
周定王 定 0.0042194
周定王 周 0.0014124
周定王 王 0.0002583
周定王 王孙满 0.0833333
亥相 亥 0.0312500
风餐露宿 盖 0.0079365
风餐露宿 暴露 0.1000000
风餐露宿 露 0.0666667
国侵占 侵 0.0088496
将相 相 0.0076726
将相 将 0.0041966
田需 听 0.0019380
田需 田需 0.5000000
聚饮 大 0.0004686
聚饮 酺 0.0750000
钓取奇货 钓 0.1000000
钓取奇货 奇 0.0120482
神光 域 0.0384615
神光 坛 0.0147059
战阵 事 0.0008673
战阵 鲛 0.0909091
战阵 之 0.0000909
借债 钱 0.0119048
借债 贷 0.0270270
东南角 东南 0.0357143
审讯 鞠 0.0909091
审讯 吏 0.0031847
审讯 惟 0.0166667
审讯 案 0.0188679
审讯 即 0.0027933
审讯 讯 0.1428571
审讯 治 0.0075377
审讯 簿 0.1428571
审讯 王 0.0005167
殷墟 殷 0.0090909
殷墟 虚 0.0256410
网 祝 0.0178571
网 而 0.0003909
妃妾 班 0.0714286
妃妾 人 0.0003025
弟长 蟜 0.1428571
弟长 弟 0.0015015
风向往 风 0.0086207
哪儿 为 0.0001787
哪儿 止 0.0035211
哪儿 咎 0.0131579
哪儿 归 0.0011628
哪儿 所 0.0005896
哪儿 姓 0.0036101
哪儿 死 0.0008929
哪儿 岂 0.0043290
哪儿 斯 0.0071429
哪儿 津 0.0250000
哪儿 宁 0.0095238
哪儿 何 0.0015094
哪儿 焉 0.0020325
哪儿 尝 0.0036101
哪儿 在 0.0042918
哪儿 安 0.0097800
哪儿 必 0.0009881
哪儿 成 0.0020325
豫 豫章 0.1000000
忠义 仁 0.0094340
忠义 廉 0.0172414
气节 节 0.0081301
气节 之 0.0000909
到缯地 缯 0.0500000
到缯地 至 0.0006061
从而 察 0.0112360
从而 群 0.0105263
从而 脱 0.0119048
从而 以 0.0006824
从而 而 0.0005863
从而 烦 0.0285714
从而 纣 0.0066667
从而 从 0.0008658
高楼 临 0.0117647
高楼 楼 0.0208333
蒙氏 蒙氏 0.2857143
许多 多 0.0669371
许多 列 0.0091743
许多 难 0.0043478
许多 赎 0.0625000
许多 往往 0.0588235
许多 穿 0.0181818
许多 风 0.0086207
许多 隼 0.0666667
许多 大 0.0004686
许多 货 0.0454545
许多 众 0.0123457
许多 者 0.0011448
许多 反间 0.0312500
许多 盐铁 0.0588235
许多 功业 0.0476190
许多 割地 0.0178571
许多 美 0.0086957
许多 艺 0.0238095
许多 辩士 0.0232558
许多 具 0.0047393
许多 畔 0.0099010
许多 奇 0.0120482
许多 侠 0.0588235
许多 铸 0.0526316
许多 计策 0.0769231
许多 颇 0.0112360
许多 太祝 0.0416667
许多 兴 0.0044843
许多 银 0.0714286
许多 阏氏 0.0666667
许多 尽 0.0021978
许多 几 0.0112360
许多 疵 0.0909091
许多 郑君 0.0370370
许多 财物 0.0256410
许多 君 0.0007018
许多 甚 0.0027100
许多 诸 0.0099404
许多 祭器 0.0416667
许多 曹 0.0071429
转眼间 说 0.0018116
转眼间 复 0.0010549
明邑 邑 0.0034722
明邑 明 0.0021739
砌 为 0.0005360
砌 明 0.0021739
家居不仕 居 0.0013587
家居不仕 家 0.0027548
规矩 法 0.0027701
规矩 度 0.0052083
规矩 正 0.0036496
规矩 整齐 0.1666667
规矩 矩 0.5000000
规矩 趋 0.0136986
规矩 轨 0.0277778
器着 哭 0.0125000
木星 下 0.0004484
木星 曰 0.0001951
木星 星 0.0076046
木星 木 0.0454545
木星 岁星 0.0434783
木星 斗 0.0092593
木星 、 0.0003820
得数 可 0.0008292
得数 胜 0.0027933
率 句践 0.0125000
率 光 0.0055556
率 武安君 0.0192308
率 引 0.0850202
率 复 0.0010549
率 臧荼 0.0370370
率 发兵 0.0124224
率 河北 0.0344828
率 还 0.0042827
率 鄗 0.0384615
率 桓公 0.0041152
率 张 0.0086207
率 周章 0.0555556
率 懿公 0.0312500
率 武王 0.0046948
率 渡河 0.0149254
率 未 0.0012531
率 以 0.0010235
率 栗 0.0270270
率 将 0.0191847
率 南渡 0.1666667
率 往 0.0102828
率 郅 0.5000000
率 乃 0.0009935
率 别 0.0240000
率 率 0.0478723
率 颍阴侯 0.0909091
率 绾 0.0227273
率 兵 0.0023697
率 击 0.0051746
牢记 前 0.0032468
专长 有 0.0004165
顺流而下 下 0.0013453
顺流而下 流 0.0085470
顺流而下 浮 0.0166667
顺流而下 水 0.0044843
顺流而下 而 0.0005863
顺流而下 顺 0.0081301
催请 请 0.0012330
瓯越 瓯 0.3333333
瓯越 越 0.0034247
鹿台 鹿台 0.4666667
旗幡 旗 0.0175439
旗幡 幡 0.0909091
旗幡 类 0.0104167
风 虚 0.0128205
风 哉 0.0030488
风 风 0.1551724
风 疾 0.0054348
风 条 0.0555556
风 冲 0.0370370
风 歌 0.0235849
风 蓬 0.0909091
取乐 也 0.0002590
取乐 为 0.0001787
取乐 乐 0.0054496
取乐 丸 0.1000000
取乐 氏 0.0044643
赶出 惠王 0.0045662
屋后 告 0.0025773
屋后 以 0.0001706
旧 抵 0.0175439
旧 法 0.0055402
旧 墟 0.0666667
旧 循 0.1428571
旧 为 0.0001787
旧 易 0.0035336
旧 帝 0.0016529
旧 城郭 0.0500000
旧 先帝 0.0250000
旧 父兄 0.0256410
旧 旧 0.0925926
旧 改 0.0161290
旧 川 0.0094340
旧 贵 0.0041667
旧 故 0.0054012
原先 西周 0.0303030
原先 本 0.0076923
原先 富 0.0074627
原先 丽 0.0400000
原先 诸 0.0019881
原先 火灾 0.0833333
原先 利几 0.1111111
原先 者 0.0002862
原先 初 0.0099338
原先 婢 0.0555556
原先 故 0.0069444
惊怪之色 惊 0.0140845
情感 于 0.0002772
情感 意 0.0041494
情感 己 0.0064935
情感 而 0.0003909
炎帝 炎帝 1.0000000
炎帝 火灾 0.0833333
炎帝 然后 0.0063291
昭死 卒 0.0007692
昭死 昭王 0.0063694
拖鞋 屣 0.0454545
队列 陈 0.0019194
队列 行 0.0010142
朝觐 同 0.0041152
朝觐 朝觐 0.3000000
朝觐 朝 0.0058824
分野 徐州 0.0454545
分野 为 0.0003573
分野 兖 0.3333333
分野 出 0.0009479
分野 幽 0.0169492
分野 汉 0.0019194
分野 所 0.0005896
分野 青 0.0133333
分野 其 0.0006041
分野 野 0.0603448
分野 舍 0.0033003
分野 中 0.0008734
下令 召 0.0110193
下令 悉 0.0058480
下令 诏 0.0445860
下令 其 0.0002014
下令 命 0.0020921
下令 论 0.0097087
下令 壅 0.0833333
下令 酺 0.1000000
下令 制 0.0093458
下令 今 0.0010406
下令 下 0.0017937
下令 上 0.0008183
下令 诸 0.0019881
下令 赦 0.0070922
下令 府库 0.0400000
下令 发丧 0.0270270
下令 令 0.0252404
下令 号令 0.0588235
贮存 积 0.0107527
预见 萌 0.0625000
预见 蚤 0.0222222
预见 见 0.0009025
预见 于 0.0002772
预见 知 0.0025413
预见 未 0.0012531
预见 禨 0.0769231
端方 正 0.0036496
端方 方 0.0026810
智者 所 0.0005896
智者 智 0.0400000
智者 者 0.0008586
希一 希 0.0250000
鄄城 齐 0.0005280
鄄城 伐 0.0010142
鄄城 鄄 0.2500000
鄄城 之 0.0000909
四十六 六 0.0173913
四十六 十 0.0048980
四十六 四 0.0128755
昏乱 乱 0.0061350
昏乱 昏 0.0714286
昏乱 惑乱 0.2857143
昏乱 惛 0.1250000
昏乱 昏乱 0.2000000
昏乱 秏 0.0370370
昏乱 上 0.0008183
郐国 郐 0.2631579
郐国 之 0.0000909
受骗 见 0.0018051
受骗 智 0.0080000
受骗 欺 0.0344828
启程 既 0.0023202
启程 行 0.0030426
十五邑 十 0.0004082
十五邑 五 0.0009643
十五邑 归 0.0011628
成侯 康 0.0208333
成侯 成侯 0.6923077
郊外 郊 0.1483516
郊外 会 0.0021322
郊外 之 0.0000909
郊外 虽 0.0035587
郊外 麋鹿 0.1000000
郊外 郊祀 0.1428571
郊外 拜 0.0055249
郊外 野 0.0258621
停 止 0.0598592
停 出 0.0009479
停 而 0.0005863
停 檥 0.1666667
停 耒 0.2500000
停 日夜 0.0384615
停 屋 0.0212766
停 殃 0.0344828
停 则 0.0016155
停 留守 0.0833333
停 有 0.0004165
停 衰 0.0082645
停 巿 0.0588235
停 立 0.0004907
停 留 0.0073529
丁 丁 0.4897959
丁 太丁 0.0625000
丁 武丁 0.0344828
丁 者 0.0002862
消除 入 0.0008921
消除 驱 0.0217391
消除 弭 0.1000000
消除 振 0.0114943
消除 灭 0.0041408
消除 烹 0.0161290
消除 匈奴 0.0101010
消除 张耳 0.0076923
消除 除 0.0170455
帝太甲 太甲 0.1250000
帝太甲 帝 0.0016529
参合 合 0.0031746
参合 参 0.0085470
参合 居 0.0013587
斗鸡 斗鸡 0.3333333
重修 修 0.0100000
重修 脩 0.0300000
重修 亶父 0.2500000
重修 复 0.0021097
望尘莫及 望 0.0056497
望尘莫及 而 0.0001954
望尘莫及 焉 0.0020325
勃鞮的宦者 宦 0.0133333
勃鞮的宦者 勃 0.0100000
勃鞮的宦者 者 0.0002862
勃鞮的宦者 之 0.0000909
勃鞮的宦者 鞮 0.0714286
侯虎 虎 0.0166667
侯虎 侯 0.0016207
侯虎 崇 0.0500000
癸卯日 卯 0.0312500
癸卯日 癸 0.0333333
十级 十 0.0004082
十级 级 0.0178571
出公辄 得 0.0006725
出公辄 辄 0.0101010
出公辄 卫君 0.0487805
出公辄 出公辄 0.5000000
侍候 侧 0.0196078
侍候 帚 0.1666667
侍候 从 0.0008658
侍候 箕 0.0277778
侍候 焉 0.0020325
侍候 侍 0.0518519
侍候 饭 0.0263158
驶 方 0.0026810
驶 轨 0.0277778
违法乱纪 法 0.0027701
违法乱纪 诸 0.0019881
违法乱纪 不 0.0001698
违法乱纪 代 0.0018315
谦虚 辞谢 0.0454545
谦虚 抑 0.0294118
谦虚 自 0.0009470
谦虚 谦让 0.1111111
谦虚 谦 0.0714286
谦虚 损 0.0256410
机不可失 可 0.0008292
机不可失 也 0.0002590
机不可失 不 0.0001698
机不可失 失 0.0031153
园邑 百 0.0013495
园邑 邑 0.0069444
园邑 园 0.0222222
园邑 家 0.0082645
千古 光 0.0055556
千古 垂 0.0285714
千古 于 0.0002772
千古 休 0.0114943
赶往 行 0.0010142
是弦 君 0.0007018
不疑 无 0.0006266
不疑 不 0.0005093
不疑 薨 0.0192308
不疑 疑 0.0144928
磨光 毋 0.0030960
喝道 置酒 0.0161290
毫不费力 不 0.0001698
毫不费力 拱 0.0333333
毫不费力 弊 0.0181818
毫不费力 而 0.0001954
诬秽 淫 0.0104167
诬秽 祇 0.0476190
诬秽 神 0.0051020
於期 头 0.0136986
於期 樊 0.0270270
於期 于 0.0019407
於期 期 0.0507246
上地图 地图 0.1000000
正邪 曲直 0.0833333
正邪 回 0.0188679
正邪 邪 0.0060976
话多 言 0.0007524
话多 多 0.0020284
皇权 制 0.0046729
一旦 搏 0.0312500
一旦 弛 0.0312500
一旦 见 0.0009025
一旦 旦 0.0316456
一旦 擅 0.0153846
一旦 有 0.0012495
一旦 一 0.0114395
一旦 壹 0.0909091
一旦 得 0.0006725
一旦 卒 0.0015385
一旦 夫 0.0008969
一旦 以 0.0001706
一旦 霸 0.0055249
一旦 弗 0.0026455
一旦 日 0.0013831
一旦 天 0.0006789
一旦 信 0.0021882
一旦 从 0.0008658
一旦 构 0.0625000
一旦 细 0.0250000
淇 下 0.0004484
淇 淇 0.3333333
土星 土 0.0164835
土星 金 0.0041152
惊 里 0.0030581
惊 患 0.0036630
惊 嘻 0.0909091
惊 眄 0.2000000
惊 而 0.0001954
惊 怪 0.0163934
惊 视 0.0049751
柔 气 0.0072993
柔 柔 0.2631579
种种 害 0.0080645
种种 檐 0.1000000
种种 甾 0.3333333
种种 状 0.0140845
种种 其 0.0002014
种种 赵高 0.0088496
种种 百 0.0013495
种种 各 0.0041494
种种 应 0.0069444
种种 昭 0.0119048
种种 绝 0.0028249
种种 云 0.0050251
种种 备 0.0067568
种种 欲 0.0007032
种种 设 0.0131579
种种 神 0.0051020
史举 举 0.0034364
安心 守 0.0028090
安心 安 0.0048900
安心 儋 0.0454545
安心 适 0.0054348
安心 之 0.0000909
安心 乐 0.0027248
安心 心 0.0029586
安心 枕 0.0263158
建平 平 0.0038314
建平 建 0.0109290
国被 则 0.0008078
西周 西周 0.6666667
西周 咎 0.0131579
西周 君 0.0007018
西周 受 0.0025575
西周 周 0.0141243
西周 名 0.0022936
西周 假 0.0084746
西周 敝 0.0224719
西周 二 0.0011710
西周 迹 0.0212766
舅父 舅 0.2222222
舅父 也 0.0005180
舅父 舅父 0.5000000
舅父 氏 0.0089286
刻苦 苦 0.0090090
刻苦 身 0.0028571
刻苦 读 0.0238095
支流 沱 0.1250000
支流 甚 0.0027100
支流 九 0.0019417
支流 中 0.0008734
无敌于天下 下 0.0008969
无敌于天下 天 0.0013578
无敌于天下 敌 0.0217391
无敌于天下 无 0.0012531
无敌于天下 于 0.0005545
不窋 不 0.0005093
不窋 用 0.0013477
不窋 窋 0.1304348
许地 许 0.0057637
把玩 而 0.0001954
把玩 刓 0.0500000
六亲 六 0.0028986
六亲 亲 0.0062893
氏也 季氏 0.0181818
氏也 将 0.0005995
公称 为 0.0001787
公称 公 0.0009756
的芷草 茝 0.1428571
尽失 尽 0.0021978
熊亶 亶 0.1666667
驺衍 衍 0.0400000
驺衍 驺 0.0555556
必然 惧 0.0060976
必然 情性 0.1250000
必然 然 0.0014948
必然 矣 0.0016978
必然 必 0.0326087
必然 形势 0.2000000
必然 道 0.0015314
必然 贯 0.0370370
必然 壅 0.0833333
必然 我 0.0012594
必然 举 0.0034364
必然 新 0.0098039
周舍 周舍 0.6666667
蒙恬 者 0.0002862
蒙恬 恬 0.3684211
蒙恬 蒙氏 0.0714286
蒙恬 蒙恬 0.7435897
帝舜 帝 0.0049587
帝舜 舜 0.0209790
帝舜 咸 0.0126582
向里 门 0.0041841
向里 反 0.0018587
泓 既 0.0023202
泓 于 0.0005545
泓 泓 0.2777778
房屋 财物 0.0256410
房屋 庑 0.0833333
房屋 郭 0.0200000
房屋 庐 0.0434783
房屋 宅 0.0714286
房屋 数 0.0013736
房屋 屋 0.1276596
房屋 邸 0.0263158
房屋 室 0.0413223
房屋 房 0.0153846
房屋 笫 0.2500000
犀侯 侯 0.0016207
犀侯 犀 0.0666667
背面 郭 0.0200000
背面 周 0.0014124
制止 按 0.0400000
制止 正 0.0036496
制止 止 0.0246479
制止 一 0.0009533
制止 制 0.0093458
制止 匡 0.0169492
制止 之 0.0002727
应酬 酬 0.1250000
应酬 其 0.0002014
应酬 应 0.0069444
驻扎 关 0.0041841
驻扎 伍 0.0263158
驻扎 止 0.0070423
驻扎 漳 0.0800000
驻扎 次 0.0259067
驻扎 阪 0.0384615
驻扎 钜 0.0333333
驻扎 秦军 0.0081301
驻扎 历 0.0259740
驻扎 卒 0.0007692
驻扎 章邯 0.0104167
驻扎 屯兵 0.1000000
驻扎 河内 0.0227273
驻扎 雍丘 0.0625000
驻扎 荥阳 0.0091743
驻扎 汉军 0.0256410
驻扎 军 0.0433333
驻扎 棘 0.0555556
驻扎 焉 0.0020325
驻扎 在 0.0042918
驻扎 屯 0.0980392
驻扎 居 0.0081522
驻扎 舍 0.0066007
逼 陨 0.0666667
逼 鸱 0.0333333
逼 挤 0.3333333
逼 毛遂 0.0454545
逼 以 0.0001706
逼 劫 0.0111111
逼 诣 0.0175439
逼 急 0.0043290
肾脏 肾 0.1250000
北狄 国 0.0006101
北狄 北 0.0023202
北狄 狄 0.0344828
北狄 貊 0.1666667
北狄 之 0.0000909
酂 酂 0.1428571
梁山 山崩 0.1250000
梁山 梁 0.0032154
密姬 密姬 1.0000000
襄王黜 所 0.0005896
襄王黜 襄王 0.0074074
襄王黜 绌 0.0196078
顺意 没 0.0133333
顺意 幸 0.0034130
新朋友 交 0.0071942
新朋友 后 0.0008285
新朋友 人 0.0003025
新朋友 之 0.0000909
狄 翟 0.0097087
后稷庙 祠 0.0029586
后稷庙 后稷 0.0384615
万物 间 0.0052632
万物 节 0.0081301
万物 和 0.0034843
万物 洗 0.0312500
万物 万 0.0830861
万物 近 0.0079365
万物 润 0.0833333
万物 风雨 0.0222222
万物 在 0.0014306
万物 化 0.0149254
万物 物 0.2293907
万物 流 0.0085470
万物 终始 0.0217391
万物 静 0.0217391
万物 别 0.0240000
帝少康 帝 0.0016529
帝少康 少康 0.0909091
紫布 紫 0.1250000
残疾人 人 0.0003025
残疾人 如 0.0011223
残疾人 令 0.0012019
汇 荥 0.1428571
汇 既 0.0069606
汇 沣 0.1111111
汇 沮 0.0333333
汇 属 0.0027778
汇 播 0.0333333
汇 所 0.0005896
汇 彭蠡 0.0769231
汇 泾 0.0344828
正面 自 0.0009470
正面 当 0.0022173
劫掠 略 0.0224719
劫掠 误 0.0277778
劫掠 收 0.0042373
劫掠 寇 0.0263158
劫掠 掠 0.0454545
劫掠 劫 0.0333333
劫掠 盗 0.0112360
贡品 均 0.0277778
贡品 因 0.0013021
贡品 致 0.0037313
贡品 异姓 0.0400000
贡品 周 0.0014124
贡品 之 0.0000909
贡品 贡 0.0303030
贡品 皮 0.0256410
贡品 献 0.0050761
贡品 室 0.0082645
贡品 江 0.0077519
汹涌 大 0.0004686
汹涌 水 0.0044843
丧父 孤 0.0080000
龙门 龙门 0.6000000
永无 终 0.0051020
永无 无 0.0006266
永无 而 0.0001954
永无 复 0.0021097
永无 戾 0.0400000
鼓励 劝 0.1041667
鼓励 士 0.0026810
鼓励 以 0.0001706
鼓励 教 0.0061350
鼓励 励 0.2000000
鼓励 陌 0.0526316
晋定 晋 0.0010858
俊美 美 0.0086957
子代 次 0.0051813
子代 代 0.0018315
左 为 0.0001787
左 右 0.0072464
左 稍 0.0133333
左 审食其 0.0666667
左 其 0.0002014
左 丞 0.0285714
左 告 0.0025773
左 左 0.3014706
左 左右 0.0807175
左 偏 0.0303030
左 左师 0.2500000
左 相 0.0008525
嘴巴 犹 0.0072993
嘴巴 而 0.0003909
嘴巴 之 0.0000909
嘴巴 其 0.0002014
嘴巴 口 0.0588235
嘴巴 也 0.0002590
嘴巴 不 0.0001698
嘴巴 注 0.0322581
嘴巴 吟 0.0833333
夷伯 三 0.0005461
夷伯 夷 0.0056818
夷伯 伯 0.0052910
寡人 人 0.0054446
寡人 寡 0.0900901
重刑酷 重 0.0028818
重刑酷 刑 0.0069444
欣然 欣然 0.0454545
欣然 于是 0.0016447
欣然 欣 0.0196078
欣然 庶 0.0076336
欣然 然 0.0014948
欣然 歆 0.3333333
欣然 忻 0.1428571
郦氏 郦 0.0454545
郦氏 氏 0.0044643
国割 割地 0.0178571
国割 以 0.0001706
国割 之 0.0000909
国割 割 0.0068493
东壁宿 东壁 0.2500000
沙沙 肃然 0.0666667
沙沙 风 0.0086207
失势 公 0.0009756
失势 势 0.0087719
失势 损 0.0256410
郧公 郧公 0.7500000
同房 幸 0.0034130
飞驰 驰 0.0402685
会人 会人 0.3333333
水银 水 0.0044843
水银 银 0.0714286
关上 闭 0.0270270
关上 自 0.0009470
琴瑟 子 0.0003316
琴瑟 未 0.0012531
琴瑟 琴瑟 0.2666667
琴瑟 桐 0.0312500
舒国 舒 0.0333333
史敦 敦 0.0294118
毒刺 致 0.0037313
毒刺 之 0.0000909
毒刺 虿 0.2000000
高朋 宾客 0.0131579
高朋 堂 0.0212766
失利 使 0.0004955
失利 不 0.0008489
失利 考烈王 0.0625000
失利 利 0.0129199
公午 公 0.0009756
公午 午 0.0196078
有光 光 0.0055556
有光 有 0.0004165
刘氏冠 冠 0.0097087
刘氏冠 刘氏 0.0208333
贪利 贪 0.0526316
贪利 利 0.0025840
贪利 戾 0.0800000
诗经 百 0.0013495
诗经 整 0.1000000
诗经 云 0.0150754
诗经 诗书 0.0461538
诗经 淫 0.0104167
诗经 述 0.0370370
诗经 诗 0.1136364
诗经 已 0.0013532
诗经 颂 0.0204082
黄霸 者 0.0002862
黄霸 霸 0.0110497
误食马肝 肝 0.0588235
出兵 起兵 0.1041667
出兵 去 0.0012019
出兵 出 0.0312796
出兵 赴 0.0192308
出兵 发兵 0.0621118
出兵 荆 0.0136986
出兵 山戎 0.0625000
出兵 河东 0.0344828
出兵 肯 0.0208333
出兵 王 0.0002583
出兵 终 0.0051020
出兵 下 0.0004484
出兵 攻 0.0012136
出兵 师 0.0028090
出兵 因 0.0026042
出兵 兴兵 0.1176471
出兵 盛 0.0095238
出兵 数 0.0013736
出兵 事 0.0008673
出兵 南郑 0.0769231
出兵 举兵 0.0243902
出兵 行 0.0010142
出兵 起 0.0028490
出兵 来 0.0019305
出兵 怒 0.0020534
出兵 徼 0.0476190
出兵 伐 0.0060852
出兵 巴蜀 0.0270270
出兵 以 0.0001706
出兵 盂 0.1250000
出兵 骠 0.1428571
出兵 救 0.0089021
出兵 信陵君 0.0937500
出兵 兵 0.0236967
群星 星 0.0038023
群星 众 0.0030864
在蕲 蕲 0.1481481
在蕲 我 0.0012594
在蕲 而 0.0001954
道义 父 0.0023148
道义 义 0.0976562
道义 道 0.0045942
道义 德义 0.0476190
道义 殄 0.0588235
道义 焉 0.0020325
道义 已 0.0013532
力量 御 0.0070423
力量 周市 0.0416667
力量 彊 0.0063291
力量 樗里疾 0.0833333
力量 务 0.0219780
力量 戢 0.1250000
力量 民 0.0034904
力量 主 0.0061475
力量 劲 0.0434783
力量 依 0.0294118
力量 卑 0.0105263
力量 党 0.0119048
力量 辅 0.0105263
力量 功 0.0024876
力量 焉 0.0020325
力量 围 0.0057471
力量 助 0.0156250
力量 也 0.0012950
力量 求 0.0026247
力量 社稷 0.0100000
力量 益 0.0025641
力量 弊 0.0181818
力量 力 0.0982906
力量 取 0.0012853
力量 临 0.0058824
力量 尚 0.0049751
力量 怪 0.0081967
力量 雪 0.0833333
力量 慧 0.2000000
力量 得 0.0006725
力量 卒 0.0007692
力量 以 0.0001706
力量 而 0.0001954
力量 弗 0.0026455
力量 挑战 0.0416667
力量 缭 0.0526316
力量 敝 0.0112360
力量 室 0.0165289
力量 举 0.0068729
昂贵 贵 0.0041667
吃苦 苦 0.0090090
谏阻 沮 0.0333333
谏阻 谏 0.0064103
禹还 服 0.0038462
广袤 大 0.0004686
广袤 称 0.0039841
先是 乡 0.0064103
先是 章 0.0071942
先是 中 0.0008734
布施 施惠 0.2352941
布施 布 0.0064935
布施 施德 0.0384615
布施 而 0.0001954
布施 用 0.0013477
布施 故 0.0007716
布施 傅 0.0125000
摧枯拉朽 槁 0.0434783
摧枯拉朽 若 0.0023256
摧枯拉朽 举 0.0034364
摧枯拉朽 振 0.0114943
忧郁 忧 0.0106952
忧郁 含 0.0666667
公攻 伐 0.0010142
公攻 荡 0.0344828
公司 公 0.0009756
公司 司空 0.0526316
不快 堙 0.0769231
不快 不 0.0001698
不快 且 0.0019724
不快 而 0.0001954
不快 郁 0.0416667
不快 怿 0.0357143
战甲 陈 0.0019194
战甲 甲 0.0059524
遵用 数 0.0013736
遵用 用 0.0013477
姐妹 族 0.0078740
姐妹 弟 0.0015015
姐妹 一 0.0009533
姐妹 昆 0.0149254
忿忿不平 忿 0.0384615
忿忿不平 怨 0.0043860
忿忿不平 职 0.0136986
秦时 柱 0.0217391
秦时 秦 0.0003965
秦时 亦 0.0015432
秦时 时 0.0012771
飞扬 气 0.0072993
飞扬 扬 0.0740741
解说其意 其 0.0002014
解说其意 意 0.0041494
潦倒 落 0.0625000
潦倒 困 0.0082645
潦倒 为 0.0001787
潦倒 魄 0.0588235
潦倒 辱 0.0093458
墙垣 垣 0.0256410
挨家 逐 0.0059524
日行千里 里 0.0091743
日行千里 日 0.0027663
日行千里 行 0.0010142
日行千里 一 0.0019066
日行千里 千 0.0061602
道不拾遗 遗 0.0051020
道不拾遗 道 0.0015314
道不拾遗 不 0.0001698
道不拾遗 拾 0.0555556
贱妾 妾 0.0196078
贱妾 公 0.0009756
贱妾 姞 0.2000000
贱妾 贱 0.0113636
伴送 送 0.0082645
推荐 推 0.0107527
推荐 悼 0.0093458
推荐 子 0.0003316
推荐 于 0.0008317
推荐 景监 0.0625000
推荐 縠 0.0769231
推荐 辟 0.0087719
推荐 柢 0.2500000
推荐 所 0.0017689
推荐 诵 0.0322581
推荐 恨 0.0178571
推荐 平原君 0.0069444
推荐 嬖 0.0192308
推荐 言 0.0082769
推荐 谈 0.0909091
推荐 滑 0.0333333
推荐 重任 0.1000000
推荐 荀 0.0588235
推荐 祁傒 0.1666667
推荐 进 0.0684411
推荐 荐 0.1458333
推荐 祁 0.1111111
唯其 欲 0.0007032
唯其 唯 0.0079365
一意 苟 0.0400000
一意 利 0.0025840
一意 生 0.0012225
一意 之 0.0001818
丑日 丑 0.0519481
入于 入 0.0080285
入于 柳 0.0645161
入于 于 0.0002772
入于 箕 0.0555556
入于 旅 0.0151515
入于 营室 0.0606061
入于 旦 0.0063291
败将 不 0.0001698
败将 军 0.0008333
败将 败 0.0016367
受伤害 伤 0.0077519
儋拜见 见 0.0009025
儋拜见 儋 0.0454545
能够 破 0.0023502
能够 育 0.0357143
能够 云气 0.0555556
能够 辟 0.0087719
能够 疏 0.0253165
能够 忘 0.0083333
能够 能 0.0405405
能够 所 0.0005896
能够 若 0.0046512
能够 彊 0.0021097
能够 岩 0.0588235
能够 利 0.0025840
能够 达 0.0200000
能够 江东 0.0526316
能够 足 0.0270270
能够 奈 0.0057143
能够 内 0.0031646
能够 霸 0.0055249
能够 荆轲 0.0114943
能够 安 0.0024450
能够 也 0.0002590
能够 谦让 0.1111111
能够 圬 0.5000000
能够 微 0.0151515
能够 福 0.0149254
能够 存 0.0090909
能够 奇 0.0120482
能够 求 0.0026247
能够 光 0.0055556
能够 因 0.0013021
能够 凡 0.0081301
能够 风俗 0.1428571
能够 力 0.0042735
能够 可 0.0157546
能够 自 0.0009470
能够 道 0.0030628
能够 养老 0.0526316
能够 知 0.0012706
能够 有 0.0004165
能够 沉 0.0909091
能够 尚 0.0049751
能够 应 0.0069444
能够 豢 0.1428571
能够 会盟 0.0526316
能够 获 0.0151515
能够 得 0.0302623
能够 继 0.0250000
能够 席卷 0.0434783
能够 幸得 0.0937500
能够 以 0.0042648
能够 之 0.0002727
能够 彬 0.1111111
能够 尝 0.0036101
能够 在 0.0014306
能够 转 0.0114943
能够 反 0.0018587
能够 借 0.0232558
能够 改 0.0161290
能够 闳夭 0.0526316
能够 贾 0.0102041
能够 恻 0.1250000
能够 甘茂 0.0133333
能够 原 0.0098684
珍禽异兽 羽 0.0138889
珍禽异兽 兽 0.0277778
珍禽异兽 珍 0.0333333
珍禽异兽 齿 0.0344828
珍禽异兽 毛 0.0238095
俀为鲁君 俀 0.2000000
奉事秦国 事 0.0017346
奉事秦国 秦 0.0007930
律历 律历 0.0344828
撞 以 0.0001706
撞 而 0.0003909
撞 高 0.0023585
撞 覆 0.0149254
撞 触 0.0400000
撞 树 0.0169492
撞 撞 0.3750000
撞 璧 0.0101010
撞 柱 0.0434783
寻求 可 0.0008292
寻求 苛 0.0588235
寻求 求 0.0236220
寻求 安 0.0024450
寻求 为 0.0001787
寻求 家财 0.2500000
埋伏 其 0.0002014
埋伏 士 0.0053619
埋伏 高祖 0.0043860
埋伏 棘门 0.0666667
埋伏 甲 0.0059524
埋伏 伏 0.0620155
埋伏 窟 0.0666667
重复 申 0.0169492
重复 去 0.0012019
重复 之 0.0000909
重复 复 0.0042194
重复 相 0.0008525
誓约 约 0.0201613
誓约 誓 0.0232558
誓约 初 0.0033113
劳 劳 0.0095238
劳 功 0.0024876
劳 敕 0.2000000
万世 世 0.0147601
万世 万 0.0148368
酒渣 糟糠 0.0833333
斧头 斫 0.1000000
斧头 卢 0.0666667
斧头 市 0.0074627
斧头 质 0.0051813
斧头 斧 0.0434783
昏愦 荒 0.0277778
昏愦 矣 0.0008489
专横 倍 0.0069444
见识 下 0.0004484
见识 见 0.0009025
见识 明 0.0021739
见识 阅 0.1111111
见识 高 0.0023585
见识 天 0.0006789
见识 所 0.0005896
见识 翼 0.0243902
见识 雄 0.0416667
见识 俊 0.0588235
见识 博 0.0133333
见识 愚 0.0140845
小豬 豚 0.1000000
怎么样 奚 0.0238095
怎么样 何 0.0264151
怎么样 哉 0.0030488
怎么样 可 0.0008292
怎么样 若 0.0023256
怎么样 闳夭 0.0526316
怎么样 也 0.0005180
怎么样 命 0.0020921
怎么样 楚悼王 0.1111111
怎么样 知 0.0012706
怎么样 光辉 0.0909091
怎么样 如 0.0370370
怎么样 仪 0.0098039
汉皇 皇 0.0072993
汉皇 汉 0.0019194
议和 处 0.0049751
议和 平 0.0019157
议和 结 0.0135135
议和 公仲 0.0232558
议和 和 0.0139373
议和 新 0.0098039
援救 夫 0.0008969
援救 以 0.0001706
援救 之 0.0003636
援救 救 0.1394659
援救 不 0.0001698
援救 肯 0.0104167
援救 来 0.0019305
援救 阿 0.0161290
援救 遣 0.0044843
清净 不 0.0001698
清净 清 0.0270270
引路 引 0.0040486
引路 导 0.0526316
老牛 牛 0.0087719
改称为 曰 0.0001951
改称为 丞相 0.0034602
改称为 更 0.0040816
西南 西南 0.1904762
西南 巴蜀 0.0270270
西南 西 0.0015873
色 赤 0.0606061
色 之 0.0000909
色 黑 0.0428571
色 其 0.0002014
色 青 0.0133333
色 裻 0.3333333
色 黄 0.0283019
色 成 0.0020325
色 白 0.0242424
色 容 0.0103093
色 色白 0.0833333
色 色 0.0647482
贫民 贫民 0.5714286
贫民 假 0.0084746
贫民 人 0.0003025
贫民 贫穷 0.1428571
贫民 适 0.0054348
贫民 者 0.0002862
贫民 渔阳 0.2500000
贫民 贫 0.0235294
贫民 役 0.0384615
将士 祠 0.0029586
将士 战胜 0.0156250
将士 赏赐 0.0285714
将士 大 0.0004686
将士 士 0.0348525
将士 项羽 0.0043478
将士 士卒 0.0202020
将士 中 0.0008734
将士 卒 0.0038462
将士 吏 0.0031847
将士 夫 0.0044843
将士 置 0.0032680
将士 尸 0.0377358
将士 军 0.0016667
将士 将 0.0011990
将士 尔 0.0106383
将士 也 0.0002590
将士 土 0.0054945
将士 成 0.0020325
将士 乃 0.0004968
将士 谋 0.0029326
将士 戎 0.0095238
将士 兵 0.0007899
将士 抚 0.0303030
将士 吴芮 0.1250000
万民 奈 0.0057143
万民 兆民 0.0833333
万民 万民 0.3333333
万民 蒸 0.0833333
万民 其 0.0002014
万民 曰 0.0001951
万民 苦 0.0090090
万民 教化 0.1250000
万民 民 0.0052356
万民 朕 0.0057803
万民 首 0.0050251
丝织品 衣食 0.0384615
图谋 之 0.0002727
图谋 污 0.0294118
图谋 欲 0.0021097
图谋 谋 0.0322581
图谋 乃 0.0004968
图谋 存 0.0090909
图谋 谋反 0.0540541
图谋 图 0.0793651
先走 人 0.0003025
先走 前 0.0032468
先走 行 0.0010142
尊容 貌 0.0270270
尊容 玉 0.0208333
叙说 言 0.0007524
叙说 家 0.0027548
功过 论功 0.0714286
功过 而 0.0001954
黄土 土 0.0054945
黄土 黄 0.0094340
爬 袴 0.1666667
爬 于 0.0002772
爬 行 0.0010142
爬 出 0.0018957
爬 虫 0.2000000
爬 膝 0.0416667
二等 二 0.0017564
二等 减 0.0555556
二等 又 0.0021930
二等 等 0.0071259
二等 中 0.0008734
小市 小 0.0027548
小市 当 0.0022173
小市 市 0.0074627
邑是 邑 0.0034722
邑是 ， 0.0000248
邑是 崔 0.0909091
天使 天 0.0006789
天使 也 0.0002590
天使 使 0.0004955
天使 阳侯 0.0714286
险境 得 0.0006725
险境 行 0.0010142
险境 脱 0.0357143
险境 者 0.0002862
姣美 好 0.0064725
姣美 而 0.0001954
姣美 倩 0.2500000
脚力 足 0.0024570
脚力 费 0.0125000
脚力 不 0.0001698
脚力 僦 0.2500000
脚力 甚 0.0027100
脚力 相 0.0008525
仰视 视 0.0099502
物 嚼 0.0769231
物 穷 0.0084746
物 芝 0.0526316
物 则 0.0024233
物 百 0.0013495
物 二 0.0005855
物 慎 0.0112360
物 贵 0.0083333
物 动 0.0114943
物 乱 0.0030675
物 诱 0.0270270
物 怪物 0.1000000
物 转 0.0114943
物 诸 0.0019881
物 物 0.0681004
物 使 0.0004955
物 俎豆 0.0270270
物 识 0.0266667
马肉 肉 0.0142857
马肉 善 0.0019455
马肉 马 0.0107527
枕头 而 0.0001954
枕头 枕 0.0526316
夏声 夏声 0.5000000
夏声 夏 0.0039062
监狱 圄 1.0000000
监狱 廷尉 0.0294118
监狱 狱 0.0317460
死子反 反 0.0018587
死子反 子 0.0003316
极为 胶 0.0625000
极为 辽 0.2500000
极为 厚 0.0047847
极为 致 0.0037313
极为 甚 0.0081301
极为 盛 0.0095238
极为 至 0.0012121
极为 极 0.0071942
极为 景 0.0101010
极为 困 0.0082645
极为 后 0.0008285
极为 设 0.0131579
极为 信 0.0021882
极为 急 0.0043290
对垒 夹 0.0175439
对垒 众 0.0030864
对垒 荥阳 0.0091743
对垒 相 0.0008525
起用 冉 0.0555556
起用 忠臣 0.0227273
起用 化 0.0149254
起用 举 0.0034364
起用 起 0.0028490
起用 用 0.0067385
起用 者 0.0002862
起用 立 0.0004907
起用 练 0.1250000
起用 良 0.0047619
夷族 也 0.0002590
夷族 会 0.0021322
夷族 夷 0.0056818
车驾 俟 0.0909091
车驾 东莱 0.0500000
车驾 增 0.0204082
车驾 御 0.0070423
车驾 骖 0.0666667
车驾 驾 0.0454545
车驾 辨 0.0217391
车驾 马 0.0053763
车驾 所 0.0005896
车驾 待 0.0046948
车驾 行 0.0010142
忠实 忠信 0.0344828
忠实 奉 0.0035088
二心 贰 0.0526316
二心 二 0.0011710
二心 虑 0.0112360
二心 矣 0.0008489
二心 心 0.0088757
败家子 慈 0.0357143
败家子 子 0.0003316
败家子 以 0.0001706
败家子 败 0.0016367
到狐 公 0.0009756
到狐 于 0.0002772
到狐 单 0.0500000
到狐 狐 0.0232558
到狐 心 0.0029586
制做 为 0.0001787
制做 滨 0.0434783
制做 治 0.0025126
制做 砮 0.1428571
制做 之 0.0000909
屡屡 景 0.0101010
屡屡 数 0.0054945
屡屡 诛 0.0017730
屡屡 屡 0.0769231
屡屡 孝 0.0058140
屡屡 而 0.0001954
矛盾 国 0.0006101
矛盾 间 0.0052632
矛盾 内 0.0031646
矛盾 和 0.0034843
矛盾 免 0.0056180
矛盾 不 0.0001698
矛盾 闻 0.0008403
矛盾 郤 0.0731707
严查 下 0.0004484
严查 吏 0.0031847
严查 治 0.0025126
求援 求 0.0026247
求援 救 0.0029674
求援 如 0.0011223
求援 晋 0.0010858
求援 告急 0.0793651
让公 公 0.0009756
让公 立 0.0004907
伯侨 侨 0.3333333
伯侨 伯 0.0052910
掌 卜 0.0074074
掌 于 0.0002772
掌 属 0.0027778
掌 政 0.0032895
掌 符 0.0178571
掌 外 0.0032787
掌 擅 0.0153846
掌 操 0.0212766
掌 鲁 0.0023095
掌 主 0.0020492
掌 用 0.0026954
掌 掌 0.0800000
承接 昭王 0.0063694
承接 蒙 0.0238095
承接 故 0.0007716
无依无靠 所 0.0005896
无依无靠 倚 0.0625000
无依无靠 无 0.0006266
无依无靠 寡 0.0045045
无依无靠 鳏 0.1250000
下气 大 0.0004686
下气 卑 0.0210526
肃静 莫 0.0021739
死生祸福无不宜 可 0.0008292
死生祸福无不宜 无 0.0006266
死生祸福无不宜 物 0.0035842
死生祸福无不宜 不 0.0001698
子转 转 0.0114943
关东 毋 0.0030960
关东 能 0.0011261
关东 坏 0.0200000
关东 隔 0.0476190
关东 持戟 0.0476190
关东 关东 0.4000000
关东 东 0.0013699
关东 山东 0.0133333
文化 少 0.0023981
天潢 潢 0.0769231
死范痤 死 0.0008929
嫉恨 嫉 0.0666667
嫉恨 睢 0.0250000
嫉恨 妒 0.0357143
嫉恨 之 0.0000909
反汉 韩信 0.0091743
大都城 都 0.0049261
大都城 国 0.0006101
大都城 大 0.0004686
大都城 也 0.0002590
夹击 夹 0.0175439
夹击 击 0.0012937
夹击 外 0.0032787
夫弃子而嫁 子 0.0003316
夫弃子而嫁 而 0.0001954
夫弃子而嫁 嫁 0.0196078
晋爵三级 益 0.0025641
晋爵三级 三 0.0005461
晋爵三级 级 0.0178571
晋爵三级 爵 0.0080645
扭转 反 0.0018587
扭转 存 0.0090909
扭转 覆 0.0149254
言说 曰 0.0001951
言说 言 0.0007524
伏地 地 0.0013123
伏地 据 0.0126582
肸誓 誓 0.0465116
肸誓 肸 0.1333333
肸誓 此 0.0009579
告别 谢 0.0043103
告别 别 0.0080000
告别 行 0.0010142
告别 冯欢 0.0370370
告别 辞 0.0106952
告别 去 0.0012019
金印 金 0.0041152
金印 印 0.0540541
驱逐 逐 0.2380952
驱逐 驱 0.0217391
驱逐 放逐 1.0000000
驱逐 出 0.0009479
驱逐 辟 0.0087719
驱逐 遣 0.0044843
茀出宫 茀 0.0322581
茀出宫 宫 0.0039683
茀出宫 出 0.0009479
外交 文 0.0054645
外交 交 0.0359712
外交 乘车 0.0294118
外交 厚 0.0047847
外交 客 0.0033898
外交 外 0.0032787
外交 也 0.0002590
外交 设 0.0131579
外交 举 0.0034364
外交 对 0.0030581
外交 僚 0.0384615
谬忌 祠 0.0059172
谬忌 于 0.0002772
谬忌 忌 0.1190476
谬忌 诱 0.0270270
用肘 肘 0.1176471
用肘 于 0.0002772
用肘 用 0.0013477
用肘 接 0.0204082
书令 尚书 0.1000000
书令 令 0.0012019
璧 璧 0.0101010
小雨 小 0.0027548
小雨 雨 0.0135135
生火灾 火 0.0119048
托 因 0.0013021
托 吏 0.0031847
托 既已 0.0185185
托 吊 0.0200000
托 以 0.0001706
托 属 0.0027778
托 旦 0.0063291
托 委 0.0224719
托 问 0.0019802
芒角变色 色 0.0071942
芒角变色 变 0.0045872
资格 足 0.0024570
资格 可 0.0016584
资格 以 0.0005118
资格 权 0.0087719
无人不晓 闻 0.0008403
无人不晓 不 0.0001698
无人不晓 莫 0.0021739
朱邑 朱 0.0400000
纵汉 不 0.0001698
纵汉 之 0.0000909
重叠 重 0.0028818
过夜 屯 0.0196078
过夜 乎 0.0013021
过夜 宿 0.0092593
装饰 纛 0.1250000
装饰 旄 0.0416667
装饰 雕 0.0588235
装饰 豭 0.2500000
装饰 衡 0.0149254
装饰 饰 0.1250000
装饰 珠 0.0833333
宗主 也 0.0002590
宗主 宗室 0.0212766
宋昌 昌 0.0190476
宋昌 宋昌 0.6153846
当作家 为 0.0001787
当作家 家 0.0027548
黎民百姓 黎 0.0714286
黎民百姓 万民 0.0303030
黎民百姓 黎民 0.2307692
黎民百姓 首 0.0050251
涂山氏之女 涂山 0.0909091
不侈 不 0.0001698
基层 连 0.0090909
叔父 愿 0.0070922
叔父 父 0.0185185
叔父 项梁 0.0109890
叔父 叔 0.0747664
叔父 之 0.0000909
叔父 所 0.0005896
叔父 也 0.0007770
叔父 季 0.0560748
一个个 皆 0.0008104
一个个 无 0.0006266
一个个 不 0.0001698
一个个 妒 0.0357143
一个个 焉 0.0020325
一个个 冻 0.0714286
一个个 贤 0.0027248
忠告 听 0.0019380
忠告 忠 0.0097087
忠告 矣 0.0008489
一卦 日 0.0013831
一卦 卜 0.0148148
一卦 龟 0.0333333
一卦 当 0.0022173
一卦 兆 0.0357143
一卦 之 0.0000909
令尹 令尹 0.3333333
干肉 脯 0.1111111
登台 台 0.0120482
登台 尽 0.0021978
登台 登 0.0142857
与众 与 0.0008435
与众 乃 0.0004968
与众 以 0.0001706
与众 鲍牧 0.0555556
不怀好意 善 0.0019455
不怀好意 不 0.0001698
不怀好意 代 0.0018315
毛孩子 竖 0.0204082
毛孩子 子 0.0003316
齐将田 都 0.0049261
齐将田 齐将田 0.2142857
万人之上 姓 0.0036101
万人之上 百 0.0013495
万人之上 上 0.0008183
万人之上 之 0.0001818
横流 带 0.0131579
横流 渭 0.0153846
横流 河 0.0032258
的胙 孝公 0.0111111
的胙 秦 0.0007930
的胙 胙 0.0454545
执行 督责 0.0512821
执行 先 0.0022026
执行 奉 0.0105263
执行 以 0.0001706
执行 趋 0.0136986
执行 能 0.0011261
执行 承 0.0158730
执行 审 0.0263158
执行 共 0.0035971
执行 宽舒 0.0526316
执行 行 0.0111562
执行 执 0.0121212
执行 司 0.0068493
礼品 亦 0.0015432
礼品 质 0.0051813
礼品 厚礼 0.0357143
礼品 赠 0.1666667
礼品 事 0.0008673
礼品 也 0.0002590
礼品 委 0.0112360
礼品 送 0.0082645
礼品 享 0.0103093
王后脩 脩 0.0200000
王后脩 后 0.0016570
王后脩 王 0.0007750
五十弦的瑟 十 0.0004082
五十弦的瑟 五 0.0009643
五十弦的瑟 瑟 0.0344828
五十弦的瑟 弦 0.0250000
芮二 芮 0.1000000
飞狐 狐 0.0232558
飞狐 飞 0.0555556
珠玉 珠玉 0.3125000
珠玉 室 0.0082645
珠玉 出 0.0009479
珠玉 宝玉 0.1250000
立场 异 0.0043478
立场 居 0.0013587
立场 去 0.0012019
立场 臣 0.0007032
立场 心 0.0029586
谗臣 残 0.0188679
谗臣 谗 0.0091743
报丧 赴 0.1153846
报丧 诈 0.0086207
报丧 告 0.0025773
国政 国 0.0079317
国政 明 0.0021739
国政 允 0.0526316
国政 之 0.0000909
国政 政 0.0493421
国政 事 0.0017346
国政 摄 0.0208333
国政 笃 0.0370370
国政 代 0.0018315
国政 治 0.0025126
国政 执政 0.1111111
国政 职 0.0136986
国政 权 0.0175439
国政 懈 0.1111111
文识 曰 0.0001951
文识 识 0.0133333
穰相全 穣 0.0083333
口水 则 0.0008078
断绝 通 0.0036232
断绝 卒 0.0007692
断绝 祀 0.0227273
断绝 往来 0.0188679
断绝 决 0.0060976
断绝 食 0.0025840
断绝 断 0.0121951
断绝 而 0.0001954
断绝 和亲 0.0588235
断绝 绝 0.1807910
断绝 俱 0.0044444
断绝 粮 0.0227273
断绝 不 0.0005093
泽封 立 0.0004907
泽封 刘泽 0.1111111
反对 听 0.0019380
反对 争 0.0122449
反对 废 0.0046296
反对 奭 0.0333333
反对 姓 0.0036101
反对 不 0.0003396
反对 恨 0.0178571
反对 夺 0.0074627
反对 之 0.0000909
反对 非 0.0010753
反对 反 0.0167286
反对 欲 0.0007032
反对 也 0.0002590
反对 畔 0.0099010
反对 禁 0.0088496
反对 否 0.0303030
董 安 0.0097800
董 赤 0.0101010
董 董 0.3333333
董 董安于 0.2500000
董 董翳 0.1666667
刑名 法 0.0027701
刑名 术 0.0104167
刑名 刑名 0.2500000
不同 尊卑 0.0588235
不同 贵贱 0.0263158
不同 祭 0.0103093
不同 轻重 0.0645161
不同 行赏 0.0454545
不同 笔 0.0588235
不同 齐 0.0005280
不同 各 0.0041494
不同 各异 0.0714286
不同 不 0.0018676
不同 随 0.0087719
不同 性命 0.0476190
不同 声 0.0054945
不同 度 0.0052083
不同 异 0.1000000
不同 纆 0.1666667
不同 乎 0.0013021
不同 而 0.0001954
不同 何 0.0007547
不同 禨 0.0769231
不同 也 0.0005180
不同 殊 0.0972222
不同 错 0.0181818
不同 终始 0.0217391
不同 监 0.0161290
不同 同 0.0329218
不同 壤 0.0204082
不同 直 0.0081967
代代相传 剖符 0.0270270
代代相传 勿 0.0063291
代代相传 世 0.0036900
桥下 桥 0.0270270
桥下 下 0.0008969
桥下 圯 0.1000000
桥下 梁 0.0032154
称号 察 0.0112360
称号 称号 0.1666667
称号 祝融 0.1428571
称号 义帝 0.0204082
称号 于 0.0005545
称号 归 0.0011628
称号 名 0.0022936
称号 伯 0.0105820
称号 也 0.0002590
称号 平国君 0.2000000
称号 号 0.0222222
祖 祖 0.0857143
祖 公 0.0009756
祖 者 0.0002862
祖 配 0.0526316
祖 昆 0.0149254
杀猪 杀 0.0008170
杀猪 豕 0.0909091
杀猪 进 0.0038023
孩子 异 0.0043478
孩子 骨 0.0243902
孩子 孤 0.0080000
孩子 男 0.0234375
孩子 子 0.0066313
孩子 弃 0.0058140
孩子 儿 0.0200000
孩子 路 0.0156250
孩子 公主 0.0153846
孩子 田婴 0.0322581
孩子 者 0.0005724
孩子 孺子 0.0555556
孩子 畜 0.0270270
孩子 此 0.0009579
孩子 祥 0.0238095
纷繁 纠 0.0285714
纷繁 纷 0.1052632
废 耳 0.0038760
废 其 0.0002014
废 在 0.0014306
废 咎 0.0131579
废 用 0.0013477
废 废 0.0925926
反问 曰 0.0001951
反问 因 0.0013021
建陵墓 陵 0.0059172
栾 得 0.0006725
栾 大 0.0028116
栾 栾 0.3846154
栾 栾布 0.1666667
栾 帷帐 0.0476190
穆仲 仲 0.0120482
穆仲 穆 0.0526316
祠坛 祠 0.0059172
祠坛 于 0.0002772
之徒 人 0.0003025
之徒 淫 0.0104167
之徒 徒 0.0052910
之徒 谄 0.0500000
之徒 者 0.0002862
之徒 之 0.0000909
差一点 几 0.0112360
游士 士 0.0026810
游士 游 0.0053191
扬 术 0.0104167
扬 阶 0.0270270
扬 宣 0.0095238
扬 久远 0.0555556
扬 而 0.0001954
扬 称 0.0079681
扬 扬 0.0370370
劫下 下 0.0004484
劫下 劫 0.0111111
禹所定 敢 0.0022989
禹所定 而 0.0001954
名字 邴 0.2000000
名字 丞相 0.0069204
名字 令 0.0012019
名字 名 0.0183486
京兆尹 兆 0.0357143
京兆尹 而 0.0001954
京兆尹 丞相 0.0034602
拍打 拂 0.0588235
拍打 之 0.0000909
祝 捥 0.0588235
祝 赤 0.0101010
祝 止 0.0035211
祝 五帝 0.0156250
祝 祝 0.2678571
祝 太祝 0.0416667
祝 领 0.0322581
祝 除 0.0056818
不合时宜 不 0.0003396
不合时宜 腐 0.0476190
不合时宜 时 0.0025543
进京 赵王 0.0048309
衰微 乎 0.0013021
衰微 卑 0.0421053
衰微 微 0.0378788
衰微 衰 0.0661157
衰微 秏 0.0370370
衰微 衰微 0.7500000
女子 妇 0.0181818
女子 神君 0.0384615
女子 娀 0.1666667
女子 子 0.0029841
女子 娶 0.0149254
女子 女 0.1111111
女子 雍氏 0.0625000
女子 女主 0.0454545
女子 也 0.0012950
女子 氏女 0.0400000
女子 献 0.0050761
女子 缶 0.0625000
女子 伯服 0.0909091
女子 粲 0.1250000
女子 姬 0.0194175
为界 界 0.0789474
为界 夹 0.0175439
为界 而 0.0001954
为界 之 0.0000909
首领 择 0.0133333
首领 田单 0.0263158
首领 也 0.0002590
首领 长 0.0174081
首领 君 0.0007018
首领 傅 0.0125000
首领 伯 0.0158730
时出动 出 0.0037915
保证 粮 0.0227273
保证 必 0.0009881
保证 剖符 0.0270270
保证 也 0.0002590
保证 不 0.0001698
保证 之 0.0000909
方术 师 0.0028090
方术 方术 0.1428571
方术 方士 0.0166667
方术 方 0.0643432
方术 哉 0.0030488
方术 真 0.0136986
去路 得 0.0006725
去路 不 0.0001698
去路 西 0.0015873
陆陆续续 引 0.0040486
陆陆续续 者 0.0002862
陆陆续续 稍 0.0133333
姓名 姓 0.0144404
姓名 金 0.0041152
姓名 旁 0.0126582
姓名 名 0.0137615
侯晋封 六 0.0028986
侯晋封 昌平 0.1111111
侯晋封 勒 0.0384615
侯晋封 年 0.0003446
侯晋封 侯 0.0097245
侯晋封 济川王 0.0588235
刀剑 钩 0.0384615
刀剑 厉 0.0217391
刀剑 锋 0.0238095
菑南 邢 0.0384615
菑南 南 0.0022272
菑南 说 0.0018116
二氏来齐 请 0.0012330
二氏来齐 来 0.0019305
以旦 以 0.0001706
以旦 旦 0.0063291
下明 明 0.0021739
动 未敢 0.0333333
动 于 0.0002772
动 悉 0.0058480
动 去 0.0024038
动 废 0.0046296
动 甲 0.0059524
动 全 0.0156250
动 缀 0.1250000
动 行 0.0010142
动 动 0.0517241
动 重 0.0028818
动 笞 0.0188679
动 近 0.0158730
动 欲 0.0007032
动 摇 0.0294118
动 徙 0.0034130
动 躁 0.0833333
动 时 0.0012771
暗中活动 私 0.0055866
暗中活动 晋 0.0010858
讲求 刚 0.0277778
讲求 信 0.0021882
讲求 臣 0.0007032
讲求 故 0.0015432
兵符 窃 0.0069930
兵符 兵符 0.3750000
兵符 矫 0.0217391
兵符 行 0.0010142
兵符 符 0.0357143
手工 作 0.0025253
国龙 五 0.0009643
国龙 四 0.0010730
国龙 龙 0.0099010
葬在陵圉 陵 0.0059172
葬在陵圉 葬 0.0050000
葬在陵圉 圉 0.0285714
义法 义 0.0039062
龁借 龁 0.1250000
龁借 因 0.0013021
中土地 得 0.0006725
中土地 而 0.0001954
中土地 黔 0.0163934
中土地 中 0.0008734
在祠 则 0.0008078
在祠 祠 0.0029586
人生在世 知 0.0012706
余力 老 0.0054945
惧 抑 0.0294118
惧 自 0.0009470
惧 慑 0.0400000
惧 伏 0.0077519
惧 畏 0.0153846
惧 之 0.0000909
上车 既已 0.0185185
上车 车 0.0139373
上车 上 0.0024550
吕嬃 吕 0.0322581
吕嬃 媭 0.2083333
无愧 夫 0.0008969
无愧 疚 0.3333333
无愧 不 0.0001698
名马 所 0.0005896
名马 乘 0.0035587
名马 马 0.0053763
死亡 亡 0.0027778
死亡 卒 0.0007692
死亡 也 0.0002590
死亡 人 0.0003025
死亡 死 0.0125000
死亡 者 0.0002862
死亡 限 0.0476190
心服口服 服 0.0038462
散发 散 0.0666667
可观 可 0.0008292
可观 观 0.0042373
天府 府 0.0138889
法官 正 0.0036496
法官 吏 0.0031847
法官 直 0.0081967
法官 治 0.0025126
法官 适 0.0054348
法官 王 0.0002583
法官 狱吏 0.0526316
淫荡 女 0.0021786
淫荡 憙 0.3333333
淫荡 淫 0.0208333
淫荡 侯 0.0016207
淫荡 九 0.0019417
保存 存亡 0.0526316
保存 夫 0.0008969
保存 而 0.0001954
保存 矣 0.0008489
保存 复 0.0010549
保存 策 0.0123457
保存 他 0.0068493
保存 藏 0.0113636
保存 封 0.0013245
保存 董安于 0.1250000
保存 存 0.1545455
婕妤 婕 0.3333333
婕妤 妤 0.5000000
二百七十 七 0.0020576
裯已 三 0.0005461
感戴 乡 0.0064103
感戴 戴 0.0384615
感戴 风 0.0086207
往古 古 0.0066225
多才多艺 材 0.0350877
多才多艺 多 0.0081136
多才多艺 艺 0.0476190
多才多艺 乃 0.0004968
说中 发 0.0033898
说中 中 0.0008734
说中 奇 0.0120482
铠甲 甲兵 0.0625000
铠甲 甲 0.0535714
铠甲 窟 0.0666667
铠甲 被 0.0396040
酸味 酸 0.1428571
背叛暴秦 畔 0.0099010
背叛暴秦 秦 0.0003965
禹时代 时 0.0012771
禹时代 夏 0.0039062
起先 外黄 0.0333333
起先 不 0.0001698
答道 曰 0.0035122
答道 答 0.1363636
禀报 高庙 0.0909091
禀报 言 0.0015049
禀报 报 0.0198020
禀报 随何 0.0500000
禀报 致 0.0037313
禀报 奏 0.0210526
禀报 上 0.0008183
长相 形 0.0104167
长相 状貌 0.0588235
长相 容 0.0103093
吕尚 公 0.0009756
吕尚 本 0.0076923
吕尚 吕尚 0.5909091
吕尚 之 0.0000909
吕尚 盖 0.0079365
吕尚 杖 0.0357143
吕尚 曰 0.0003902
吕尚 者 0.0002862
吕尚 尚 0.0049751
卬为殷王 殷 0.0045455
卬为殷王 为 0.0001787
卬为殷王 王 0.0002583
印之 印 0.0135135
殷周 殷 0.0045455
殷周 世 0.0018450
殷周 周 0.0014124
殷周 之 0.0000909
车衣甲 甲 0.0059524
送行 言 0.0007524
送行 士 0.0053619
送行 使 0.0004955
送行 送 0.0826446
送行 者 0.0002862
送行 之 0.0001818
送行 灞 0.1666667
疯狂 虐 0.0500000
疯狂 已 0.0013532
废除谥法 法 0.0027701
废除谥法 谥 0.0161290
废除谥法 除 0.0056818
匹配 敌 0.0108696
匹配 人 0.0006050
匹配 也 0.0005180
匹配 当 0.0022173
匹配 矣 0.0008489
匹配 主 0.0040984
匹配 配 0.0526316
协议 已 0.0013532
时力 力 0.0042735
时力 时 0.0012771
拴 得 0.0006725
拴 羁 0.0250000
拴 兮 0.0044843
拴 甿 0.1428571
光复 高祖 0.0043860
光复 于 0.0002772
光复 复 0.0010549
简陋 陋 0.0909091
简陋 穷 0.0084746
简陋 宫室 0.0161290
简陋 露 0.0666667
简陋 荜 0.3333333
得以亿万 巨 0.0250000
得以亿万 万 0.0014837
的戌卒 迁徙 0.1000000
的戌卒 徒 0.0052910
的戌卒 之 0.0000909
薄姬 薄姬 0.6000000
薄姬 薄 0.0125000
薄姬 而 0.0001954
薄姬 姬 0.0097087
不可胜计 记 0.0196078
不可胜计 可 0.0008292
不可胜计 数 0.0013736
不可胜计 也 0.0002590
不可胜计 不 0.0001698
不可胜计 胜 0.0055866
极了 饿 0.0263158
极了 善 0.0019455
极了 也 0.0002590
极了 琴 0.0277778
极了 衰 0.0082645
极了 ” 0.0002546
极了 矣 0.0008489
极了 哉 0.0030488
动听 貌 0.0270270
动听 钟磬 0.0625000
动听 柔 0.0526316
动听 甘 0.0212766
衡山 衡山 0.5000000
衡山 衡 0.0149254
亲家 婚 0.0952381
亲家 宾 0.0117647
发笑 笑 0.0058824
发笑 之 0.0000909
私通 嫂 0.0952381
私通 通 0.0144928
私通 私通 0.7142857
私通 私 0.0111732
私通 于 0.0005545
私通 悝 0.0476190
私通 庆父 0.0333333
私通 鲍 0.0400000
封齐悼 齐 0.0010560
封齐悼 悼 0.0093458
封齐悼 以 0.0001706
封齐悼 封 0.0013245
僮 闲 0.0056497
僮 僮 0.0454545
有恩 项梁 0.0109890
有恩 于 0.0005545
有恩 有 0.0012495
有恩 德 0.0070258
蚕茧 茧 0.1428571
代地 为 0.0001787
代地 掠 0.0454545
代地 赵 0.0006798
代地 代地 0.6666667
代地 赦 0.0070922
代地 陈豨 0.0151515
代地 歇 0.0357143
代地 利 0.0025840
代地 劫 0.0111111
代地 代 0.0567766
名子 曰 0.0001951
名子 命 0.0041841
名子 兔 0.0434783
名子 巫咸 0.0526316
名子 涉 0.0151515
逞凶暴 为 0.0001787
逞凶暴 桀 0.0175439
继尧 也 0.0002590
继尧 继 0.0250000
觉悟 责 0.0113636
觉悟 觉 0.0196078
觉悟 之 0.0001818
觉悟 寤 0.2000000
觉悟 自 0.0009470
觉悟 也 0.0002590
觉悟 一 0.0009533
觉悟 悟 0.1000000
择其 择 0.0133333
择其 采 0.0175439
择其 贤 0.0027248
臼 杵臼 0.1428571
臼 褒姒 0.0434783
臼 臼 0.3750000
此书 示 0.0098039
此书 书 0.0027248
蚡冒 蚡冒 1.0000000
八代 八 0.0052083
八代 世 0.0036900
八代 之 0.0000909
康诏 康 0.0208333
康诏 诰 0.0285714
害虫 蜚 0.0434783
害虫 鸿 0.0400000
害虫 满 0.0192308
大战 蓝田 0.0454545
大战 凡 0.0081301
大战 脱 0.0119048
大战 芷阳 0.1000000
大战 大 0.0023430
大战 战 0.0176817
大战 野 0.0086207
大战 曲 0.0125000
身孕 遗 0.0051020
身孕 有 0.0008330
身孕 腹 0.0333333
身孕 身 0.0142857
栗姬 望 0.0056497
栗姬 栗姬 0.5454545
栗姬 之 0.0000909
产地 产 0.0178571
产地 去 0.0012019
送璧 送 0.0082645
送璧 璧 0.0101010
惠 皆 0.0008104
惠 遇 0.0056818
惠 主父 0.0444444
惠 惠 0.1025641
惠 远 0.0056818
脚尖 望 0.0056497
脚尖 归 0.0011628
脚尖 跂 0.0714286
尖 足 0.0024570
尖 喙 0.1428571
尖 见 0.0009025
尖 末 0.0425532
尖 中 0.0008734
守成皋 成皋 0.0192308
砍头 颈 0.0434783
砍头 折 0.0163934
纣答允 纣 0.0066667
纣答允 乃 0.0004968
纣答允 许 0.0028818
手掌心 遂 0.0010977
恐不够 足 0.0024570
恐不够 不 0.0001698
揖让 则 0.0008078
揖让 从 0.0008658
揖让 让 0.0146341
揖让 揖 0.0566038
武藏 赵武 0.0333333
无误 授 0.0101010
凭 听 0.0019380
凭 剖符 0.0270270
凭 刀 0.0303030
凭 以 0.0044353
凭 太尉 0.0120482
凭 何 0.0060377
凭 所 0.0005896
凭 女 0.0021786
凭 陈涉 0.0277778
凭 恣 0.0294118
凭 劫 0.0111111
此情此景 望见 0.0212766
前击筑 使 0.0004955
前击筑 前 0.0032468
前击筑 击 0.0012937
前击筑 筑 0.0123457
誓师 牧野 0.1111111
誓师 誓 0.0930233
堂弟 弟 0.0045045
堂弟 从 0.0017316
工匠 尽 0.0021978
工匠 匠 0.2142857
工匠 共工 0.0588235
工匠 工 0.1525424
自在 枭 0.0454545
判罪 所 0.0005896
判罪 罪 0.0027174
判罪 之 0.0000909
判罪 坐 0.0037313
斯为长史 为 0.0001787
斯为长史 长史 0.0500000
亥， ， 0.0000248
亥， 者 0.0002862
亥， 亥 0.0312500
熊槐 槐 0.3333333
熊槐 熊 0.0140845
珍视 宝 0.0333333
珍视 用 0.0013477
相当 害 0.0080645
相当 财物 0.0256410
相当 为 0.0001787
相当 夫 0.0008969
相当 周 0.0014124
相当 之 0.0000909
相当 金 0.0041152
相当 什 0.0322581
相当 米 0.0625000
相当 当 0.0022173
相当 称 0.0039841
相当 妤 0.2500000
相当 比 0.0186335
动过 动 0.0057471
关上门 闭门 0.2000000
季康子 季康子 0.5000000
季康子 复 0.0010549
季康子 康子 0.2500000
燕易王 易 0.0035336
燕易王 燕 0.0017889
燕易王 王 0.0002583
商郊 郊 0.0054945
商郊 商 0.0144928
使劲 人 0.0003025
水色 锡 0.0322581
之交 倍 0.0069444
校长 长 0.0019342
校长 校 0.0666667
家邑 无 0.0006266
家邑 家 0.0027548
隐藏 柏 0.0238095
隐藏 其 0.0002014
隐藏 阳气 0.0322581
隐藏 藏 0.0113636
隐藏 匿 0.1121495
隐藏 昼 0.0333333
隐藏 伏 0.0077519
隐藏 隐 0.0375000
阴在酉 在 0.0014306
阴在酉 酉 0.0263158
阴在酉 阴 0.0045662
琅邪郡 琅邪 0.0149254
耗尽 尽 0.0021978
耗尽 肥 0.0169492
耗尽 王 0.0002583
耗尽 竭 0.0357143
名不虚传 虚 0.0128205
名不虚传 不 0.0001698
名不虚传 矣 0.0008489
苦恼 苦 0.0090090
苦恼 之 0.0000909
三寸之舌 舌 0.2000000
三寸之舌 寸 0.0327869
三寸之舌 三 0.0005461
细绳 加 0.0074074
细绳 缴 0.1000000
化育 化 0.0298507
公灵 公 0.0009756
公灵 灵 0.0217391
负责人 长 0.0096712
负责人 答 0.0454545
负责人 舍 0.0099010
得志 得 0.0006725
得志 不 0.0001698
得志 得志 0.1562500
得志 温 0.0333333
得志 已 0.0013532
得志 达 0.0200000
余祭 余祭 0.2000000
余祭 ， 0.0000248
若敖氏 灭 0.0020704
若敖氏 若敖 0.2222222
若敖氏 击 0.0012937
若敖氏 氏 0.0089286
秦国 丹 0.0123457
秦国 张仪 0.0057143
秦国 予 0.0078125
秦国 倍 0.0208333
秦国 负 0.0070922
秦国 去 0.0012019
秦国 钜 0.0333333
秦国 塞 0.0069444
秦国 到 0.0153846
秦国 芒 0.0769231
秦国 粟 0.0160000
秦国 东 0.0013699
秦国 偷 0.1000000
秦国 攻 0.0012136
秦国 犁 0.0714286
秦国 遂 0.0010977
秦国 公仲 0.0232558
秦国 媾 0.0208333
秦国 粮 0.0227273
秦国 募 0.0555556
秦国 索 0.0178571
秦国 拔 0.0037453
秦国 缶 0.0625000
秦国 郤 0.0243902
秦国 讲 0.0400000
秦国 筑 0.0123457
秦国 王孙满 0.0833333
秦国 郑朱 0.1428571
秦国 秩 0.0333333
秦国 接 0.0204082
秦国 复 0.0021097
秦国 力 0.0042735
秦国 都 0.0098522
秦国 秦军 0.0162602
秦国 阴晋 0.1111111
秦国 关内 0.0714286
秦国 地 0.0078740
秦国 郡县 0.0256410
秦国 南 0.0022272
秦国 苟 0.0200000
秦国 而 0.0009771
秦国 绝 0.0056497
秦国 之 0.0017273
秦国 王稽 0.0312500
秦国 败 0.0032733
秦国 闭 0.0540541
秦国 春秋 0.0091743
秦国 缭 0.0526316
秦国 宜阳 0.0243902
秦国 籓 0.0400000
秦国 兵 0.0047393
秦国 魏章 0.1538462
秦国 图 0.0079365
秦国 刃 0.0357143
秦国 听 0.0019380
秦国 国 0.0115924
秦国 先 0.0022026
秦国 入 0.0053524
秦国 西 0.0031746
秦国 战胜 0.0156250
秦国 营 0.0185185
秦国 出 0.0018957
秦国 归 0.0116279
秦国 县 0.0051282
秦国 晋国 0.0188679
秦国 制 0.0046729
秦国 据 0.0253165
秦国 者 0.0008586
秦国 少梁 0.0555556
秦国 秦将王 0.1111111
秦国 吏 0.0031847
秦国 南阳 0.0363636
秦国 功 0.0024876
秦国 焉 0.0020325
秦国 猛虎 0.1428571
秦国 逐 0.0059524
秦国 宾 0.0117647
秦国 也 0.0031080
秦国 安邑 0.0357143
秦国 秦昭王 0.0086957
秦国 作 0.0050505
秦国 与 0.0016871
秦国 吕省 0.1428571
秦国 蜰 0.1666667
秦国 因 0.0052083
秦国 芒卯 0.0357143
秦国 城 0.0017301
秦国 兴兵 0.0294118
秦国 争 0.0040816
秦国 宗室 0.0212766
秦国 差 0.0312500
秦国 其 0.0004027
秦国 带 0.0526316
秦国 奔 0.0069444
秦国 几 0.0112360
秦国 行 0.0010142
秦国 酺 0.0250000
秦国 应 0.0069444
秦国 关内侯 0.0666667
秦国 来 0.0057915
秦国 商鞅 0.1250000
秦国 币 0.0111111
秦国 伐 0.0030426
秦国 申包胥 0.2000000
秦国 夫 0.0080717
秦国 河间 0.1000000
秦国 脱 0.0119048
秦国 秦 0.5087232
秦国 往 0.0077121
秦国 借 0.0232558
秦国 必 0.0019763
秦国 夷吾 0.0192308
秦国 举 0.0068729
秦国 郡 0.0055556
秦国 注 0.0322581
秦国 白起 0.0135135
秦国 伍子胥 0.0222222
秦国 遣 0.0044843
子舆 子 0.0003316
子舆 舆 0.0200000
砥砨 砨 1.0000000
砥砨 砥 0.1250000
哭泣 哭 0.0500000
哭泣 哭泣 0.2352941
哭泣 泣 0.1826923
哭泣 涕 0.0727273
策略 册 0.2500000
策略 计谋 0.0500000
策略 则 0.0008078
策略 术 0.0208333
策略 道 0.0015314
策略 观望 0.1666667
策略 者 0.0005724
策略 连衡 0.0909091
策略 遗 0.0102041
策略 策 0.0246914
策略 转 0.0114943
策略 计 0.0353261
策略 缔 0.1666667
策略 宾 0.0117647
策略 长 0.0019342
策略 也 0.0015540
策略 谋 0.0058651
策略 此 0.0028736
诗经·大雅 诗 0.0075758
日 辰 0.2000000
日 既已 0.0185185
日 负 0.0070922
日 日夜 0.0192308
日 寅 0.1111111
日 气 0.0072993
日 甲 0.0238095
日 溪 0.0400000
日 履 0.0217391
日 丑 0.0909091
日 日 0.0580913
日 正 0.0036496
日 寡 0.0045045
日 申 0.0847458
日 夕 0.0188679
日 方 0.0107239
日 酉 0.1052632
日 过 0.0022523
日 丁未 0.2500000
日 癸 0.0333333
日 光 0.0166667
日 亥 0.0625000
日 其 0.0008055
日 高祖 0.0043860
日 伏 0.0155039
日 释 0.0081301
日 卒 0.0007692
日 午 0.1764706
日 未 0.0025063
日 戌 0.3666667
日 巳 0.0333333
日 甲午 0.3750000
日 时 0.0025543
深沟高垒 壁 0.0119048
深沟高垒 深 0.0059880
龙飞 有 0.0004165
龙飞 亢 0.0270270
龙飞 龙 0.0099010
攻讦 恶 0.0039841
攻讦 谗 0.0091743
攻讦 之 0.0000909
亭长 亭长 0.5789474
警告 文 0.0027322
警告 告 0.0103093
警告 檄 0.0344828
警告 “ 0.0002539
跌 绥 0.0400000
跌 堕 0.0133333
跌 僵 0.1250000
引证 叔孙 0.1111111
引证 称 0.0039841
主意 师 0.0028090
主意 为 0.0001787
主意 然 0.0014948
主意 胡衍 0.0909091
主意 之 0.0000909
主意 曹伯 0.0588235
主意 计 0.0271739
主意 纪信 0.1000000
主意 也 0.0002590
主意 谋 0.0029326
主意 沛公 0.0042735
主意 主 0.0040984
主意 者 0.0005724
主意 此 0.0009579
西进发 西 0.0047619
郊处 郊 0.0054945
郊处 我 0.0012594
郊处 兵 0.0007899
施恩德 大 0.0004686
施恩德 德 0.0023419
施恩德 修德 0.0277778
施恩德 惠 0.0128205
真情 素 0.0190476
真情 知 0.0012706
真情 情 0.0326087
真情 应 0.0069444
防风氏 防 0.0243902
防风氏 风 0.0086207
帝禹号 帝 0.0016529
帝禹号 禹 0.0083333
嫩枝 蔓 0.1428571
嫩枝 牦 0.0833333
嫩枝 豪 0.0161290
嫩枝 绝 0.0028249
会计 计 0.0054348
会计 诸 0.0019881
会计 会 0.0021322
嚷 为 0.0001787
嚷 缪 0.0243902
攻关 遣 0.0044843
嫡子为齐王 齐 0.0005280
嫡子为齐王 为 0.0001787
嫡子为齐王 子 0.0003316
嫡子为齐王 适 0.0054348
嫡子为齐王 王 0.0002583
广陵 夫 0.0008969
广陵 未 0.0012531
广陵 广陵 0.6666667
暗藏 匿 0.0093458
暗藏 私 0.0055866
兄 父兄 0.0256410
兄 也 0.0005180
兄 次 0.0051813
兄 而 0.0003909
兄 兄 0.0808081
正道 正 0.0182482
正道 道 0.0122511
正道 见 0.0009025
正道 三 0.0010923
正道 道德 0.0416667
正道 弃 0.0058140
第十五 五 0.0009643
大流星 大 0.0004686
大流星 星 0.0038023
大流星 奔 0.0034722
大流星 流星 0.2000000
之过 过 0.0022523
之过 者 0.0002862
之过 拂 0.0588235
着力 纲纪 0.1000000
虏得 得 0.0006725
虏得 所 0.0005896
虏得 诸侯 0.0011161
圆圈 圈 0.0555556
圆圈 回 0.0188679
圆圈 王 0.0002583
九鼎 而 0.0001954
九鼎 九 0.0097087
九鼎 鼎 0.0619469
夜光之璧 光 0.0055556
夜光之璧 夜 0.0068027
夜光之璧 璧 0.0101010
夜光之璧 之 0.0000909
逃到温 奔 0.0034722
逃到温 温 0.0333333
逃到温 出 0.0009479
无知 而 0.0003909
无知 鲰 0.1111111
无知 其 0.0002014
无知 狂 0.0400000
无知 无 0.0162907
无知 侗 0.2500000
无知 知 0.0317662
无知 妄 0.0204082
所有 豪 0.0161290
所有 诸侯 0.0011161
所有 田氏 0.0188679
所有 出 0.0009479
所有 攸 0.0666667
所有 纵 0.0123457
所有 秋 0.0093458
所有 黎 0.0357143
所有 所 0.0041274
所有 淮南 0.0222222
所有 麾 0.0384615
所有 独 0.0033670
所有 张 0.0086207
所有 鼎 0.0088496
所有 爱 0.0044248
所有 九 0.0019417
所有 轺 0.1250000
所有 城郭 0.0500000
所有 桥 0.0270270
所有 巨 0.0250000
所有 官 0.0048544
所有 灵 0.0217391
所有 禁 0.0088496
所有 乂 0.0714286
所有 姬 0.0097087
所有 抵 0.0175439
所有 凡 0.0081301
所有 悉 0.0350877
所有 内史 0.0277778
所有 则 0.0008078
所有 尽 0.0285714
所有 持戟 0.0476190
所有 骆 0.0625000
所有 有 0.0037484
所有 地 0.0013123
所有 如 0.0011223
所有 踊 0.0625000
所有 贬 0.0357143
所有 县官 0.0208333
所有 及 0.0009970
所有 洽 0.0526316
所有 宝剑 0.1111111
所有 夫 0.0017937
所有 楚 0.0005734
所有 而 0.0001954
所有 之 0.0001818
所有 高 0.0023585
所有 尝 0.0036101
所有 诸 0.0159046
所有 纪 0.0144928
士公 如 0.0011223
士公 会 0.0021322
借古非今 非 0.0010753
借古非今 古 0.0066225
借古非今 以 0.0001706
为乐 为 0.0001787
为乐 乐 0.0027248
砀郡 砀 0.1034483
砀郡 砀郡 0.4285714
处身 咏 0.1000000
后帝相 帝 0.0016529
后帝相 后 0.0008285
后帝相 相 0.0008525
烈王 崩 0.0037037
烈王 烈王 0.6000000
挠 言 0.0007524
挠 虚 0.0128205
挠 以 0.0001706
追捕 逐 0.0297619
追捕 卒 0.0007692
追捕 发 0.0033898
追捕 捕 0.0322581
长期存在 久 0.0030675
长期存在 者 0.0002862
长期存在 存 0.0090909
雄雌 凤 0.0476190
雄雌 谓 0.0012920
来伐吴 伐 0.0010142
来伐吴 来 0.0019305
名叫涓 涓 0.0370370
人人 恫 0.3333333
人人 皆 0.0040519
人人 涕 0.0181818
人人 莫 0.0021739
人人 各自 0.0625000
人人 奄 0.0666667
人人 承 0.0158730
人人 人 0.0060496
人人 贱 0.0113636
人人 宿 0.0092593
来得 其 0.0002014
来得 来 0.0019305
主掌 事 0.0008673
主掌 用 0.0013477
偕同 因 0.0013021
偕同 北地 0.0277778
偕同 以 0.0001706
横行无忌 行 0.0010142
横行无忌 恣 0.0294118
音是 音 0.0135135
田猎 田 0.0044248
灌 其 0.0002014
灌 灌 0.1428571
灌 彊 0.0042194
灌 畴 0.0588235
灌 坐 0.0037313
灌 阿 0.0161290
放逐 逐 0.0059524
放逐 迁 0.0129870
放逐 咎 0.0131579
放逐 放 0.1372549
放逐 房陵 0.1111111
西岸 西河 0.0227273
西岸 西 0.0015873
西岸 惟 0.0166667
西岸 济 0.0107527
西岸 之 0.0000909
繁茂 包 0.0416667
繁茂 渐 0.0243902
侵汉 入 0.0008921
侵汉 汉 0.0019194
现时 星出 0.1000000
现时 时 0.0012771
现时 今 0.0010406
困境 厄 0.0588235
困境 困 0.0165289
困境 穷 0.0084746
困境 患 0.0036630
困境 于 0.0002772
困境 救 0.0029674
困境 苏代 0.0208333
痛恨子常 子 0.0003316
痛恨子常 常 0.0029499
哨所 卒 0.0007692
哨所 设 0.0131579
哨所 庐 0.0434783
哨所 甚 0.0027100
纣帝 纣 0.0133333
纣帝 帝 0.0033058
亿 亿 0.1739130
对日 亟 0.0416667
象一 象 0.0113636
象一 共 0.0035971
象一 甪 0.3333333
象一 疥 0.2500000
竟陵 陵 0.0118343
竟陵 竟 0.0076336
卑梁 灭 0.0020704
卑梁 卑梁 0.4166667
卑梁 兵 0.0007899
君伯御 御 0.0070423
君伯御 君 0.0007018
君伯御 伯 0.0052910
依仗 国 0.0012203
依仗 持 0.0056497
依仗 勇 0.0129870
依仗 因 0.0013021
依仗 夫 0.0008969
依仗 阻 0.0303030
依仗 负 0.0070922
依仗 恃 0.1052632
依仗 辨 0.0217391
依仗 万 0.0014837
依仗 将 0.0005995
依仗 赖 0.0555556
依仗 其 0.0002014
依仗 倚 0.0625000
依仗 保 0.0103093
用于 所 0.0005896
用于 缘 0.0555556
用于 诸 0.0039761
用于 于 0.0013862
用于 务 0.0109890
用于 用 0.0053908
幅员 田广 0.0769231
四季属秋 秋 0.0093458
高远 狂 0.0400000
高远 广 0.0071429
高远 志 0.0131579
高远 高 0.0070755
孙卬 卬 0.0322581
行为 颇 0.0112360
行为 伪 0.0238095
行为 滋 0.0344828
行为 为 0.0001787
行为 负 0.0070922
行为 后宫 0.0166667
行为 侧 0.0196078
行为 事 0.0008673
行为 僭 0.0526316
行为 扰 0.0454545
行为 赃 0.2000000
行为 利 0.0025840
行为 行 0.0283976
行为 绳 0.0333333
行为 者 0.0002862
行为 虔 0.0769231
行为 义 0.0078125
行为 处 0.0049751
行为 捷 0.0714286
行为 也 0.0002590
行为 礼 0.0021598
行为 市 0.0074627
行为 尤 0.0169492
行为 黄屋 0.0714286
翠凤旗 翠 0.3333333
翠凤旗 旗 0.0175439
翠凤旗 凤 0.0476190
外传 皆 0.0008104
外传 禁 0.0088496
无话 有 0.0004165
无话 以 0.0001706
无话 应 0.0069444
指出 是 0.0006831
指出 指示 0.0555556
指出 闻 0.0008403
指出 指 0.0259740
执疵 疵 0.0909091
执疵 执 0.0060606
当夜 其 0.0002014
当夜 于是 0.0016447
当夜 是 0.0006831
当夜 夜 0.0340136
推诿 贼 0.0104167
推诿 解 0.0061350
嫡立庶 庶 0.0305344
嫡立庶 适 0.0163043
嫡立庶 立 0.0019627
敌军 北 0.0023202
敌军 破 0.0082256
敌军 废丘 0.0555556
敌军 南 0.0022272
敌军 七 0.0020576
敌军 之 0.0005455
敌军 军 0.0008333
敌军 敌 0.0543478
敌军 解扬 0.0555556
敌军 人 0.0003025
敌军 犯 0.0087719
敌军 河水 0.1000000
敌军 驰道 0.0454545
敌军 兵 0.0007899
斗 勇 0.0129870
斗 尾 0.0285714
斗 万 0.0029674
斗 魁 0.1363636
斗 粟 0.0240000
斗 ， 0.0000248
斗 斗 0.1018519
斗 庾 0.1000000
斗 刃 0.0357143
斗 锋 0.0238095
相安 其 0.0002014
相安 安 0.0024450
诏书 诏书 0.3333333
诏书 次序 0.0714286
诏书 玺 0.0227273
诏书 诏 0.0382166
诏书 下诏 0.2222222
诏书 扶苏 0.0357143
诏书 遗诏 0.1818182
诏书 书 0.0245232
诏书 赐 0.0054945
来来往往 望 0.0056497
来来往往 相 0.0008525
陈武 武 0.0093750
陈武 棘蒲侯 0.2000000
陈武 陈 0.0057582
自负 自 0.0018939
自负 负 0.0141844
倚 踞 0.0454545
倚 倚 0.0625000
倚 旗 0.0175439
倚 冯 0.0270270
子孙季纣 纣 0.0066667
子孙季纣 季 0.0093458
交换 寡 0.0045045
交换 易 0.0353357
交换 炊 0.0500000
交换 而 0.0001954
交换 请 0.0012330
既定 始 0.0031250
宅第 第 0.0487805
宅第 列侯 0.0095238
宅第 甲 0.0059524
宅第 ， 0.0000248
竖起 木 0.0151515
竖起 尔 0.0106383
竖起 于 0.0002772
竖起 指 0.0129870
竖起 立 0.0009814
竖起 已 0.0013532
亢奋 广 0.0071429
亢奋 奋 0.0192308
亢奋 贲 0.0625000
亢奋 末 0.0212766
肤色 黯 0.2000000
肤色 然 0.0014948
肤色 而 0.0001954
孤竹国 孤竹 0.0714286
夸赞 间 0.0052632
夸赞 弟 0.0015015
夸赞 母 0.0024691
转移 推 0.0107527
转移 攻 0.0012136
转移 贰 0.0526316
转移 转 0.0229885
转移 移 0.0333333
抬举 举 0.0068729
抬举 称 0.0039841
统率 两 0.0036364
统率 连 0.0090909
统率 陵 0.0118343
统率 资 0.0142857
统率 帅 0.2000000
统率 并 0.0031949
统率 将 0.0131894
乘此 攻 0.0012136
乘此 因袭 0.0833333
时势 从 0.0008658
时势 遂 0.0010977
时势 者 0.0002862
时势 时 0.0038314
国公子 诸 0.0019881
国公子 人 0.0003025
国公子 祠 0.0029586
国公子 遇 0.0056818
国公子 公子 0.0042918
人工 人 0.0003025
人工 徒 0.0052910
伏羲氏 兴 0.0044843
牵牛 其 0.0002014
牵牛 径 0.0444444
牵牛 牵牛 0.1052632
牵牛 者 0.0002862
牵牛 北河 0.0769231
晓谕 之 0.0000909
晓谕 喻 0.1111111
投诚 援 0.0384615
论列 弗 0.0026455
论列 脩 0.0100000
论列 修 0.0200000
论列 列 0.0091743
论列 论 0.0097087
被诛 效 0.0114943
相接壤 境 0.0208333
相接壤 也 0.0002590
相接壤 壤 0.0204082
相接壤 接 0.0204082
恶狗 狗 0.0204082
恶狗 名 0.0022936
作到 其 0.0002014
作到 备 0.0067568
作到 举 0.0034364
作到 者 0.0002862
作到 扰乱 0.0909091
作到 敬 0.0048309
和虞 皆 0.0008104
和虞 疆土 0.1666667
和虞 有 0.0004165
陷害 怨 0.0043860
陷害 绳 0.0333333
陷害 卖 0.0151515
福肉 于 0.0002772
福肉 胙 0.0227273
为弧 弧 0.1000000
贪欲 无 0.0006266
贪欲 欲 0.0021097
子比 子 0.0029841
子比 同 0.0041152
子比 比 0.0683230
郑重 重 0.0028818
郑重 发 0.0033898
郑重 敬 0.0096618
楚汉 楚 0.0005734
楚汉 濊 0.1000000
楚汉 中 0.0008734
楚汉 汉 0.0019194
昭彰 昏 0.0357143
昭彰 蔑 0.0625000
昭彰 闻 0.0008403
昭彰 祇 0.0476190
昭彰 章 0.0071942
昭彰 显 0.0098039
辟光 光 0.0111111
辟光 辟 0.0087719
安闲 闲 0.0056497
安闲 拱 0.0333333
安闲 甚 0.0027100
安闲 燕 0.0017889
安闲 暇 0.0344828
不尊敬 不 0.0001698
不尊敬 尊 0.0054054
不尊敬 敬 0.0048309
立即 吕泽 0.1428571
立即 饥 0.0123457
立即 引 0.0121457
立即 悉 0.0058480
立即 子綦 0.0909091
立即 接 0.0204082
立即 客 0.0033898
立即 驰 0.0201342
立即 辄 0.0404040
立即 发兵 0.0062112
立即 杀 0.0008170
立即 退 0.0101010
立即 薛公 0.0303030
立即 犬 0.0294118
立即 立 0.0039254
立即 释 0.0081301
立即 召见 0.0434783
立即 以 0.0001706
立即 亡 0.0013889
立即 即位 0.0063291
立即 范增 0.0500000
立即 疾 0.0054348
立即 乃 0.0009935
立即 即 0.0474860
立即 使 0.0009911
立即 对 0.0030581
立即 房 0.0153846
立即 兵 0.0007899
立即 急 0.0259740
立即 肃侯 0.1000000
肥肉 肉 0.0285714
肥肉 投 0.0277778
肥肉 肥 0.0169492
接来 于 0.0002772
接来 稷 0.0526316
接来 奸 0.0120482
不好 入 0.0008921
不好 道 0.0015314
不好 不 0.0020374
不好 行 0.0010142
不好 治 0.0050251
不好 善 0.0058366
不好 唯恐 0.0526316
不好 毁 0.0263158
不好 登 0.0142857
不好 体 0.0232558
不好 疾 0.0054348
不好 安 0.0024450
不好 赡 0.0454545
不好 敞 0.0909091
不好 恶 0.0199203
不好 成 0.0020325
不好 否 0.0303030
谙于 术 0.0104167
谙于 读书 0.0526316
气上腾 气 0.0072993
气上腾 上 0.0008183
乐而忘返 而 0.0001954
乐而忘返 归 0.0011628
乐而忘返 乐 0.0027248
乐而忘返 忘 0.0083333
淮北 宋 0.0032895
淮北 淮北 0.5000000
淮北 地 0.0013123
淮北 、 0.0003820
运进 入 0.0008921
运进 鼎 0.0088496
轲 既 0.0046404
轲 搏 0.0312500
轲 诺 0.0121951
轲 轲 0.3181818
轲 荆卿 0.1363636
轲 左手 0.1000000
轲 千 0.0020534
轲 造 0.0169492
轲 荆轲 0.4137931
轲 则 0.0008078
轲 发 0.0033898
轲 匕首 0.0434783
轲 畏 0.0051282
才刚 后 0.0008285
才刚 于 0.0002772
才刚 而 0.0001954
才刚 今 0.0010406
机谋 谋 0.0029326
机谋 横 0.0172414
公约 约 0.0080645
公羊 羊 0.0289855
公羊 羝 0.5000000
公羊 羖 0.0400000
交游 道 0.0015314
交游 游 0.0212766
交游 脱身 0.0909091
酒筵 施惠 0.0588235
酒筵 持 0.0056497
酒筵 饮酒 0.0952381
酒筵 具 0.0047393
酒筵 更 0.0040816
御鞅的话 言 0.0007524
御鞅的话 御 0.0070423
御鞅的话 从 0.0008658
御鞅的话 鞅 0.0135135
御鞅的话 之 0.0000909
说穿 快意 0.1428571
蕴藏 藏 0.0113636
蕴藏 宛 0.0140845
附汉国 汉 0.0038388
印迹 辙 0.5000000
绿油油 油 0.3333333
九江 九 0.0504854
九江 江王 0.3333333
九江 江 0.1162791
戌守 守 0.0028090
戌守 谪 0.0625000
戌守 徙 0.0034130
戌守 长城 0.0384615
戌守 籓 0.0400000
戌守 而 0.0001954
措辞 著 0.0416667
措辞 妙 0.0769231
措辞 称 0.0039841
措辞 辞 0.0106952
露出 袒 0.1800000
露出 矜 0.0384615
露出 特 0.0185185
露出 喜 0.0052910
露出 有 0.0004165
露出 惊 0.0140845
露出 惭 0.0256410
露出 骄 0.0107527
腌鱼 鱼 0.0163934
高义 义 0.0039062
高义 慕 0.0270270
禘祭 既 0.0023202
禘祭 禘 0.1111111
自救 自 0.0009470
自救 救 0.0118694
自救 各自 0.0312500
持久 久 0.0030675
持久 无 0.0006266
姻亲 婚 0.0952381
姻亲 求 0.0026247
姻亲 子 0.0003316
姻亲 亲 0.0031447
紫宫 紫 0.2500000
紫宫 宫 0.0079365
后尘 所 0.0005896
后尘 纣 0.0066667
后尘 为 0.0001787
水利 困 0.0082645
水利 水 0.0044843
水利 利 0.0025840
施 修 0.0100000
施 皆 0.0008104
施 引 0.0040486
施 绌 0.0196078
施 乡里 0.0714286
施 废 0.0046296
施 政 0.0032895
施 暴 0.0241935
施 远 0.0056818
施 所 0.0005896
施 脩 0.0100000
施 齐 0.0005280
施 流 0.0085470
施 德 0.0023419
施 行 0.0030426
施 反间 0.0312500
施 刑 0.0069444
施 施 0.0989011
施 仁 0.0094340
施 牛马 0.1000000
施 施德 0.1538462
施 加 0.0074074
施 之 0.0001818
施 将 0.0005995
施 醢 0.0303030
施 设 0.0131579
施 用 0.0013477
施 祥 0.0238095
言谈 言 0.0022573
言谈 及 0.0009970
言谈 私 0.0055866
言谈 语 0.0039683
言谈 恂 0.1666667
言谈 其 0.0002014
言谈 谏 0.0064103
言谈 终日 0.0526316
临周 临 0.0117647
临周 周 0.0028249
子禽处 处 0.0049751
子禽处 禽 0.0125000
担 者 0.0002862
担 谁 0.0081967
担 担 0.2000000
此间 侯 0.0016207
此间 九 0.0019417
此间 五 0.0009643
此间 伯 0.0052910
重见 父 0.0023148
重见 士 0.0026810
重见 见 0.0009025
不对头 非 0.0010753
不对头 故 0.0007716
山腰 阪 0.0384615
山腰 中 0.0008734
心满意足 子 0.0003316
心满意足 于 0.0002772
心满意足 甘心 0.0526316
心满意足 朽 0.0909091
岁首 是 0.0006831
岁首 岁 0.0014347
岁首 上 0.0008183
岁首 雨 0.0135135
岁首 黑 0.0142857
岁首 事 0.0008673
岁首 光明 0.0769231
岁首 首 0.0050251
充任 子 0.0003316
效劳 矣 0.0008489
效劳 用 0.0026954
不可不 可 0.0033167
不可不 不 0.0011885
泥 驵 0.2000000
泥 伐 0.0010142
泥 苏 0.0256410
泥 泥 0.0769231
泥 騺 0.0833333
四周 面 0.0070423
四周 方 0.0026810
四周 郭 0.0200000
四周 地 0.0013123
四周 四 0.0053648
四周 周 0.0014124
为有虞 为 0.0001787
为有虞 有 0.0004165
为有虞 虞 0.0100000
叛逃 亡 0.0013889
叛逃 久 0.0030675
璧玉 抱 0.0256410
璧玉 其 0.0004027
璧玉 还 0.0021413
璧玉 槽 0.2500000
璧玉 投 0.0277778
璧玉 璧 0.0707071
璧玉 逆 0.0094340
璧玉 玉 0.0208333
盘曲 木 0.0151515
盘曲 蟠 0.2500000
龁带兵 王龁 0.0714286
龁带兵 将 0.0005995
差点 几 0.0112360
入土 沟 0.0370370
入土 填 0.0400000
入土 壑 0.1250000
无底 不 0.0001698
无底 ， 0.0000248
善射 彀 0.2500000
善射 射 0.0068966
善射 善 0.0019455
善射 今 0.0010406
精怪 物 0.0035842
南梁 南 0.0022272
南梁 梁 0.0032154
国听 听 0.0019380
国听 陈 0.0019194
国听 ， 0.0000248
赤手空拳 以 0.0001706
赤手空拳 手 0.0312500
更名改姓 姓 0.0036101
更名改姓 变 0.0045872
更名改姓 名 0.0022936
饥饿 饿 0.0789474
饥饿 饥 0.0493827
饥饿 委 0.0112360
饥饿 馁 0.2500000
牧正之官 正 0.0036496
牧正之官 牧 0.0188679
调节 调 0.0263158
周未 德 0.0023419
周未 周 0.0014124
厚葬 死 0.0008929
厚葬 恶 0.0039841
厚葬 厚葬 0.0833333
厚葬 世 0.0018450
拜望 下 0.0004484
拜望 门 0.0041841
拜望 造 0.0169492
搞明白 事 0.0008673
搞明白 明 0.0021739
搞明白 辨 0.0217391
如姬 如姬 0.5000000
太庙 太戊 0.0434783
太庙 大 0.0004686
太庙 飨 0.0144928
太庙 庙 0.0200000
太庙 赞 0.0212766
中宫为君 为 0.0001787
中宫为君 君 0.0007018
中宫为君 宫 0.0039683
黑痣 子 0.0003316
黑痣 黑 0.0142857
称臣 北 0.0023202
称臣 面 0.0211268
称臣 入 0.0008921
称臣 为 0.0008933
称臣 于 0.0002772
称臣 也 0.0002590
称臣 臣 0.0119550
称臣 称 0.0079681
称臣 卫 0.0029240
称臣 朝 0.0029412
剔成 剔成 1.0000000
大吉利 其 0.0002014
大吉利 国 0.0006101
大吉利 昌 0.0095238
猜 得志 0.0312500
猜 论 0.0097087
猜 兮 0.0044843
水路 通 0.0036232
水路 海 0.0049505
水路 水 0.0044843
水路 于 0.0008317
水路 而 0.0001954
水路 漕 0.0377358
水路 载 0.0066225
水路 行 0.0010142
水路 淮 0.0138889
借兵伐魏 伐 0.0010142
借兵伐魏 借兵 0.0714286
借兵伐魏 魏 0.0010020
急速 攻 0.0012136
急速 言 0.0007524
急速 卒 0.0007692
急速 驰 0.0067114
急速 急 0.0173160
外園 圃 0.1666667
外園 外 0.0032787
永远 终 0.0153061
永远 重 0.0028818
永远 常 0.0029499
永远 永 0.1111111
永远 之 0.0001818
永远 传 0.0092166
永远 偃 0.0114943
永远 长 0.0077369
永远 情 0.0108696
永远 戎 0.0095238
埋藏 所 0.0005896
埋藏 祸 0.0057471
埋藏 伏 0.0077519
梁 客游 0.1000000
梁 见 0.0009025
梁 田横 0.0270270
梁 孝 0.0116279
梁 西 0.0015873
梁 狱 0.0158730
梁 梁 0.2475884
梁 辞谢 0.0454545
梁 诸吕 0.0080000
梁 宫殿 0.1000000
梁 梁孝王 0.3888889
梁 景帝 0.0136986
梁 限 0.0476190
梁 来 0.0019305
梁 母 0.0024691
梁 称病 0.0166667
梁 梁王 0.1818182
梁 梁地 0.1304348
梁 血 0.0151515
梁 于是 0.0016447
梁 谁 0.0081967
梁 而 0.0009771
梁 惠王 0.0045662
梁 阴 0.0045662
梁 迎 0.0041322
梁 竟 0.0076336
梁 诡 0.0357143
梁 羊胜 0.0909091
梁 望 0.0056497
梁 赐 0.0027473
情面 志 0.0065789
时代 推 0.0107527
时代 业 0.0081301
时代 并 0.0031949
时代 之 0.0002727
时代 策 0.0123457
时代 际 0.0740741
时代 景 0.0101010
时代 云 0.0050251
时代 相印 0.0357143
时代 始 0.0031250
时代 世 0.0036900
时代 色 0.0071942
时代 时 0.0166028
外族 蛮夷 0.0250000
外族 是 0.0006831
外族 率 0.0053191
外族 夷 0.0113636
伤悼 吊 0.0400000
伤悼 之 0.0000909
不敬 慢 0.0285714
不敬 有 0.0008330
不敬 不 0.0016978
不敬 敬 0.0531401
大节 大 0.0004686
大节 节 0.0081301
大节 礼 0.0021598
不得意 得 0.0013450
不得意 意 0.0082988
不得意 不 0.0003396
袭 下 0.0004484
袭 冒 0.0714286
袭 止 0.0035211
袭 袭 0.0392157
袭 沿 0.1250000
袭 乐 0.0027248
袭 赵氏 0.0169492
介子推 亡 0.0013889
介子推 则 0.0008078
介子推 其 0.0002014
介子推 推 0.0322581
介子推 也 0.0002590
介子推 对 0.0030581
介子推 介子推 0.5000000
文公 文 0.0109290
文公 公 0.0009756
文公 行赏 0.0454545
文公 烧 0.0129870
文公 无 0.0006266
文公 知 0.0012706
文公 不 0.0001698
文公 文成 0.0303030
文公 焚 0.0384615
文公 丧 0.0075188
文公 于是 0.0032895
文公 介子推 0.1000000
文公 亦 0.0015432
文公 尝 0.0072202
文公 文公 0.6123596
文公 亡 0.0041667
文公 僖 0.0769231
文公 曰 0.0001951
文公 迎 0.0041322
文公 馃 0.2000000
文公 闻 0.0008403
文公 年 0.0003446
文公 居 0.0013587
铅 铅 0.3333333
转告 诏 0.0063694
转告 言 0.0007524
转告 绁 0.0500000
转告 告 0.0025773
转告 主 0.0020492
转告 语 0.0039683
转告 之 0.0001818
转告 具 0.0047393
厕身 厕 0.0222222
再派 使 0.0004955
再派 复 0.0010549
身躯 躯 0.1000000
身躯 纵 0.0123457
身躯 浴 0.0500000
王国 国 0.0006101
王国 经 0.0129870
多加 虑 0.0112360
多加 孰 0.0047393
跌倒 投 0.0277778
争先 先 0.0022026
争先 争 0.0122449
嘉谷 谷 0.0086207
嘉谷 嘉 0.0117647
引来 引 0.0040486
明目张胆 明 0.0021739
明目张胆 乃 0.0004968
下乡 下 0.0008969
下乡 其 0.0002014
下乡 乡 0.0128205
隆重 射牛 0.1111111
隆重 祠 0.0029586
隆重 加 0.0074074
隆重 厚葬 0.0833333
隆重 置 0.0065359
隆重 厚礼 0.0714286
隆重 宾 0.0117647
隆重 大 0.0004686
隆重 承 0.0158730
隆重 待 0.0046948
隐匿 缗钱 0.0384615
隐匿 自 0.0009470
隐匿 藏 0.0113636
隐匿 告缗 0.0909091
隐匿 匿 0.0186916
谄媚 自 0.0009470
谄媚 媚 0.0714286
谄媚 于 0.0002772
谄媚 谄 0.1500000
谄媚 佞 0.1500000
谄媚 色 0.0071942
谄媚 谀 0.0416667
卖力 尽力 0.1250000
眼见 见 0.0009025
眼见 夫 0.0008969
宽窄 狭 0.0714286
宽窄 阔 0.1000000
东风 东方 0.0138889
东风 从 0.0008658
东风 风 0.0086207
天性 好 0.0032362
天性 之 0.0000909
天性 天 0.0020367
天性 盖 0.0079365
天性 天性 0.1538462
天性 性 0.0833333
天性 也 0.0002590
天性 资 0.0142857
打动 感 0.0161290
打动 动 0.0057471
打动 策 0.0123457
打动 奇 0.0120482
水为险阻 险 0.0140845
素常 常 0.0029499
不畏 乃 0.0004968
不畏 畏 0.0051282
闭关 关 0.0041841
闭关 闭 0.0270270
泰 泰 0.3518519
泰 祀 0.0075758
泰 祠 0.0029586
泰 南越 0.0312500
所以嬴 嬴 0.0227273
所以嬴 故 0.0007716
公孙奭 公孙 0.0186916
公孙奭 奭 0.0666667
归属 予 0.0039062
归属 入 0.0071365
归属 为 0.0005360
归属 河南 0.0217391
归属 属 0.0583333
归属 焉 0.0020325
归属 所 0.0011792
归属 其 0.0002014
归属 安 0.0024450
归属 有 0.0004165
招引 少翁 0.1000000
虮虱 为 0.0001787
虮虱 质 0.0103627
虮虱 楚 0.0005734
虮虱 虮虱 0.5384615
共享 共 0.0035971
共享 虑 0.0112360
共享 之 0.0000909
正是 汤武 0.0256410
正是 于 0.0002772
正是 吕 0.0064516
正是 周 0.0014124
正是 盛 0.0095238
正是 襄公 0.0090909
正是 所 0.0047170
正是 知 0.0012706
正是 当 0.0022173
正是 谓 0.0012920
正是 获罪 0.0666667
正是 王 0.0002583
正是 孙 0.0079365
正是 是 0.0020492
正是 灵公 0.0088496
正是 辛 0.0166667
正是 矣 0.0008489
正是 而 0.0001954
正是 布衣 0.0147059
正是 之 0.0004545
正是 盖 0.0079365
正是 田单 0.0263158
正是 欲 0.0007032
正是 也 0.0005180
正是 乃 0.0014903
正是 方 0.0080429
正是 新 0.0098039
正是 此 0.0057471
少女 处 0.0049751
少女 之 0.0000909
少女 女 0.0065359
少女 氏女 0.0400000
少女 合 0.0031746
少女 鼓 0.0119048
少女 想 0.1000000
少女 野 0.0086207
主是 以 0.0001706
主是 主 0.0020492
篱笆 无 0.0006266
篱笆 籓 0.0400000
广场 场 0.1000000
广场 斧 0.0434783
广场 伏 0.0077519
广场 具 0.0047393
报偿 报 0.0033003
报偿 责 0.0113636
公杲 杲 0.5000000
公杲 鲁 0.0023095
公杲 于 0.0002772
书求娥 娥 0.1666667
书求娥 请 0.0012330
先尝 先 0.0022026
先尝 尝 0.0036101
厚待 若 0.0023256
厚待 厚 0.0334928
厚待 以 0.0001706
厚待 遇 0.0227273
厚待 复 0.0010549
厚待 之 0.0000909
巴蜀 巴 0.0344828
巴蜀 悉 0.0058480
巴蜀 巴蜀 0.2702703
巴蜀 蜀 0.0106383
赵良 师 0.0028090
赵良 弗 0.0026455
赵良 赵良 0.6666667
博取 者 0.0005724
博取 高 0.0094340
博取 名 0.0045872
何 奚 0.0238095
何 观 0.0042373
何 弛 0.0312500
何 于 0.0005545
何 营 0.0185185
何 轧 0.1428571
何 二 0.0005855
何 盍 0.1200000
何 如 0.0011223
何 纷 0.0526316
何 税 0.0666667
何 以 0.0001706
何 何 0.0158491
何 验 0.0151515
何 盖 0.0079365
何 胡 0.0071942
丁公 丁公 0.6250000
剧 业 0.0081301
剧 剧 0.1666667
馀也 遗 0.0051020
馀也 亦 0.0015432
阵亡 数 0.0013736
阵亡 亡 0.0013889
阵亡 死 0.0017857
阵亡 镇 0.0769231
阵亡 享 0.0103093
阵亡 尸 0.0188679
慷慨激昂 羽 0.0138889
红里圈青者 青 0.0133333
红里圈青者 中 0.0008734
促成 成 0.0060976
促成 亦 0.0015432
刘丹 丹 0.0123457
后园 后 0.0008285
后园 园 0.0444444
勇猛 嚄 0.2000000
勇猛 孟贲 0.1000000
勇猛 勇 0.0649351
勇猛 剽 0.1428571
勇猛 僄 0.1428571
勇猛 乌获 0.1000000
勇猛 力 0.0042735
勇猛 噭 0.1666667
勇猛 彊 0.0021097
勇猛 趣 0.0289855
勇猛 悍 0.1052632
勇猛 锋 0.0238095
栾布 自 0.0009470
栾布 鄃 0.0833333
栾布 布 0.0064935
栾布 栾布 0.5000000
论功 国 0.0006101
论功 论功 0.1428571
论功 惠 0.0128205
论功 功 0.0074627
偷看 观 0.0042373
偷看 骈 0.0714286
不得己 诛 0.0017730
骑射 骑 0.0058140
骑射 骑射 0.3125000
长叹 太 0.0040984
长叹 叹 0.1041667
长叹 喟然 0.0909091
众说纷纭 言 0.0007524
众说纷纭 殊 0.0138889
众说纷纭 人 0.0006050
摔破 漏 0.0909091
摔破 决 0.0060976
由子 子 0.0003316
由子 于 0.0002772
由子 决 0.0060976
行过 毕 0.0076923
行过 吉 0.0099010
行过 填 0.0400000
拦 公 0.0009756
拦 遮 0.0434783
拦 沮 0.0333333
拦 吾 0.0012887
国宝璧 璧 0.0101010
管事 事 0.0008673
管事 有 0.0012495
管事 九 0.0019417
管事 趋 0.0136986
管事 管 0.0256410
爱长 长安 0.0109890
爱长 贤 0.0027248
长长的 下 0.0004484
长长的 珣 0.0769231
取 射 0.0068966
取 引 0.0040486
取 穴 0.0500000
取 援 0.1153846
取 颓当 0.1000000
取 奉 0.0035088
取 玺 0.0227273
取 四 0.0010730
取 胜 0.0027933
取 弃 0.0058140
取 关内 0.0714286
取 取 0.0231362
取 弋 0.0370370
取 号 0.0055556
取 张 0.0086207
取 功 0.0024876
取 庶 0.0076336
取 合 0.0031746
取 拔 0.0037453
取 尤 0.0169492
取 细 0.0250000
进去 得 0.0013450
进去 听 0.0077519
进去 彭越 0.0129870
进去 入 0.0303301
进去 劳 0.0095238
进去 为 0.0001787
进去 范叔 0.0666667
进去 内 0.0031646
进去 俱 0.0044444
进去 也 0.0002590
进去 进 0.0038023
进去 克 0.0090090
进去 缺 0.0238095
皮帽 弁 0.0714286
皮帽 皮 0.0256410
骊姬 闻 0.0008403
骊姬 谓 0.0012920
骊姬 怒 0.0020534
骊姬 骊姬 0.7575758
子弗湟 弗 0.0026455
子弗湟 湟 0.5000000
外圈 青 0.0266667
外圈 赤 0.0101010
外圈 外 0.0065574
时有 有 0.0004165
时有 时 0.0012771
时有 之 0.0000909
时有 户 0.0061728
出猎 出 0.0009479
出猎 周 0.0014124
出猎 猎 0.0600000
阴侯 汝阴 0.1428571
阴侯 侯 0.0032415
精炼 文 0.0027322
精炼 约 0.0040323
繁荣 繁 0.0333333
渭南 南 0.0044543
渭南 渭 0.0307692
败落 陨 0.0666667
败落 也 0.0002590
败落 败 0.0016367
先导 先 0.0022026
先导 驱 0.0217391
先导 武王 0.0046948
先导 开 0.0133333
方式 求 0.0052493
方式 所 0.0005896
方式 官 0.0048544
方式 谪 0.0625000
方式 也 0.0005180
方式 道 0.0015314
方式 方 0.0053619
方式 如 0.0011223
方式 逆 0.0094340
竭力 彊 0.0063291
竭力 吕泽 0.1428571
竭力 伐 0.0010142
竭力 为 0.0001787
竭力 节 0.0081301
竭力 莫 0.0021739
绝后 后 0.0016570
绝后 无 0.0006266
绝后 绝 0.0084746
叩 顿 0.0410959
叩 拜 0.0055249
叩 首 0.0100503
终身 终 0.0051020
终身 卿相 0.0312500
终身 鄙 0.0238095
终身 极 0.0071942
终身 所 0.0005896
终身 临 0.0058824
终身 睹 0.0222222
终身 终身 0.4814815
终身 身 0.0028571
不如 若 0.0488372
不如 然 0.0014948
不如 加 0.0074074
不如 不 0.0208829
不如 绌 0.0196078
不如 莫 0.0260870
不如 如 0.1290685
不如 宁 0.0095238
不如 贫贱 0.0625000
遍 遍 0.1052632
遍 观 0.0042373
遍 燧 0.1666667
遍 燀 0.2500000
遍 周 0.0028249
遍 复 0.0010549
遍 耀 0.1666667
遍 习 0.0109890
遍 威 0.0074627
遍 剖符 0.0270270
遍 加 0.0074074
遍 之 0.0004545
遍 尝 0.0036101
遍 备 0.0067568
遍 成 0.0040650
遍 曹 0.0071429
遍 奏 0.0421053
遍 始 0.0031250
遍 阕 0.2857143
西关 都 0.0049261
西关 西 0.0015873
传于天 天 0.0006789
传于天 于 0.0002772
传于天 有 0.0004165
传于天 令 0.0012019
传于天 名 0.0022936
阳坡 阳 0.0033445
阳坡 自 0.0009470
阳坡 上 0.0008183
镇服 服 0.0038462
镇服 用 0.0013477
又名封豕 豕 0.0909091
又名封豕 封 0.0013245
公诸子 治 0.0025126
公诸子 胡 0.0071942
公诸子 公子 0.0021459
开赴 加 0.0074074
开赴 业已 0.0500000
开赴 万 0.0014837
落于 在 0.0014306
落于 必 0.0009881
落于 及 0.0009970
落于 政 0.0032895
说的话 所 0.0005896
说的话 三 0.0005461
说的话 语 0.0039683
海内 海内 0.1746032
海内 海 0.0049505
海内 莫 0.0021739
海内 黑 0.0142857
论著 所 0.0005896
论著 论 0.0097087
论著 焉 0.0020325
北燕 北 0.0023202
北燕 燕 0.0017889
烽火 烽火 0.3750000
烽火 烽 0.3333333
金子 予 0.0039062
金子 斤 0.0208333
阴山 之 0.0000909
阴山 山 0.0079365
阴山 阴 0.0091324
勃海 海 0.0049505
勃海 勃 0.0200000
时侯 时 0.0025543
禁地 省 0.0238095
禁地 中 0.0008734
敬仲 敬仲 0.8333333
敬仲 仲 0.0120482
人事 其 0.0002014
人事 人 0.0003025
人事 典 0.0270270
人事 参 0.0085470
人事 符 0.0178571
人事 工 0.0169492
虎头 为 0.0001787
虎头 首 0.0050251
建章 其 0.0002014
建章 建章 0.2000000
脚趾 指 0.0259740
兼并天下 下 0.0004484
兼并天下 天 0.0006789
兼并天下 并 0.0031949
季历 季历 0.5882353
涿鹿 鹿 0.0444444
涿鹿 涿 0.1666667
栎对 言 0.0007524
栎对 于 0.0002772
栎对 栎 0.0357143
无济于事 争 0.0040816
无济于事 之 0.0000909
子郢 子 0.0006631
子郢 郢 0.0212766
下熊珍 珍 0.0333333
下熊珍 熊 0.0140845
妃嫔 非 0.0010753
妃嫔 诸 0.0019881
妃嫔 夫 0.0008969
妃嫔 者 0.0002862
妃嫔 后宫 0.0333333
妃嫔 姬 0.0097087
悼侯 悼 0.0373832
悼侯 侯 0.0048622
意为 为 0.0001787
意为 意 0.0041494
祖辛 辛 0.0166667
洞察 察 0.0112360
洞察 于 0.0002772
洞察 见 0.0009025
洞察 明 0.0043478
洞察 以 0.0001706
魏豹 反 0.0037175
魏豹 王 0.0005167
魏豹 魏 0.0030060
魏豹 豹 0.2031250
魏豹 魏豹 0.3478261
精壮 数 0.0013736
精壮 人 0.0003025
精壮 壮士 0.0363636
精壮 千 0.0020534
声言 师 0.0056180
声言 曰 0.0001951
声言 言 0.0037622
声言 因 0.0013021
胜 破 0.0011751
胜 丛 0.1000000
胜 战胜 0.0468750
胜 能 0.0011261
胜 胜 0.2122905
胜 所 0.0005896
胜 布 0.0064935
胜 陈 0.0038388
胜 张胜 0.4375000
胜 者 0.0002862
胜 志 0.0065789
胜 王 0.0002583
胜 涉 0.0151515
胜 得 0.0013450
胜 言 0.0007524
胜 纷 0.0526316
胜 之 0.0001818
胜 冯亭 0.0833333
胜 陈涉 0.0555556
胜 克 0.0090090
胜 羊胜 0.0909091
胜 衣冠 0.0370370
胜 陈胜 0.1860465
补益 补 0.0416667
