渡 渡过盟津 0.5000000
盟津 渡过盟津 0.5000000
罚 罚 0.3076923
戍 罚 0.0769231
金 罚 0.0769231
效 罚 0.0769231
黥 罚 0.0769231
无 罚 0.0769231
当 罚 0.0769231
者 罚 0.0769231
刑 罚 0.0769231
作 罚 0.0769231
心 贪心 1.0000000
客 谋刺 0.5000000
刺 谋刺 0.5000000
牧 牧守 1.0000000
得 浊泽 0.2000000
泽 浊泽 0.2000000
浊 浊泽 0.2000000
魏 浊泽 0.2000000
宧 浊泽 0.2000000
门外 院门 1.0000000
正 校正 0.6666667
时 校正 0.3333333
反 担保 0.2500000
无 担保 0.2500000
王 担保 0.2500000
复 担保 0.2500000
形 今天 0.0103093
菽 今天 0.0103093
若 今天 0.0103093
其 今天 0.0103093
谷口 今天 0.0103093
考 今天 0.0103093
者 今天 0.0309278
今 今天 0.6391753
造 今天 0.0103093
计 今天 0.0103093
妄 今天 0.0103093
今日 今天 0.1546392
方 今天 0.0103093
深 今天 0.0103093
徒 今天 0.0103093
世 今天 0.0103093
此 今天 0.0412371
反 变化无常 0.3333333
变 变化无常 0.3333333
覆 变化无常 0.3333333
谄 逢迎 1.0000000
笔 熟悉 0.0476190
熟 熟悉 0.0952381
辞令 熟悉 0.0476190
知 熟悉 0.0476190
豪 熟悉 0.0476190
侍 熟悉 0.0476190
习 熟悉 0.6666667
中潏 中潏 0.6666667
蜚廉 中潏 0.3333333
水 露水 0.5000000
露 露水 0.5000000
食 米作饭 0.3333333
之 米作饭 0.3333333
粝 米作饭 0.3333333
日 前时 0.2500000
过 前时 0.2500000
前 前时 0.2500000
睢 前时 0.2500000
事 园便 0.5000000
李园 园便 0.5000000
墓 添 1.0000000
如 细则 1.0000000
旷 旷废 0.5000000
希 旷废 0.5000000
声 声急 0.5000000
故 声急 0.5000000
蓄 以致 0.0232558
陇西 以致 0.0232558
至 以致 0.0232558
盐 以致 0.0232558
若 以致 0.0232558
其 以致 0.0465116
姊 以致 0.0232558
自 以致 0.0232558
保 以致 0.0232558
贯 以致 0.0232558
伏 以致 0.0232558
刑 以致 0.0232558
身 以致 0.0232558
灾 以致 0.0232558
重 以致 0.0232558
韦 以致 0.0232558
以 以致 0.2558140
厚葬 以致 0.0232558
富 以致 0.0232558
绝 以致 0.0232558
虐 以致 0.0232558
殃 以致 0.0232558
尔 以致 0.0232558
久远 以致 0.0232558
暴虐 以致 0.0232558
使 以致 0.0232558
惛 以致 0.0232558
用 以致 0.0232558
令 以致 0.0232558
终日 以致 0.0232558
色 以致 0.0232558
昭公 以致 0.0232558
命 命是听 1.0000000
国 强国 0.3870968
彊 强国 0.5161290
交 强国 0.0322581
君 强国 0.0322581
权 强国 0.0322581
都 名城 0.2727273
城 名城 0.1818182
之 名城 0.0909091
名 名城 0.4545455
疾 疾病 0.7500000
也 疾病 0.1666667
疾疫 疾病 0.0833333
得 顺利 0.0555556
法 顺利 0.0555556
遂 顺利 0.1111111
矣 顺利 0.0555556
大 顺利 0.0555556
也 顺利 0.0555556
利 顺利 0.3888889
行 顺利 0.0555556
兮 顺利 0.0555556
顺 顺利 0.0555556
祟 顺利 0.0555556
山 绝壁 1.0000000
有 有德之士 0.5000000
德 有德之士 0.5000000
其 断送 0.5000000
绝 断送 0.5000000
再 再度 0.2000000
魏冉 再度 0.1000000
复 再度 0.7000000
还 往回 0.3333333
引 往回 0.3333333
兵 往回 0.3333333
谤 制造谤言 0.5000000
造 制造谤言 0.5000000
大 大风 0.4000000
风 大风 0.6000000
东 风以东 0.5000000
风 风以东 0.5000000
灌 水灌 1.0000000
可 可信 0.3333333
信 可信 0.3333333
矣 可信 0.1666667
用 可信 0.1666667
苍 曲直 0.1111111
浃 曲直 0.1111111
曲直 曲直 0.4444444
周 曲直 0.1111111
皇 曲直 0.1111111
正直 曲直 0.1111111
星 星座 1.0000000
难 难治理 0.5000000
治 难治理 0.5000000
椽 的檐椽 1.0000000
什 编成 0.1428571
队 编成 0.1428571
为 编成 0.2857143
皮 编成 0.1428571
四 编成 0.1428571
秸 编成 0.1428571
数 五万 0.0416667
材 五万 0.0416667
人 五万 0.0416667
五 五万 0.4583333
万 五万 0.4166667
政事 处理 0.0357143
听 处理 0.1607143
阼 处理 0.0178571
为 处理 0.0178571
政 处理 0.1428571
赋 处理 0.0178571
慎 处理 0.0178571
制 处理 0.0178571
中 处理 0.0178571
度 处理 0.0178571
张苍 处理 0.0178571
季主 处理 0.0178571
任 处理 0.0178571
吏 处理 0.0357143
迟 处理 0.0178571
请 处理 0.0178571
尔 处理 0.0178571
从 处理 0.0357143
义渠 处理 0.0357143
揆 处理 0.0178571
于 处理 0.0535714
丞相 处理 0.0357143
奏事 处理 0.0178571
事 处理 0.0357143
其 处理 0.0178571
议论 处理 0.0178571
治 处理 0.0178571
给 处理 0.0178571
应 处理 0.0178571
处 处理 0.0178571
公卿 处理 0.0178571
以 处理 0.0178571
用 处理 0.0178571
屡 总是 0.0270270
惧 总是 0.0270270
退让 总是 0.0270270
出 总是 0.0540541
槃 总是 0.0270270
辄 总是 0.1351351
侧 总是 0.0270270
自 总是 0.0270270
掩 总是 0.0270270
财 总是 0.0270270
专 总是 0.0270270
民 总是 0.0270270
身 总是 0.0270270
遽 总是 0.0270270
怀 总是 0.0270270
嚭 总是 0.0270270
景驹 总是 0.0270270
常 总是 0.2162162
而 总是 0.0540541
屏 总是 0.0270270
覆 总是 0.0270270
冀 总是 0.0270270
借 总是 0.0270270
悲 总是 0.0270270
方 境外 0.2000000
作 境外 0.2000000
外 境外 0.6000000
亡 潜逃 0.1428571
遁 潜逃 0.1428571
走 潜逃 0.2857143
逃 潜逃 0.2857143
之 潜逃 0.1428571
御 抵御 0.2777778
以 抵御 0.0555556
之 抵御 0.0555556
发兵 抵御 0.0555556
欲 抵御 0.0555556
扞 抵御 0.0555556
却 抵御 0.0555556
距 抵御 0.2777778
驰道 抵御 0.1111111
逐 抢夺 0.3333333
夺 抢夺 0.3333333
心 抢夺 0.3333333
言 趁便 0.1666667
因 趁便 0.8333333
官 必要 0.2000000
夫 必要 0.2000000
以 必要 0.2000000
而 必要 0.2000000
动 必要 0.2000000
武 英武 0.5000000
察 英武 0.5000000
爱 美色 0.2500000
色 美色 0.7500000
光 亮光 1.0000000
稻 稻种 1.0000000
资 聪颖 0.3333333
捷 聪颖 0.3333333
辨 聪颖 0.3333333
宝 和氏之璧 1.0000000
属 银锡之类 0.3333333
银 银锡之类 0.3333333
锡 银锡之类 0.3333333
官 外郎 0.5000000
三 外郎 0.5000000
者 馀的耳目 0.5000000
耳目 馀的耳目 0.5000000
人 城里人 0.3333333
城 城里人 0.3333333
中 城里人 0.3333333
国 划一 0.1111111
权衡 划一 0.1111111
平 划一 0.1111111
一 划一 0.2222222
以 划一 0.1111111
楚 划一 0.1111111
画 划一 0.2222222
骀 汾水 0.0909091
国 汾水 0.0909091
汾 汾水 0.6363636
水 汾水 0.0909091
川 汾水 0.0909091
也 疲倦 0.2500000
倦 疲倦 0.5000000
之 疲倦 0.2500000
雒阳 雒阳 1.0000000
挟 挟持 0.6000000
晋 挟持 0.2000000
劫 挟持 0.2000000
乘 陪侍 0.1666667
参 陪侍 0.0833333
侍 陪侍 0.6666667
独 陪侍 0.0833333
服 谷粒 0.5000000
秸 谷粒 0.5000000
上 上席 0.5000000
坐 上席 0.5000000
申 申功 0.5000000
功 申功 0.5000000
亲 嫡亲 1.0000000
字 字聃 0.5000000
摐 字聃 0.5000000
胶 不知 0.0136986
逊 不知 0.0136986
超 不知 0.0136986
默 不知 0.0136986
思 不知 0.0136986
未 不知 0.0410959
叔 不知 0.0136986
能 不知 0.0136986
备 不知 0.0136986
无 不知 0.0136986
不 不知 0.4383562
知 不知 0.3835616
巅 不知 0.0136986
再 已 0.0066890
多 已 0.0066890
为 已 0.0033445
起兵 已 0.0033445
定 已 0.0133779
豪 已 0.0033445
妲 已 0.0033445
罚 已 0.0033445
襄公 已 0.0033445
乏 已 0.0033445
宝 已 0.0033445
诸吕 已 0.0033445
谨 已 0.0066890
无 已 0.0066890
气 已 0.0033445
廷 已 0.0033445
今 已 0.0100334
十 已 0.0133779
仙 已 0.0033445
家室 已 0.0033445
并 已 0.0033445
幽 已 0.0033445
岳 已 0.0033445
日 已 0.0167224
巨 已 0.0033445
堪 已 0.0033445
刘氏 已 0.0033445
失 已 0.0033445
皆 已 0.0367893
六 已 0.0100334
食 已 0.0033445
万 已 0.0066890
至 已 0.0033445
吾 已 0.0033445
丁 已 0.0066890
奋 已 0.0033445
笃 已 0.0033445
枝 已 0.0033445
约 已 0.0066890
死 已 0.0133779
廪 已 0.0033445
有 已 0.0267559
车 已 0.0033445
醉 已 0.0066890
母 已 0.0066890
缺 已 0.0033445
婴齐 已 0.0033445
昨 已 0.0033445
旷 已 0.0033445
大业 已 0.0033445
敝 已 0.0033445
春秋 已 0.0033445
竟 已 0.0033445
静 已 0.0033445
王僚 已 0.0033445
坑 已 0.0033445
籓 已 0.0066890
魏章 已 0.0033445
祀 已 0.0033445
梁父 已 0.0033445
田横 已 0.0033445
允 已 0.0033445
既已 已 0.0100334
旰 已 0.0033445
又 已 0.0066890
卖 已 0.0033445
产 已 0.0033445
豨 已 0.0033445
诚 已 0.0033445
者 已 0.0033445
张 已 0.0033445
鼎 已 0.0066890
自立 已 0.0033445
鸟 已 0.0033445
蜄 已 0.0033445
既 已 0.0635452
长君 已 0.0066890
痿 已 0.0033445
是 已 0.0033445
吏 已 0.0033445
固 已 0.0066890
属 已 0.0033445
矣 已 0.0434783
亦 已 0.0066890
岁 已 0.0033445
穷困 已 0.0033445
已 已 0.2809365
田广 已 0.0033445
赖 已 0.0066890
亡 已 0.0066890
方 已 0.0033445
夕 已 0.0033445
老 已 0.0100334
酉 已 0.0033445
前 已 0.0033445
急 已 0.0033445
形 已 0.0066890
卵 已 0.0033445
劳 已 0.0033445
于 已 0.0066890
羹 已 0.0033445
客 已 0.0033445
豫 已 0.0033445
期 已 0.0033445
数 已 0.0033445
罢 已 0.0100334
暴露 已 0.0033445
孝文 已 0.0066890
然后 已 0.0033445
来 已 0.0100334
跇 已 0.0033445
项梁 已 0.0066890
丁公 已 0.0033445
重华 已 0.0033445
毕 已 0.0033445
鼒 已 0.0033445
任职 已 0.0033445
兮 已 0.0100334
率 已 0.0033445
参 已 0.0033445
瓜 已 0.0033445
黄钟 相对 0.0500000
钟 相对 0.1000000
泣 相对 0.0500000
南北 相对 0.0500000
吕 相对 0.0500000
哭 相对 0.0500000
则 相对 0.0500000
其 相对 0.0500000
对 相对 0.1500000
斗 相对 0.0500000
相 相对 0.2000000
中 相对 0.0500000
冲 相对 0.1000000
大 大雅 0.5000000
雅 大雅 0.5000000
病 热病 0.5000000
热 热病 0.5000000
人 人谦 0.5000000
出 人谦 0.5000000
善 良好 0.2000000
子 良好 0.2000000
不 良好 0.2000000
敢 良好 0.2000000
良 良好 0.2000000
于 懈怠 0.0714286
惰 懈怠 0.1428571
懈 懈怠 0.0714286
怠 懈怠 0.3571429
怠慢 懈怠 0.0714286
解 懈怠 0.2857143
亡 慌忙 0.3333333
拔剑 慌忙 0.3333333
太仆 慌忙 0.3333333
渥 游说者 0.0769231
排 游说者 0.0769231
径 游说者 0.0769231
未必 游说者 0.0769231
则 游说者 0.0769231
申 游说者 0.0769231
无 游说者 0.0769231
说 游说者 0.1538462
省 游说者 0.0769231
深 游说者 0.0769231
者 游说者 0.0769231
泄 游说者 0.0769231
于 在邰 0.5000000
邰 在邰 0.5000000
可 覆亡 0.3333333
亡 覆亡 0.3333333
覆 覆亡 0.3333333
氏 蔿氏 0.5000000
蔿 蔿氏 0.5000000
迎 迎送 1.0000000
榭 可 0.0049505
离 可 0.0049505
责 可 0.0099010
为 可 0.0198020
业已 可 0.0049505
怨 可 0.0049505
忍 可 0.0049505
弱 可 0.0049505
木 可 0.0049505
险阻 可 0.0049505
无 可 0.0198020
不 可 0.0148515
拜 可 0.0049505
僵 可 0.0049505
武 可 0.0049505
挽 可 0.0049505
公仲 可 0.0049505
马 可 0.0049505
骑射 可 0.0049505
家室 可 0.0049505
日 可 0.0198020
尔 可 0.0049505
炭 可 0.0049505
析 可 0.0049505
危 可 0.0049505
悲 可 0.0049505
尺 可 0.0049505
彰 可 0.0049505
金石 可 0.0049505
埒 可 0.0049505
六 可 0.0148515
鲜 可 0.0049505
弊 可 0.0049505
贤 可 0.0049505
柰 可 0.0049505
则 可 0.0099010
魄 可 0.0049505
痛 可 0.0049505
知 可 0.0049505
说 可 0.0049505
然 可 0.0247525
补 可 0.0099010
常 可 0.0049505
而 可 0.0198020
群臣 可 0.0049505
乐 可 0.0049505
余里 可 0.0049505
国 可 0.0049505
听 可 0.0049505
通 可 0.0148515
殆 可 0.0049505
蔽 可 0.0049505
饥 可 0.0049505
赎 可 0.0049505
稼 可 0.0049505
唯独 可 0.0049505
宋 可 0.0049505
制 可 0.0049505
比 可 0.0049505
等 可 0.0049505
足 可 0.0247525
奈 可 0.0049505
固 可 0.0049505
休 可 0.0049505
阁 可 0.0049505
受 可 0.0049505
矣 可 0.0099010
功 可 0.0049505
邪 可 0.0049505
已 可 0.0049505
峄 可 0.0049505
效 可 0.0049505
曰 可 0.0049505
存 可 0.0049505
留 可 0.0049505
顺 可 0.0049505
北 可 0.0049505
毋 可 0.0049505
因 可 0.0099010
于 可 0.0049505
由 可 0.0049505
习 可 0.0049505
其 可 0.0049505
可 可 0.2920792
事 可 0.0099010
行 可 0.0099010
尚 可 0.0099010
志 可 0.0099010
念 可 0.0049505
施 可 0.0049505
应 可 0.0049505
得 可 0.0247525
卒 可 0.0049505
运 可 0.0049505
未 可 0.0049505
宁 可 0.0099010
振 可 0.0049505
支 可 0.0049505
寄 可 0.0049505
此 可 0.0247525
旱 大旱 0.5454545
大 大旱 0.4545455
为 低微 0.2000000
微 低微 0.4000000
细 低微 0.2000000
轻 低微 0.2000000
无 六亲不认 0.3333333
亲 六亲不认 0.3333333
戾 六亲不认 0.3333333
潺 流 0.0370370
交 流 0.0370370
泣 流 0.0740741
虮虱 流 0.0370370
民心 流 0.0370370
流 流 0.3333333
溢 流 0.0370370
后 流 0.0370370
脑 流 0.0370370
横 流 0.0370370
叹息 流 0.0370370
盈 流 0.0370370
血 流 0.0370370
肠 流 0.0370370
民间 流 0.0370370
凿 流 0.0370370
鄃 流 0.0370370
匮 流 0.0370370
攻 射手 0.5000000
左 射手 0.5000000
为 为了 0.3109244
张良 为了 0.0084034
豪 为了 0.0084034
出 为了 0.0084034
辟 为了 0.0084034
忘 为了 0.0084034
籍 为了 0.0084034
民 为了 0.0084034
比 为了 0.0084034
张 为了 0.0084034
连 为了 0.0084034
义 为了 0.0084034
礼乐 为了 0.0084034
蚤 为了 0.0084034
娱 为了 0.0084034
盖 为了 0.0084034
褒斜 为了 0.0084034
便 为了 0.0252101
欲 为了 0.0504202
待 为了 0.0084034
仇 为了 0.0084034
相 为了 0.0084034
咎 为了 0.0084034
山谷 为了 0.0084034
干 为了 0.0084034
赏 为了 0.0084034
祈 为了 0.0084034
武王 为了 0.0084034
以 为了 0.3445378
他 为了 0.0084034
或 为了 0.0084034
备 为了 0.0168067
众多 为了 0.0084034
享 为了 0.0084034
显 为了 0.0084034
求 国借 0.3333333
走 国借 0.3333333
以 国借 0.3333333
精 精华 1.0000000
贬 暴乱 0.0833333
乱 暴乱 0.2500000
伐 暴乱 0.0833333
遂 暴乱 0.0833333
而 暴乱 0.0833333
残 暴乱 0.0833333
暴 暴乱 0.0833333
辟 暴乱 0.0833333
暴乱 暴乱 0.1666667
后 耽误 0.2500000
唯恐 耽误 0.2500000
寡 耽误 0.2500000
误 耽误 0.2500000
与 预知其计 0.3333333
知 预知其计 0.3333333
焉 预知其计 0.3333333
邑 乡镇 0.6666667
乡 乡镇 0.3333333
帝 帝武丁 0.5000000
武丁 帝武丁 0.5000000
百 各家 0.1666667
往来 各家 0.1666667
衣服 各家 0.1666667
家 各家 0.5000000
发 引发 1.0000000
卬 生了卬 0.5000000
生 生了卬 0.5000000
必 举止 0.2000000
也 举止 0.2000000
次 举止 0.2000000
举 举止 0.2000000
造 举止 0.2000000
与 宫城 0.5000000
闱 宫城 0.5000000
蒲 蒲草 0.5000000
为 蒲草 0.5000000
疾病 心疼 0.5000000
泣 心疼 0.5000000
从 兰皋 0.3333333
皋 兰皋 0.3333333
兰 兰皋 0.3333333
兹 辅佐 0.0093458
与 辅佐 0.0186916
吕尚 辅佐 0.0093458
毕公 辅佐 0.0093458
’ 辅佐 0.0093458
佐 辅佐 0.2429907
事 辅佐 0.0093458
女 辅佐 0.0093458
士 辅佐 0.0093458
高渠弥 辅佐 0.0093458
悼公 辅佐 0.0093458
勉 辅佐 0.0093458
天子 辅佐 0.0093458
辅 辅佐 0.2149533
以 辅佐 0.0560748
霸 辅佐 0.0093458
拂 辅佐 0.0093458
之 辅佐 0.0186916
田不礼 辅佐 0.0093458
翼 辅佐 0.0093458
官 辅佐 0.0093458
师傅 辅佐 0.0093458
错 辅佐 0.0093458
亮 辅佐 0.0093458
刘氏 辅佐 0.0093458
建 辅佐 0.0093458
令 辅佐 0.0093458
相 辅佐 0.1495327
傅 辅佐 0.0934579
口 不善言辞 0.1666667
诎 不善言辞 0.1666667
于 不善言辞 0.3333333
而 不善言辞 0.1666667
辩 不善言辞 0.1666667
激 激发 0.5000000
欲 激发 0.2500000
以 激发 0.2500000
缙 缙绅 0.3333333
绅 缙绅 0.3333333
者 缙绅 0.3333333
睦 亲睦 0.3333333
慈爱 亲睦 0.3333333
亲 亲睦 0.3333333
诗 诗歌 0.7500000
歌 诗歌 0.2500000
桃 桃侯 0.5000000
侯 桃侯 0.5000000
也 段干子 0.3333333
子 段干子 0.3333333
段干 段干子 0.3333333
六 五十六 0.3333333
十 五十六 0.3333333
五 五十六 0.3333333
其 大腿 0.1000000
呜 大腿 0.1000000
公 大腿 0.1000000
而 大腿 0.3000000
股 大腿 0.4000000
伯 长方 1.0000000
先 先君 0.4418605
奉 先君 0.0232558
君 先君 0.5348837
世 累世 1.0000000
沙 沙土 0.5000000
盛 沙土 0.5000000
嘻 “嗳 0.5000000
“ “嗳 0.5000000
既 浦 0.5000000
江 浦 0.5000000
事 笼络 0.1666667
弗 笼络 0.1666667
縻 笼络 0.1666667
羁 笼络 0.1666667
襄仲 笼络 0.1666667
绝 笼络 0.1666667
光 祥瑞 0.0555556
异 祥瑞 0.0555556
麒麟 祥瑞 0.0555556
坛 祥瑞 0.0555556
符 祥瑞 0.1111111
至 祥瑞 0.0555556
路 祥瑞 0.0555556
瑞 祥瑞 0.3333333
有 祥瑞 0.1111111
弓 祥瑞 0.0555556
祥 祥瑞 0.0555556
尽 全归 0.2500000
二 全归 0.2500000
诸侯 全归 0.2500000
之 全归 0.2500000
平 清平 0.3333333
治 清平 0.3333333
称 清平 0.3333333
破 摧 0.4000000
及 摧 0.2000000
索 摧 0.2000000
山崩 摧 0.2000000
下 不相上下 0.3333333
不 不相上下 0.3333333
楚 不相上下 0.3333333
沛 沛郡 1.0000000
野 巨野 1.0000000
二 三分之二 0.2222222
分 三分之二 0.3888889
三 三分之二 0.3888889
惧 思考 0.2000000
塞 思考 0.4000000
思 思考 0.2000000
以 思考 0.2000000
滋 着谈 1.0000000
危 冒险 1.0000000
为 公为 0.5000000
公 公为 0.5000000
言 乃用 1.0000000
鼓 河鼓宿 0.5000000
北河 河鼓宿 0.5000000
有 殿上有楼 0.3333333
上 殿上有楼 0.3333333
楼 殿上有楼 0.3333333
析 析 1.0000000
得 共有 0.0454545
介 共有 0.0454545
凡 共有 0.1818182
七 共有 0.0909091
四 共有 0.1363636
宗室 共有 0.0454545
之 共有 0.0454545
常山 共有 0.0454545
共 共有 0.0454545
如此 共有 0.0454545
三 共有 0.0454545
者 共有 0.0909091
同 共有 0.0454545
兄弟 共有 0.0454545
献公 共有 0.0454545
仲卿 仲卿 1.0000000
业 学业 0.1250000
学 学业 0.5000000
已 学业 0.2500000
讲 学业 0.1250000
足 收入 0.1000000
入 收入 0.7000000
食 收入 0.1000000
汤沐 收入 0.1000000
聪明 不入 0.2500000
乱 不入 0.2500000
入 不入 0.2500000
不 不入 0.2500000
祸 容易 0.0172414
耳 容易 0.0344828
易 容易 0.7758621
以 容易 0.0172414
手 容易 0.0344828
蹇 容易 0.0172414
所 容易 0.0172414
事情 容易 0.0172414
岸 容易 0.0172414
屣 容易 0.0344828
轻 容易 0.0172414
其 勉为其难 0.2000000
彊 勉为其难 0.2000000
为 勉为其难 0.2000000
难 勉为其难 0.2000000
者 勉为其难 0.2000000
攻 叶公 0.1250000
叶公 叶公 0.7500000
共 叶公 0.1250000
水 了陈馀 0.3333333
泜 了陈馀 0.3333333
上 了陈馀 0.3333333
孔 沉寂 0.5000000
静 沉寂 0.5000000
国 用武之地 0.1666667
武 用武之地 0.1666667
也 用武之地 0.1666667
用 用武之地 0.3333333
之 用武之地 0.1666667
称 馀在 0.3333333
， 馀在 0.3333333
陈余 馀在 0.3333333
披 草木 0.0714286
釂 草木 0.0714286
丛 草木 0.0714286
草木 草木 0.7857143
略 黡夺取 0.5000000
黡 黡夺取 0.5000000
正 正派 0.3750000
人 正派 0.2500000
方 正派 0.1250000
散 正派 0.1250000
颂 正派 0.1250000
觖 怨恨 0.0076336
怏 怨恨 0.0076336
结怨 怨恨 0.0076336
祖伊 怨恨 0.0076336
愠 怨恨 0.0076336
怨 怨恨 0.7862595
怼 怨恨 0.0229008
督 怨恨 0.0076336
也 怨恨 0.0076336
望 怨恨 0.0916031
恨 怨恨 0.0152672
尤 怨恨 0.0076336
王 怨恨 0.0076336
怒 怨恨 0.0076336
姬 怨恨 0.0076336
制 驱策 0.3333333
哉 驱策 0.3333333
役 驱策 0.3333333
贳 赊酒 1.0000000
移 移易 0.6666667
易 移易 0.3333333
国 全 0.0277778
皆 全 0.1111111
子 全 0.0277778
腹 全 0.0277778
悉 全 0.0833333
心 全 0.0277778
空 全 0.0277778
力 全 0.0277778
尽 全 0.1388889
飨 全 0.0277778
缺 全 0.0277778
男 全 0.0277778
驱 全 0.0277778
诏书 全 0.0277778
具 全 0.0555556
赖 全 0.0833333
在 全 0.0555556
报 全 0.0277778
备 全 0.0277778
成 全 0.0277778
举 全 0.0555556
信 全 0.0277778
止 阻挡 0.0909091
阑 阻挡 0.0909091
之 阻挡 0.0909091
风雨 阻挡 0.0909091
敌 阻挡 0.0909091
当 阻挡 0.2727273
距 阻挡 0.0909091
黶 阻挡 0.0909091
限 阻挡 0.0909091
卒 战斗力 0.5000000
败 战斗力 0.5000000
逐 败走 0.2000000
师 败走 0.2000000
走 败走 0.4000000
败 败走 0.2000000
风雨 奋迅 0.5000000
奋 奋迅 0.5000000
邑 城乡 0.5000000
乡 城乡 0.5000000
共工 共工氏 0.6666667
氏 共工氏 0.3333333
各 各帝 0.5000000
如 各帝 0.5000000
诸 皇族 0.4000000
刘 皇族 0.2000000
宗室 皇族 0.4000000
亦 志也 0.5000000
志 志也 0.5000000
成功 完成 0.0294118
修 完成 0.0294118
返 完成 0.0294118
惧 完成 0.0294118
定 完成 0.0882353
遂 完成 0.0294118
尉 完成 0.0294118
毕 完成 0.0882353
墓 完成 0.0294118
毂 完成 0.0294118
成 完成 0.4117647
游说 完成 0.0294118
就 完成 0.1470588
贵 达官 1.0000000
代 垣为代王 0.3333333
王 垣为代王 0.3333333
恒 垣为代王 0.3333333
下 市场 0.1818182
井 市场 0.1818182
也 市场 0.0909091
便 市场 0.0909091
市 市场 0.4545455
且 已往 0.5000000
前 已往 0.5000000
。 乐趣 0.1428571
以 乐趣 0.1428571
乐 乐趣 0.7142857
海 海岛 0.5000000
中 海岛 0.5000000
薄 薄洛 0.5000000
洛 薄洛 0.5000000
吏 看押 1.0000000
贝 用龟贝 0.5000000
龟 用龟贝 0.5000000
旧 昆吾 0.1666667
一 昆吾 0.1666667
桀 昆吾 0.1666667
昆吾 昆吾 0.5000000
羸 统计 0.5000000
弱 统计 0.5000000
夔 夔 1.0000000
柏 松柏 0.5000000
松 松柏 0.5000000
知 深通 0.1666667
刑名 深通 0.1666667
务 深通 0.1666667
谏 深通 0.1666667
孔丘 深通 0.1666667
干 深通 0.1666667
父 父祺 0.5000000
祺 父祺 0.5000000
所 天宇 1.0000000
离石 离石 0.5714286
石 离石 0.1428571
者 离石 0.2857143
祸 兵祸 0.1666667
下 兵祸 0.1666667
也 兵祸 0.1666667
兵 兵祸 0.5000000
观 列观 0.5000000
治 列观 0.2500000
舆 列观 0.2500000
二 众位 0.2000000
唯 众位 0.2000000
三 众位 0.2000000
群臣 众位 0.2000000
宗室 众位 0.2000000
客 过客 1.0000000
下 下殽山救援 0.3333333
师 下殽山救援 0.3333333
殽 下殽山救援 0.3333333
祗 敬神祗 1.0000000
约 棘定约 0.5000000
棘 棘定约 0.5000000
贡 朝贡 0.1428571
人 朝贡 0.1428571
四 朝贡 0.1428571
朝 朝贡 0.1428571
至 朝贡 0.2857143
征 朝贡 0.1428571
为 让人 1.0000000
木 段干木 0.5000000
段干 段干木 0.5000000
术 所作 1.0000000
邸 代邸 0.3333333
于 代邸 0.3333333
代 代邸 0.3333333
蜰 切切 1.0000000
骐 骐骥 0.5000000
骥 骐骥 0.5000000
重 企图 0.1000000
也 企图 0.1000000
欲 企图 0.4000000
以 企图 0.1000000
志 企图 0.1000000
将 企图 0.1000000
图 企图 0.1000000
抱 品质 0.3333333
酎 品质 0.3333333
质 品质 0.3333333
适 正巧 1.0000000
观 观 0.5000000
好 观 0.0357143
衡 观 0.0357143
临 观 0.0357143
欲 观 0.0357143
尹 观 0.0357143
乃 观 0.0357143
我 观 0.0714286
问 观 0.0357143
从 观 0.0714286
桂 观 0.0714286
起 观 0.0357143
以 禹是 0.5000000
禹 禹是 0.5000000
子 儿子鱓 0.5000000
胛 儿子鱓 0.5000000
义 义理连 0.3333333
属 义理连 0.3333333
而 义理连 0.3333333
亡 后逃 0.2500000
克 后逃 0.2500000
不 后逃 0.2500000
出 后逃 0.2500000
垒 高高的 0.5000000
高 高高的 0.5000000
佩 各种 0.0294118
方术 各种 0.0147059
材 各种 0.0294118
盗铸 各种 0.0147059
图书 各种 0.0147059
殖 各种 0.0147059
众 各种 0.0147059
驯 各种 0.0147059
妙 各种 0.0147059
饱 各种 0.0147059
量 各种 0.0147059
服 各种 0.0147059
沙 各种 0.0147059
减 各种 0.0147059
五 各种 0.0147059
功 各种 0.0147059
申明 各种 0.0147059
曰 各种 0.0147059
苦 各种 0.0147059
物 各种 0.0294118
嗜 各种 0.0147059
方 各种 0.0294118
杂 各种 0.0147059
危 各种 0.0147059
朕 各种 0.0147059
司 各种 0.0147059
舞 各种 0.0147059
咎 各种 0.0147059
共工 各种 0.0147059
揆 各种 0.0147059
万 各种 0.0147059
律令 各种 0.0147059
寿 各种 0.0147059
百 各种 0.1323529
赏 各种 0.0147059
怪物 各种 0.0147059
辨 各种 0.0147059
而 各种 0.0441176
庶征 各种 0.0147059
哉 各种 0.0147059
被 各种 0.0294118
谐 各种 0.0147059
诸 各种 0.0441176
俎豆 各种 0.0147059
合 各种 0.0294118
静 各种 0.0147059
镂 各种 0.0147059
导 各种 0.0147059
白 各种 0.0147059
显 各种 0.0147059
水 水波 0.5000000
波 水波 0.5000000
闰 闰 1.0000000
石 石棺 0.4000000
棺 石棺 0.6000000
日 二十日 0.3333333
十 二十日 0.3333333
二 二十日 0.3333333
钱 贷款 0.3333333
者 贷款 0.3333333
贷 贷款 0.3333333
隘 隘险阻 1.0000000
修 武王 0.0046729
病 武王 0.0046729
步 武王 0.0046729
汤武 武王 0.0093458
赀 武王 0.0046729
丕 武王 0.0046729
钜 武王 0.0046729
樗里疾 武王 0.0046729
慎 武王 0.0046729
斋 武王 0.0046729
文武 武王 0.0607477
立 武王 0.0046729
王 武王 0.0794393
武 武王 0.0186916
既 武王 0.0046729
郊 武王 0.0046729
崩 武王 0.0046729
休 武王 0.0046729
生 武王 0.0046729
恐 武王 0.0046729
九 武王 0.0046729
牧野 武王 0.0046729
曰 武王 0.0046729
存亡 武王 0.0046729
昏乱 武王 0.0046729
放 武王 0.0046729
殷纣 武王 0.0046729
其 武王 0.0046729
叛 武王 0.0046729
商纣 武王 0.0046729
怒 武王 0.0046729
狩 武王 0.0046729
好 武王 0.0046729
武王 武王 0.6588785
而 武王 0.0046729
惠王 武王 0.0046729
毕 武王 0.0046729
告 武王 0.0046729
甘茂 武王 0.0093458
左右 武王 0.0046729
叩 武王 0.0046729
倍 违背 0.1355932
负 违背 0.2033898
弃 违背 0.0169492
高帝 违背 0.0169492
遵 违背 0.0169492
其 违背 0.0169492
违 违背 0.0677966
约 违背 0.0338983
有 违背 0.0169492
僭 违背 0.0169492
不 违背 0.0508475
背 违背 0.0338983
逆 违背 0.1694915
戾 违背 0.0169492
陋 违背 0.0169492
训 违背 0.0169492
欺 违背 0.0169492
反 违背 0.0338983
膰 违背 0.0169492
情 违背 0.0169492
距 违背 0.0169492
失 违背 0.0338983
顺 违背 0.0169492
漏 漏水 1.0000000
抏 舞弊 0.5000000
奸诈 舞弊 0.5000000
胎 胎 0.5000000
营 胎 0.5000000
定 定局 0.5000000
兵 定局 0.5000000
泗 泗川 0.5000000
州 泗川 0.2500000
川 泗川 0.2500000
曰 问道 0.6266667
问 问道 0.3600000
故 问道 0.0133333
远 走远 1.0000000
式 卜式 0.6000000
初 卜式 0.0333333
卜式 卜式 0.3666667
钟 运用 0.2500000
使 运用 0.2500000
分 运用 0.2500000
申不害 运用 0.2500000
连 中外 0.2000000
自 中外 0.2000000
之 中外 0.2000000
外 中外 0.2000000
中 中外 0.2000000
岂 蚂蚁 0.3333333
螘 蚂蚁 0.3333333
从 蚂蚁 0.3333333
心 有所 0.0256410
差 有所 0.0256410
所 有所 0.2307692
患 有所 0.0256410
有 有所 0.2307692
利 有所 0.0256410
祈 有所 0.0256410
变 有所 0.0256410
异 有所 0.0256410
叹 有所 0.0256410
之 有所 0.0769231
獘 有所 0.0256410
株 有所 0.0256410
微 有所 0.0256410
恶 有所 0.0256410
闻 有所 0.0256410
望 有所 0.0256410
托 有所 0.1025641
北 起兵 0.0192308
师 起兵 0.0192308
蕲 起兵 0.0192308
起兵 起兵 0.1346154
卢绾 起兵 0.0192308
汤武 起兵 0.0192308
缯 起兵 0.0192308
兴 起兵 0.0192308
暴 起兵 0.0192308
汉 起兵 0.0192308
发兵 起兵 0.1153846
举兵 起兵 0.0769231
起 起兵 0.3269231
沛 起兵 0.0384615
以 起兵 0.0192308
反 起兵 0.0576923
云 起兵 0.0192308
畔 起兵 0.0192308
率 起兵 0.0192308
天 操劳 0.1250000
劝 操劳 0.1250000
劳 操劳 0.3750000
民 操劳 0.1250000
勤 操劳 0.1250000
之 操劳 0.1250000
士 乌获 0.2000000
乌获 乌获 0.8000000
异 身首异处 0.2500000
足 身首异处 0.2500000
处 身首异处 0.2500000
头 身首异处 0.2500000
血 落得 0.2500000
恶 落得 0.2500000
食 落得 0.2500000
受 落得 0.2500000
衢 五父之衢 1.0000000
闲 距离 0.2500000
晋阳 距离 0.1250000
去 距离 0.2500000
椷 距离 0.1250000
级 距离 0.1250000
中 距离 0.1250000
间 间隔 0.5000000
而 间隔 0.5000000
守 起义军 0.1428571
谯 起义军 0.1428571
地 起义军 0.1428571
中 起义军 0.1428571
盗 起义军 0.4285714
闻 馀听说 0.5000000
陈余 馀听说 0.5000000
。 招呼 0.5000000
” 招呼 0.5000000
荼 易 0.0322581
是 易 0.0322581
易 易 0.5161290
易水 易 0.1290323
卦 易 0.0322581
燕王 易 0.0322581
鄚 易 0.0322581
雍 易 0.0322581
临 易 0.0322581
诡 易 0.0322581
反间 易 0.0322581
立 易 0.0322581
灾 易 0.0322581
泣 好几 0.0270270
匝 好几 0.0270270
岁 好几 0.1351351
更 好几 0.0270270
事 好几 0.0270270
数 好几 0.6486486
所 好几 0.0270270
几 好几 0.0270270
三 好几 0.0270270
者 好几 0.0270270
入 那里入海 1.0000000
诈 惠帝 0.0129870
明 惠帝 0.0129870
孝惠 惠帝 0.5324675
上 惠帝 0.0259740
帝 惠帝 0.2597403
葬 惠帝 0.0129870
惠帝 惠帝 0.1038961
使 惠帝 0.0129870
从 惠帝 0.0129870
代 惠帝 0.0129870
汧 定汧县 1.0000000
人 莒人 0.2500000
如 莒人 0.2500000
莒 莒人 0.5000000
庄 庄重 0.4285714
重 庄重 0.1428571
俨 庄重 0.1428571
严 庄重 0.1428571
肃 庄重 0.1428571
与 中土 0.3333333
黔 中土 0.3333333
中 中土 0.3333333
号 赐爵 0.1111111
侯 赐爵 0.2222222
疏 赐爵 0.1111111
赐爵 赐爵 0.4444444
爵 赐爵 0.1111111
垂 妄想 0.3333333
头 妄想 0.3333333
望 妄想 0.3333333
诗 歌词 0.5000000
歌 歌词 0.5000000
听 劝谏 0.0454545
屈 劝谏 0.0227273
进谏 劝谏 0.0454545
纣 劝谏 0.0227273
劝 劝谏 0.0227273
也 劝谏 0.0227273
说 劝谏 0.0681818
谏 劝谏 0.7272727
者 劝谏 0.0227273
百 一百四十六 0.2000000
六 一百四十六 0.2000000
十 一百四十六 0.2000000
四 一百四十六 0.2000000
虏 一百四十六 0.2000000
言 付诸 0.3333333
贵 付诸 0.3333333
能 付诸 0.3333333
及 衰世 0.5000000
衰 衰世 0.5000000
鲊 递 0.0769231
与 递 0.1538462
生 递 0.0769231
目 递 0.1538462
取 递 0.0769231
谒 递 0.0769231
器 递 0.0769231
机 递 0.0769231
卮 递 0.0769231
踵 递 0.0769231
斗 递 0.0769231
言 诗·小雅 0.5000000
巧 诗·小雅 0.5000000
物 外界 0.3333333
巴蜀 外界 0.3333333
之 外界 0.3333333
攻 攻城 0.4117647
徇 攻城 0.1764706
城 攻城 0.2352941
之 攻城 0.0588235
略地 攻城 0.1176471
离 离间 0.1818182
间 离间 0.2727273
闲 离间 0.1818182
于 离间 0.0909091
反间 离间 0.0909091
渐 离间 0.0909091
疏 离间 0.0909091
望诸君 望诸君 1.0000000
周太史 周太史 0.7500000
之 周太史 0.2500000
五帝 帝庙 1.0000000
发 送信 0.2000000
书 送信 0.6000000
至 送信 0.2000000
丁 中丁帝 0.2500000
帝 中丁帝 0.2500000
隞 中丁帝 0.2500000
中 中丁帝 0.2500000
亲 亲生 0.2000000
适 亲生 0.2000000
代 亲生 0.2000000
高帝 亲生 0.2000000
真 亲生 0.2000000
行 太行险道 0.5000000
太 太行险道 0.5000000
既 进见 0.0625000
绐 进见 0.0625000
召见 进见 0.0625000
为 进见 0.0625000
于 进见 0.0625000
谒 进见 0.1250000
见 进见 0.5625000
自 解围 0.0833333
开 解围 0.0833333
兵 解围 0.0833333
解 解围 0.4166667
围 解围 0.1666667
割 解围 0.0833333
释 解围 0.0833333
非 师父 0.2000000
师 师父 0.6000000
云 师父 0.2000000
酌 斟酌 0.1666667
察 斟酌 0.1666667
斟 斟酌 0.1666667
之 斟酌 0.1666667
焉 斟酌 0.1666667
王 斟酌 0.1666667
媪 媪曾经 0.3333333
息 媪曾经 0.3333333
尝 媪曾经 0.3333333
仲 仲勤 0.5000000
如 仲勤 0.5000000
大 枣儿 1.0000000
台 设 0.0370370
味 设 0.0370370
为 设 0.0740741
语 设 0.0370370
空 设 0.0370370
县 设 0.0740741
桂林 设 0.0370370
曲直 设 0.0370370
治 设 0.0740741
及 设 0.0370370
内 设 0.0370370
上党 设 0.0370370
置 设 0.1111111
置酒 设 0.0740741
安 设 0.0370370
小 设 0.0370370
师傅 设 0.0370370
郡 设 0.0370370
设 设 0.0370370
义渠 设 0.0370370
相 设 0.0370370
也 串 0.5000000
习 串 0.5000000
趾 玉足 0.3333333
举 玉足 0.3333333
玉 玉足 0.3333333
郈 与郈 0.5000000
与 与郈 0.5000000
驺忌子 驺忌子 0.9230769
下邳 驺忌子 0.0769231
其 悬挂 0.1250000
肉 悬挂 0.1250000
头 悬挂 0.1250000
炭 悬挂 0.1250000
枭 悬挂 0.1250000
县 悬挂 0.3750000
跪 跪倒 1.0000000
躁 躁动 1.0000000
离 涣散 0.1428571
入 涣散 0.1428571
意 涣散 0.1428571
不 涣散 0.1428571
志 涣散 0.1428571
散 涣散 0.1428571
之 涣散 0.1428571
禽 马上 0.0384615
孟尝君 马上 0.0384615
马 马上 0.1538462
上 马上 0.1153846
之 马上 0.1153846
能 马上 0.0384615
逐 马上 0.0384615
勿 马上 0.0384615
慎 马上 0.0384615
即 马上 0.1538462
救 马上 0.0384615
使 马上 0.0384615
起 马上 0.0384615
遽 马上 0.0384615
立 马上 0.0769231
益 兵卒 0.0400000
卒 兵卒 0.3200000
境内 兵卒 0.0400000
男子 兵卒 0.0400000
戟 兵卒 0.0400000
自 兵卒 0.0400000
人 兵卒 0.0800000
船 兵卒 0.0400000
兵 兵卒 0.3600000
得 依然 0.1428571
国 依然 0.1428571
邑 依然 0.1428571
卓 依然 0.1428571
食 依然 0.2857143
故 依然 0.1428571
勉 勉 0.5000000
敕 勉 0.5000000
执 武官 0.3333333
中 武官 0.3333333
郎 武官 0.3333333
帝 下为帝 0.3333333
下 下为帝 0.3333333
而 下为帝 0.3333333
惜 使用 0.0166667
因 使用 0.0166667
文字 使用 0.0166667
烦 使用 0.0166667
侧 使用 0.0166667
脩 使用 0.0166667
所 使用 0.0166667
斤 使用 0.0333333
刑 使用 0.0166667
给 使用 0.0166667
然后 使用 0.0166667
下 使用 0.0166667
足 使用 0.0166667
币 使用 0.0166667
康叔 使用 0.0166667
以 使用 0.0333333
之 使用 0.0333333
椽 使用 0.0166667
矛 使用 0.0166667
阴谋 使用 0.0166667
也 使用 0.0333333
使 使用 0.0833333
静 使用 0.0166667
用 使用 0.4500000
享 使用 0.0166667
罕 使用 0.0166667
力 协同 0.0909091
迺 协同 0.0909091
也 协同 0.0909091
以 协同 0.1818182
并 协同 0.0909091
之 协同 0.1818182
佐 协同 0.2727273
鱼 娃娃鱼 0.5000000
人 娃娃鱼 0.5000000
大 大城 0.5000000
城 大城 0.5000000
书 负洛书 1.0000000
先 子孙 0.0166667
子侯 子孙 0.0166667
子 子孙 0.0166667
田氏 子孙 0.0166667
姓 子孙 0.0666667
裔 子孙 0.0500000
人 子孙 0.0166667
枝 子孙 0.0166667
后 子孙 0.0166667
子孙 子孙 0.5500000
而 子孙 0.0166667
大业 子孙 0.0333333
久远 子孙 0.0166667
中衍 子孙 0.0166667
也 子孙 0.0500000
支 子孙 0.0166667
世 子孙 0.0333333
才 子孙 0.0333333
妫 妫氏 0.6666667
氏 妫氏 0.3333333
支 支写 0.3333333
书 支写 0.3333333
’ 支写 0.3333333
化 德化 0.1428571
益 德化 0.1428571
内 德化 0.1428571
封 德化 0.1428571
德 德化 0.4285714
言 相劝 1.0000000
乱 乱糟糟 1.0000000
产 百业 0.5000000
诸 百业 0.5000000
邻 可能 0.0147059
势 可能 0.0147059
能 可能 0.1176471
可 可能 0.4117647
其 可能 0.0147059
蔑 可能 0.0147059
无 可能 0.0294118
伏 可能 0.0147059
遽 可能 0.0147059
得 可能 0.1617647
足 可能 0.0294118
奈 可能 0.0147059
然 可能 0.0147059
以 可能 0.0294118
霸 可能 0.0147059
怼 可能 0.0147059
许由 可能 0.0147059
也 可能 0.0294118
官爵 可能 0.0147059
瞳 可能 0.0147059
死 冒死 0.5294118
之 冒死 0.0588235
昧 冒死 0.4117647
明 幽明 0.5000000
幽 幽明 0.5000000
朝 早朝 1.0000000
客游 客居 0.2500000
旅 客居 0.2500000
兵 客居 0.2500000
客 客居 0.2500000
听 听任 0.2727273
妇 听任 0.0909091
骜 听任 0.0909091
任 听任 0.0909091
唯 听任 0.0909091
安陵 听任 0.0909091
纵 听任 0.0909091
所 听任 0.0909091
随 听任 0.0909091
师 三万 0.0256410
三 三万 0.4615385
北河 三万 0.0256410
万 三万 0.4871795
鼓 刀 0.0909091
刀 刀 0.8181818
踵 刀 0.0909091
呈 定额 0.6666667
中 定额 0.3333333
快 怏怏不乐 0.5000000
不 怏怏不乐 0.5000000
荀卿 辞行 0.1111111
范睢 辞行 0.1111111
既 辞行 0.1111111
于 辞行 0.1111111
淮阴侯 辞行 0.1111111
生 辞行 0.1111111
辞 辞行 0.3333333
力 齐心合力 0.3333333
而 齐心合力 0.3333333
戮 齐心合力 0.3333333
喜 高高兴兴 1.0000000
搤 无不 0.0185185
战士 无不 0.0185185
皆 无不 0.0925926
服 无不 0.0185185
罔 无不 0.0185185
甘心 无不 0.0185185
莫 无不 0.1851852
倾 无不 0.0185185
乙 无不 0.0185185
则 无不 0.0370370
宾 无不 0.0555556
无 无不 0.0925926
喜怒 无不 0.0185185
共 无不 0.0185185
不 无不 0.3333333
主 无不 0.0185185
羞 无不 0.0185185
下 委屈 0.1428571
枉 委屈 0.2857143
诎 委屈 0.1428571
亲 委屈 0.1428571
桡 委屈 0.1428571
折 委屈 0.1428571
寸 直径 0.2500000
径 直径 0.2500000
珠 直径 0.2500000
尺 直径 0.2500000
旧 欢宴 0.5000000
欢 欢宴 0.5000000
得 认 0.5000000
陌 认 0.5000000
惊 惊恐 0.1428571
， 惊恐 0.0714286
恐 惊恐 0.6428571
惊恐 惊恐 0.0714286
割 惊恐 0.0714286
杀 击杀伋 0.5000000
之 击杀伋 0.5000000
求 捉拿 1.0000000
疾疫 生疫病 1.0000000
得 总计 0.1428571
大 总计 0.1428571
凡 总计 0.5714286
要 总计 0.1428571
骍 牛 0.0250000
瘗 牛 0.0125000
太牢 牛 0.0375000
牛羊 牛 0.0500000
空 牛 0.0125000
牺 牛 0.0125000
里 牛 0.0125000
惊 牛 0.0125000
随 牛 0.0125000
牵牛 牛 0.0125000
牛 牛 0.6375000
牛车 牛 0.0125000
馈 牛 0.0125000
足 牛 0.0125000
牛马 牛 0.0125000
血 牛 0.0125000
牢 牛 0.0250000
鹿 牛 0.0250000
逋 牛 0.0125000
视 牛 0.0250000
俎豆 牛 0.0125000
樊 当作 0.0322581
穷 当作 0.0322581
为 当作 0.2580645
函 当作 0.0322581
氏 当作 0.0322581
极 当作 0.0322581
桎 当作 0.0322581
儿 当作 0.0645161
宝 当作 0.0322581
众 当作 0.0322581
士 当作 0.0645161
枝 当作 0.0322581
遇 当作 0.0322581
华 当作 0.0645161
常 当作 0.0645161
陵 当作 0.0322581
屣 当作 0.0322581
傅 当作 0.0322581
作 当作 0.0322581
急 当作 0.0322581
有 菲薄 0.5000000
菽 菲薄 0.5000000
颜 拜见 0.0147059
于 拜见 0.0294118
见 拜见 0.4852941
请 拜见 0.0294118
景公 拜见 0.0147059
陵 拜见 0.0147059
谒 拜见 0.2794118
望见 拜见 0.0294118
求见 拜见 0.0294118
拜 拜见 0.0588235
郦生 拜见 0.0147059
芳 譬喻 0.5000000
物 譬喻 0.5000000
与 涉嫌 0.2500000
以 涉嫌 0.2500000
独 涉嫌 0.2500000
疑 涉嫌 0.2500000
理 断案 1.0000000
阜 曲阜 0.5000000
曲 曲阜 0.5000000
缺 残缺不全 1.0000000
黔牟 心怀不满 0.5000000
舍 心怀不满 0.5000000
伏 敬服 1.0000000
纶 纶邑 1.0000000
群 群神 0.4000000
从 群神 0.2000000
神 群神 0.4000000
吕氏 吕氏 0.5090909
袒 吕氏 0.0181818
南 吕氏 0.0181818
诸吕 吕氏 0.4000000
遂 吕氏 0.0181818
受 吕氏 0.0181818
置 吕氏 0.0181818
周公 周公旦 0.4500000
者 周公旦 0.0250000
周 周公旦 0.0500000
之 周公旦 0.0250000
疑 周公旦 0.0250000
旦 周公旦 0.4250000
成功 越王 0.0153846
渚 越王 0.0153846
栖 越王 0.0153846
元 越王 0.0153846
越王 越王 0.7230769
旧 越王 0.0153846
也 越王 0.0307692
欲 越王 0.0153846
越 越王 0.1076923
王 越王 0.0307692
号称 越王 0.0153846
沛 沛丘 0.3333333
丘 沛丘 0.3333333
遂 沛丘 0.3333333
也 卑污 0.2500000
污 卑污 0.2500000
涉 卑污 0.2500000
身 卑污 0.2500000
酎 献酒 0.1250000
为 献酒 0.3750000
人 献酒 0.1250000
太上皇 献酒 0.1250000
寿 献酒 0.2500000
而 周年 0.5000000
期 周年 0.5000000
所 误解 0.5000000
疑 误解 0.5000000
田豹 家族 0.0156250
吕产 家族 0.0156250
魏氏 家族 0.0156250
镇 家族 0.0156250
奉 家族 0.0156250
氏 家族 0.0312500
晋国 家族 0.0156250
族 家族 0.2656250
籍 家族 0.0156250
诸吕 家族 0.0781250
桓 家族 0.0156250
收 家族 0.0156250
宗 家族 0.0937500
除 家族 0.0156250
礼乐 家族 0.0156250
服 家族 0.0156250
宗族 家族 0.0468750
项氏 家族 0.0156250
薄氏 家族 0.0156250
之 家族 0.0468750
缪 家族 0.0156250
赵氏 家族 0.0156250
崔氏 家族 0.0156250
吕氏 家族 0.0156250
灭 家族 0.0156250
刘氏 家族 0.0156250
世 家族 0.0312500
家 家族 0.0937500
长 钟 0.0526316
钟 钟 0.6315789
钟鼓 钟 0.0526316
磨 钟 0.0526316
卑梁 钟 0.0526316
者 钟 0.1578947
乞 行乞 0.1428571
路 行乞 0.1428571
于 行乞 0.1428571
吴 行乞 0.1428571
食 行乞 0.2857143
市 行乞 0.1428571
恐惧 旦才 0.5000000
乃 旦才 0.5000000
死 讲解 1.0000000
日 至日 0.5000000
长 至日 0.2500000
冬至 至日 0.2500000
困 通吃 1.0000000
人 夹壁墙 0.5000000
壁 夹壁墙 0.2500000
柏 夹壁墙 0.2500000
与 亚父 0.1111111
亚父 亚父 0.8888889
则 既然如此 0.1333333
然 既然如此 0.6666667
韩 既然如此 0.0666667
魏 既然如此 0.0666667
、 既然如此 0.0666667
力 竭尽其力 0.5000000
彊 竭尽其力 0.5000000
必 志在必得 0.2500000
举 志在必得 0.2500000
志 志在必得 0.2500000
之 志在必得 0.2500000
具 雨具 1.0000000
其 招聘 0.5000000
贵 招聘 0.5000000
江 中江 0.5000000
中 中江 0.5000000
长陵 高 0.0039526
嚼 高 0.0039526
千 高 0.0039526
爵 高 0.0118577
丈 高 0.0395257
后 高 0.0039526
蜂 高 0.0039526
共 高 0.0079051
者 高 0.0158103
曲 高 0.0039526
准 高 0.0039526
高昭子 高 0.0079051
度 高 0.0039526
逋 高 0.0039526
加 高 0.0079051
京 高 0.0039526
盖 高 0.0039526
计 高 0.0039526
云 高 0.0039526
深 高 0.0039526
田乞 高 0.0039526
世 高 0.0039526
季氏 高 0.0039526
抟 高 0.0039526
变更 高 0.0039526
贯高 高 0.0079051
闲 高 0.0039526
高庙 高 0.0039526
稍 高 0.0039526
高辛 高 0.0079051
高帝 高 0.0079051
极 高 0.0039526
赵高 高 0.1383399
羡 高 0.0079051
患 高 0.0039526
高祖 高 0.0079051
高渠弥 高 0.0039526
醉 高 0.0039526
瑜 高 0.0039526
擢 高 0.0039526
声 高 0.0039526
素 高 0.0039526
高陵君 高 0.0079051
央 高 0.0039526
仞 高 0.0118577
异姓 高 0.0039526
君 高 0.0039526
尊 高 0.0039526
高 高 0.5177866
反 高 0.0039526
长 高 0.0158103
版 高 0.0079051
亢 高 0.0079051
奏 高 0.0039526
居 高 0.0039526
柴 高 0.0039526
胡亥 高 0.0039526
户 高 0.0039526
锋 高 0.0039526
盖 太岁 0.1666667
在 太岁 0.1666667
太 太岁 0.1666667
岁 太岁 0.3333333
寅 太岁 0.1666667
里 百里傒 0.3043478
百 百里傒 0.3043478
谢 百里傒 0.0434783
傒 百里傒 0.3043478
之 百里傒 0.0434783
曾参 曾参 0.5833333
也 曾参 0.0833333
着 曾参 0.0833333
参 曾参 0.1666667
之 曾参 0.0833333
诛 滥杀 0.3333333
妄 滥杀 0.3333333
谓 滥杀 0.1666667
今 滥杀 0.1666667
肥义 肥义 1.0000000
入 鸮鸟 0.5000000
鸮 鸮鸟 0.5000000
贡 特产 0.5000000
来 特产 0.5000000
乃 徙居 0.5000000
居 徙居 0.5000000
贤良 科目 1.0000000
函 装到 1.0000000
地 郦 0.5000000
郦 郦 0.5000000
持 居丧 0.1428571
丧 居丧 0.1428571
闇 居丧 0.1428571
亮 居丧 0.1428571
乃 居丧 0.1428571
居 居丧 0.1428571
作 居丧 0.1428571
升 正厅 0.3333333
堂 正厅 0.3333333
矣 正厅 0.3333333
尉 尉官 0.7500000
都尉 尉官 0.2500000
崩 驾崩 1.0000000
肉 厚重 0.2000000
重 厚重 0.2000000
好 厚重 0.2000000
厚 厚重 0.2000000
裕 厚重 0.2000000
财物 钱物 0.5000000
金 钱物 0.5000000
恤 务 0.1666667
明 务 0.1666667
务 务 0.1666667
利 务 0.1666667
者 务 0.1666667
养 务 0.1666667
资 旅费 1.0000000
属 狄子 1.0000000
嘉 嘉奖 1.0000000
角 牛角 0.5000000
牲 牛角 0.5000000
先 羹尚大羹 0.2000000
大 羹尚大羹 0.2000000
豆 羹尚大羹 0.2000000
羹 羹尚大羹 0.2000000
之 羹尚大羹 0.2000000
虔 公子虔 0.5000000
公子 公子虔 0.5000000
得 朝得金德 0.3333333
德 朝得金德 0.3333333
金 朝得金德 0.3333333
素 素色 0.3333333
帱 素色 0.3333333
之 素色 0.3333333
贬 降低 0.1111111
卑 降低 0.3333333
膳 降低 0.1111111
绌 降低 0.1111111
贱 降低 0.2222222
而 降低 0.1111111
迁徙 供人 0.5000000
而 供人 0.5000000
十 六十三 0.2500000
六 六十三 0.2500000
年 六十三 0.2500000
三 六十三 0.2500000
谤 讥笑 0.0909091
君子讥 讥笑 0.0909091
十 讥笑 0.0909091
笑 讥笑 0.3636364
者 讥笑 0.1818182
讥 讥笑 0.1818182
下 诗篇而天下 0.2500000
天 诗篇而天下 0.2500000
诗 诗篇而天下 0.2500000
而 诗篇而天下 0.2500000
鱼 鱼类 0.5000000
臮 鱼类 0.5000000
百 戌卒 0.2500000
数 戌卒 0.2500000
戍卒 戌卒 0.5000000
事 虔敬 0.3333333
召公 虔敬 0.3333333
职 虔敬 0.3333333
尽 用尽 0.5000000
屈 用尽 0.5000000
贺 庆贺 0.3636364
为 庆贺 0.0909091
庆 庆贺 0.1818182
以 庆贺 0.0909091
酺 庆贺 0.0909091
者 庆贺 0.0909091
家 庆贺 0.0909091
无 无处 0.3333333
试 无处 0.3333333
莫 无处 0.3333333
忘 遗忘 1.0000000
万 一千万 0.5000000
千 一千万 0.5000000
天 配天而祭之 0.5000000
祖 配天而祭之 0.5000000
酿 酿 1.0000000
人 前人 0.3333333
前 前人 0.3333333
忝 前人 0.3333333
泽 泽做 0.3333333
燕 泽做 0.3333333
王 泽做 0.3333333
伍举 伍举 1.0000000
通道 水道 0.2500000
水 水道 0.2500000
漳水 水道 0.2500000
夏 水道 0.2500000
匿 后藏 1.0000000
汝 临汝侯 0.5000000
侯 临汝侯 0.5000000
豪 豪强 0.6666667
知 豪强 0.3333333
折 贬低 1.0000000
秀 麦芒 0.5000000
麦 麦芒 0.5000000
骆 骆 1.0000000
言 少讲 0.5000000
罕 少讲 0.5000000
叔 殇叔 0.5000000
殇 殇叔 0.5000000
则 生前 0.1250000
寿梦 生前 0.1250000
既 生前 0.1250000
生 生前 0.2500000
悲 生前 0.1250000
之 生前 0.1250000
谧 生前 0.1250000
都 野泽 0.5000000
野 野泽 0.5000000
攻 嵬攻 0.5000000
嵬 嵬攻 0.5000000
道 道旁 1.0000000
先 先发制人 1.0000000
于 肉 0.0666667
贩 肉 0.0333333
惠王 肉 0.0333333
宰 肉 0.0666667
肉 肉 0.4666667
胾 肉 0.0333333
胙 肉 0.2666667
者 肉 0.0333333
都 定都 0.7272727
河北 定都 0.0909091
河亶甲 定都 0.0909091
居 定都 0.0909091
旗 龙旗 0.5000000
龙 龙旗 0.5000000
亳 亳县 1.0000000
太祝 负责 0.0384615
领 负责 0.1923077
恬 负责 0.0384615
殿 负责 0.0384615
其 负责 0.0384615
黎 负责 0.0769231
尽 负责 0.0384615
有 负责 0.0384615
行 负责 0.0384615
主 负责 0.0384615
身 负责 0.0384615
长安 负责 0.0384615
吏 负责 0.0769231
水土 负责 0.0384615
各自 负责 0.0384615
郦食其 负责 0.0384615
教诲 负责 0.0384615
谒 负责 0.0384615
后稷 负责 0.0384615
用 负责 0.0384615
姓 劳苦 0.0714286
沐 劳苦 0.0714286
劳 劳苦 0.5000000
苦 劳苦 0.1428571
之 劳苦 0.0714286
劳苦 劳苦 0.1428571
荼 孺子荼 0.5000000
孺子 孺子荼 0.5000000
国 小者 0.2000000
小 小者 0.4000000
者 小者 0.2000000
弱 小者 0.2000000
赋 中上 0.3333333
上 中上 0.3333333
中 中上 0.3333333
卒 悲惨 0.3333333
然 悲惨 0.3333333
此 悲惨 0.3333333
平 平望 0.5000000
望 平望 0.5000000
百 三万二千七百六十八 0.1666667
六 三万二千七百六十八 0.1666667
二 三万二千七百六十八 0.1666667
八 三万二千七百六十八 0.1666667
七 三万二千七百六十八 0.1666667
三 三万二千七百六十八 0.1666667
料 猜测 0.2500000
也 猜测 0.2500000
测 猜测 0.2500000
之 猜测 0.2500000
桑 二木合 1.0000000
陶朱 陶朱 0.6666667
猗 陶朱 0.3333333
况 出卖 0.0384615
也 出卖 0.0384615
己 出卖 0.0384615
阴 出卖 0.0384615
卖 出卖 0.8461538
伪 英布 0.0153846
是 英布 0.0153846
英 英布 0.0153846
番 英布 0.0153846
遂 英布 0.0153846
僮 英布 0.0153846
英布 英布 0.0769231
尽 英布 0.0153846
布 英布 0.7692308
迺 英布 0.0153846
朝 英布 0.0153846
变 英布 0.0153846
起兵 发生 0.0064935
疫 发生 0.0064935
博 发生 0.0064935
灾 发生 0.0064935
山崩 发生 0.0064935
桀纣 发生 0.0064935
日 发生 0.0649351
始 发生 0.0064935
战 发生 0.0584416
琇 发生 0.0064935
至 发生 0.0064935
力 发生 0.0064935
代地 发生 0.0064935
有 发生 0.1038961
晋阳 发生 0.0064935
考 发生 0.0064935
地 发生 0.0194805
震 发生 0.0064935
内乱 发生 0.0064935
燕军 发生 0.0064935
缓 发生 0.0064935
篡 发生 0.0064935
害 发生 0.0064935
饥 发生 0.0454545
难 发生 0.0064935
潦 发生 0.0064935
旱 发生 0.0324675
大 发生 0.0194805
告缗 发生 0.0129870
发 发生 0.0129870
德 发生 0.0064935
靡 发生 0.0064935
身 发生 0.0064935
动 发生 0.0454545
下 发生 0.0064935
乱 发生 0.0389610
血 发生 0.0064935
柏 发生 0.0064935
子孙 发生 0.0064935
水 发生 0.0064935
属 发生 0.0064935
蝗 发生 0.0129870
生 发生 0.0259740
矣 发生 0.0064935
陈泽 发生 0.0064935
日蚀 发生 0.0064935
荐 发生 0.0064935
急 发生 0.0064935
作 发生 0.0064935
北 发生 0.0064935
颜 发生 0.0064935
萌 发生 0.0064935
交 发生 0.0064935
势 发生 0.0064935
争 发生 0.0129870
事 发生 0.0129870
梯 发生 0.0064935
起 发生 0.0454545
戚 发生 0.0064935
变 发生 0.0129870
火 发生 0.0259740
芮 发生 0.0064935
脱 发生 0.0064935
蚀 发生 0.0194805
将 发生 0.0324675
在 发生 0.0064935
备 发生 0.0064935
， 发生 0.0064935
实 发生 0.0064935
舍 发生 0.0064935
月 发生 0.0194805
数 几乎 0.0434783
邯郸 几乎 0.0434783
且 几乎 0.0434783
几 几乎 0.6956522
魏齐 几乎 0.0434783
者 几乎 0.0869565
折 几乎 0.0434783
酒 杯酒 0.4000000
安 杯酒 0.2000000
卮 杯酒 0.4000000
清静 极力 0.1111111
彊 极力 0.1111111
固 极力 0.1111111
刘季 极力 0.1111111
争 极力 0.2222222
极 极力 0.2222222
强 极力 0.1111111
城门 城门楼 1.0000000
‘ 周易·乾卦 0.3333333
称 周易·乾卦 0.3333333
干 周易·乾卦 0.3333333
渡 出外 0.0909091
使 出外 0.0909091
汲 出外 0.0909091
游猎 出外 0.0909091
出 出外 0.4545455
猎 出外 0.0909091
将 出外 0.0909091
下 里巷 0.0769231
阎 里巷 0.0769231
守 里巷 0.0769231
仆 里巷 0.0769231
闾巷 里巷 0.0769231
闾 里巷 0.4615385
里 里巷 0.0769231
擢 里巷 0.0769231
之 涂山 0.5000000
涂山 涂山 0.5000000
人 人夫 0.5000000
兴 人夫 0.5000000
所 归宿 0.1250000
终 归宿 0.1250000
税 归宿 0.1250000
然 归宿 0.1250000
矣 归宿 0.1250000
者 归宿 0.1250000
归 归宿 0.2500000
法 黥刑 0.2000000
黥 黥刑 0.6000000
刑 黥刑 0.2000000
楗 决口 0.0303030
茭 决口 0.0303030
江河 决口 0.0303030
塞 决口 0.2121212
河 决口 0.0909091
决 决口 0.3939394
瓠子 决口 0.0606061
复 决口 0.0303030
之 决口 0.0909091
筑 决口 0.0303030
赤 圈 0.1428571
圈 圈 0.2857143
匝 圈 0.1428571
钳 圈 0.1428571
三 圈 0.1428571
中 圈 0.1428571
公 公季 0.5000000
季 公季 0.5000000
度 八度 0.5000000
八 八度 0.5000000
重 大加 0.2500000
大 大加 0.2500000
显 大加 0.5000000
诈 刘濞 0.1666667
濞 刘濞 0.6666667
侯刘 刘濞 0.1666667
与 后母 0.3333333
后 后母 0.3333333
母 后母 0.3333333
淫 浮华 0.5000000
并 浮华 0.5000000
食 人肉 1.0000000
坠 思想 0.1000000
深远 思想 0.1000000
道 思想 0.2000000
意 思想 0.2000000
未 思想 0.1000000
窥 思想 0.1000000
念 思想 0.1000000
文武 思想 0.1000000
言 语 0.5000000
能 语 0.5000000
火 举火 0.2000000
悉 举火 0.2000000
举 举火 0.2000000
之 举火 0.2000000
应 举火 0.2000000
子 鲍子 0.5000000
鲍 鲍子 0.5000000
桥 铺路 0.5000000
道 铺路 0.5000000
帝 汉文帝 0.2083333
既 汉文帝 0.0416667
怀王 汉文帝 0.0416667
后 汉文帝 0.0416667
文帝 汉文帝 0.1666667
天子 汉文帝 0.0833333
汉 汉文帝 0.0416667
孝文 汉文帝 0.3750000
国 风俗 0.0416667
乡 风俗 0.0416667
狄 风俗 0.0416667
夷 风俗 0.0416667
西戎 风俗 0.0416667
风俗 风俗 0.1250000
风 风俗 0.0416667
蛮 风俗 0.0416667
俗 风俗 0.5833333
十 十倍于 0.5000000
倍 十倍于 0.5000000
曲 座席 0.2500000
坐 座席 0.5000000
席 座席 0.2500000
推 自 0.0082645
谦 自 0.0165289
致 自 0.0082645
祇 自 0.0082645
所 自 0.0082645
夔 自 0.0082645
巡 自 0.0082645
慎 自 0.0082645
勉 自 0.0082645
立 自 0.0082645
形成 自 0.0082645
桑 自 0.0082645
盈 自 0.0165289
下 自 0.0082645
卑 自 0.0082645
褊 自 0.0082645
西方 自 0.0165289
减 自 0.0165289
登 自 0.0082645
效 自 0.0082645
申明 自 0.0082645
物 自 0.0082645
别 自 0.0082645
禁 自 0.0082645
梦见 自 0.0082645
旗 自 0.0082645
由 自 0.0247934
兴 自 0.0082645
封禅 自 0.0082645
削 自 0.0082645
数 自 0.0082645
自 自 0.4380165
维 自 0.0082645
俗 自 0.0082645
荒 自 0.0082645
号 自 0.0082645
起 自 0.0247934
初 自 0.0082645
介 自 0.0082645
阴阳 自 0.0082645
荣 自 0.0082645
意 自 0.0082645
侨 自 0.0082645
夫 自 0.0165289
鄙 自 0.0082645
特 自 0.0082645
而 自 0.0495868
临洮 自 0.0082645
讥 自 0.0082645
各自 自 0.0082645
即 自 0.0082645
闳 自 0.0082645
暇 自 0.0082645
逮 自 0.0082645
月 自 0.0082645
醉 大醉 1.0000000
迁 房陵 0.3333333
处 房陵 0.1666667
房陵 房陵 0.5000000
言 通融 1.0000000
周兰 部将 0.0370370
军 部将 0.0370370
将 部将 0.6666667
裔 部将 0.0370370
诸 部将 0.0740741
别 部将 0.0370370
梅 部将 0.0740741
者 部将 0.0370370
日 一清早 0.3333333
从 一清早 0.3333333
旦 一清早 0.3333333
国 鲁封国 0.3333333
鲁 鲁封国 0.3333333
据 鲁封国 0.3333333
可 不能不 0.2413793
不 不能不 0.6896552
能 不能不 0.0689655
桥 盛桥 0.5000000
盛 盛桥 0.5000000
通 结交 0.0222222
交 结交 0.2222222
于 结交 0.1111111
私 结交 0.0222222
折 结交 0.0222222
能固 结交 0.0222222
取 结交 0.0666667
二 结交 0.0222222
士 结交 0.0444444
收 结交 0.0222222
有 结交 0.0222222
赵郝 结交 0.0222222
夫 结交 0.0222222
党 结交 0.0222222
结交 结交 0.0222222
之 结交 0.0222222
视 结交 0.0222222
亡 结交 0.0222222
结 结交 0.1777778
游 结交 0.0444444
晋 结交 0.0222222
灭 高氏 0.1000000
高 高氏 0.8000000
鲍氏 高氏 0.1000000
俎豆 俎豆 0.8888889
章 俎豆 0.1111111
六 六千 0.5000000
千 六千 0.5000000
沧 通向 0.3333333
出 通向 0.3333333
旁 通向 0.3333333
皆 随同 0.3333333
兼 随同 0.3333333
随 随同 0.3333333
慈 孝敬 0.2000000
义 孝敬 0.2000000
于 孝敬 0.2000000
孝 孝敬 0.4000000
属 之流 0.3333333
郤 之流 0.3333333
之 之流 0.3333333
所 统驭 0.2500000
以 统驭 0.2500000
统 统驭 0.2500000
故 统驭 0.2500000
最 基业 0.0769231
垂 基业 0.0769231
业 基业 0.6153846
也 基业 0.1538462
统 基业 0.0769231
穣 往穰城 1.0000000
数 技法 1.0000000
处 卖 0.0625000
售 卖 0.0625000
粥 卖 0.1250000
之 卖 0.0625000
贷 卖 0.0625000
卖 卖 0.1875000
粟 卖 0.1250000
宜阳 卖 0.0625000
行 卖 0.0625000
车 卖 0.0625000
者 卖 0.0625000
畜 卖 0.0625000
异 同父异母 0.5000000
母 同父异母 0.5000000
面 见面 0.0555556
孤 见面 0.0555556
私 见面 0.0555556
见 见面 0.3333333
子贡 见面 0.0555556
恐 见面 0.0555556
会 见面 0.0555556
曰 见面 0.0555556
也 见面 0.0555556
睹 见面 0.0555556
揖 见面 0.0555556
相 见面 0.1111111
与 享受 0.0312500
穷 享受 0.0312500
为 享受 0.0312500
淫 享受 0.0312500
食 享受 0.0625000
祇 享受 0.0312500
心 享受 0.0312500
百 享受 0.0312500
可 享受 0.0312500
姓 享受 0.0312500
位 享受 0.0312500
利 享受 0.0312500
飨 享受 0.0312500
肆 享受 0.0312500
历 享受 0.0312500
歆 享受 0.0312500
得 享受 0.0312500
丰 享受 0.0312500
包 享受 0.0312500
受 享受 0.0312500
而 享受 0.0312500
焉 享受 0.0312500
肉 享受 0.0312500
康 享受 0.0312500
音乐 享受 0.0312500
欲 享受 0.0312500
古 享受 0.0312500
礼 享受 0.0312500
享 享受 0.0312500
乐 享受 0.0625000
处 我处 1.0000000
驱 长驱 0.5000000
长 长驱 0.5000000
定 周定王 0.4000000
周 周定王 0.2000000
王 周定王 0.2000000
王孙满 周定王 0.2000000
亥 亥相 1.0000000
盖 风餐露宿 0.3333333
暴露 风餐露宿 0.3333333
露 风餐露宿 0.3333333
侵 国侵占 1.0000000
相 将相 0.5625000
将 将相 0.4375000
听 田需 0.2000000
田需 田需 0.8000000
大 聚饮 0.2500000
酺 聚饮 0.7500000
钓 钓取奇货 0.5000000
奇 钓取奇货 0.5000000
域 神光 0.5000000
坛 神光 0.5000000
事 战阵 0.3333333
鲛 战阵 0.3333333
之 战阵 0.3333333
钱 借债 0.5000000
贷 借债 0.5000000
东南 东南角 1.0000000
鞠 审讯 0.0769231
吏 审讯 0.0769231
惟 审讯 0.0769231
案 审讯 0.0769231
即 审讯 0.0769231
讯 审讯 0.1538462
治 审讯 0.2307692
簿 审讯 0.0769231
王 审讯 0.1538462
殷 殷墟 0.5000000
虚 殷墟 0.5000000
祝 网 0.3333333
而 网 0.6666667
班 妃妾 0.5000000
人 妃妾 0.5000000
蟜 弟长 0.5000000
弟 弟长 0.5000000
风 风向往 1.0000000
为 哪儿 0.0416667
止 哪儿 0.0416667
咎 哪儿 0.0416667
归 哪儿 0.0416667
所 哪儿 0.0416667
姓 哪儿 0.0416667
死 哪儿 0.0416667
岂 哪儿 0.0416667
斯 哪儿 0.0416667
津 哪儿 0.0416667
宁 哪儿 0.0416667
何 哪儿 0.0833333
焉 哪儿 0.0416667
尝 哪儿 0.0416667
在 哪儿 0.1250000
安 哪儿 0.1666667
必 哪儿 0.0416667
成 哪儿 0.0416667
豫章 豫 1.0000000
仁 忠义 0.5000000
廉 忠义 0.5000000
节 气节 0.5000000
之 气节 0.5000000
缯 到缯地 0.5000000
至 到缯地 0.5000000
察 从而 0.0769231
群 从而 0.0769231
脱 从而 0.0769231
以 从而 0.3076923
而 从而 0.2307692
烦 从而 0.0769231
纣 从而 0.0769231
从 从而 0.0769231
临 高楼 0.6666667
楼 高楼 0.3333333
蒙氏 蒙氏 1.0000000
多 许多 0.4024390
列 许多 0.0121951
难 许多 0.0121951
赎 许多 0.0121951
往往 许多 0.0121951
穿 许多 0.0121951
风 许多 0.0121951
隼 许多 0.0121951
大 许多 0.0121951
货 许多 0.0121951
众 许多 0.0487805
者 许多 0.0487805
反间 许多 0.0121951
盐铁 许多 0.0121951
功业 许多 0.0121951
割地 许多 0.0121951
美 许多 0.0121951
艺 许多 0.0121951
辩士 许多 0.0121951
具 许多 0.0121951
畔 许多 0.0121951
奇 许多 0.0121951
侠 许多 0.0121951
铸 许多 0.0121951
计策 许多 0.0121951
颇 许多 0.0121951
太祝 许多 0.0121951
兴 许多 0.0121951
银 许多 0.0121951
阏氏 许多 0.0121951
尽 许多 0.0121951
几 许多 0.0121951
疵 许多 0.0121951
郑君 许多 0.0121951
财物 许多 0.0121951
君 许多 0.0121951
甚 许多 0.0121951
诸 许多 0.0609756
祭器 许多 0.0121951
曹 许多 0.0121951
说 转眼间 0.5000000
复 转眼间 0.5000000
邑 明邑 0.5000000
明 明邑 0.5000000
为 砌 0.7500000
明 砌 0.2500000
居 家居不仕 0.5000000
家 家居不仕 0.5000000
法 规矩 0.1428571
度 规矩 0.1428571
正 规矩 0.1428571
整齐 规矩 0.1428571
矩 规矩 0.1428571
趋 规矩 0.1428571
轨 规矩 0.1428571
哭 器着 1.0000000
下 木星 0.1000000
曰 木星 0.1000000
星 木星 0.2000000
木 木星 0.3000000
岁星 木星 0.1000000
斗 木星 0.1000000
、 木星 0.1000000
可 得数 0.5000000
胜 得数 0.5000000
句践 率 0.0093458
光 率 0.0093458
武安君 率 0.0093458
引 率 0.1962617
复 率 0.0093458
臧荼 率 0.0093458
发兵 率 0.0186916
河北 率 0.0093458
还 率 0.0186916
鄗 率 0.0093458
桓公 率 0.0093458
张 率 0.0093458
周章 率 0.0093458
懿公 率 0.0093458
武王 率 0.0093458
渡河 率 0.0093458
未 率 0.0093458
以 率 0.0560748
栗 率 0.0093458
将 率 0.2990654
南渡 率 0.0093458
往 率 0.0373832
郅 率 0.0093458
乃 率 0.0186916
别 率 0.0280374
率 率 0.0841121
颍阴侯 率 0.0093458
绾 率 0.0093458
兵 率 0.0280374
击 率 0.0373832
前 牢记 1.0000000
有 专长 1.0000000
下 顺流而下 0.3000000
流 顺流而下 0.1000000
浮 顺流而下 0.1000000
水 顺流而下 0.1000000
而 顺流而下 0.3000000
顺 顺流而下 0.1000000
请 催请 1.0000000
瓯 瓯越 0.5000000
越 瓯越 0.5000000
鹿台 鹿台 1.0000000
旗 旗幡 0.3333333
幡 旗幡 0.3333333
类 旗幡 0.3333333
虚 风 0.0344828
哉 风 0.0344828
风 风 0.6206897
疾 风 0.0344828
条 风 0.0344828
冲 风 0.0344828
歌 风 0.1724138
蓬 风 0.0344828
也 取乐 0.1666667
为 取乐 0.1666667
乐 取乐 0.3333333
丸 取乐 0.1666667
氏 取乐 0.1666667
惠王 赶出 1.0000000
告 屋后 0.5000000
以 屋后 0.5000000
抵 旧 0.0333333
法 旧 0.0666667
墟 旧 0.0333333
循 旧 0.1666667
为 旧 0.0333333
易 旧 0.0333333
帝 旧 0.0333333
城郭 旧 0.0333333
先帝 旧 0.0333333
父兄 旧 0.0333333
旧 旧 0.1666667
改 旧 0.0333333
川 旧 0.0333333
贵 旧 0.0333333
故 旧 0.2333333
西周 原先 0.0476190
本 原先 0.0476190
富 原先 0.0476190
丽 原先 0.0476190
诸 原先 0.0476190
火灾 原先 0.0476190
利几 原先 0.0476190
者 原先 0.0476190
初 原先 0.1428571
婢 原先 0.0476190
故 原先 0.4285714
惊 惊怪之色 1.0000000
于 情感 0.2000000
意 情感 0.2000000
己 情感 0.2000000
而 情感 0.4000000
炎帝 炎帝 0.6666667
火灾 炎帝 0.1666667
然后 炎帝 0.1666667
卒 昭死 0.5000000
昭王 昭死 0.5000000
屣 拖鞋 1.0000000
陈 队列 0.5000000
行 队列 0.5000000
同 朝觐 0.1666667
朝觐 朝觐 0.5000000
朝 朝觐 0.3333333
徐州 分野 0.0476190
为 分野 0.0952381
兖 分野 0.0476190
出 分野 0.0476190
幽 分野 0.0476190
汉 分野 0.0476190
所 分野 0.0476190
青 分野 0.0476190
其 分野 0.1428571
野 分野 0.3333333
舍 分野 0.0476190
中 分野 0.0476190
召 下令 0.0740741
悉 下令 0.0185185
诏 下令 0.1296296
其 下令 0.0185185
命 下令 0.0185185
论 下令 0.0185185
壅 下令 0.0185185
酺 下令 0.0740741
制 下令 0.0370370
今 下令 0.0185185
下 下令 0.0740741
上 下令 0.0185185
诸 下令 0.0185185
赦 下令 0.0185185
府库 下令 0.0185185
发丧 下令 0.0185185
令 下令 0.3888889
号令 下令 0.0185185
积 贮存 1.0000000
萌 预见 0.1111111
蚤 预见 0.2222222
见 预见 0.1111111
于 预见 0.1111111
知 预见 0.2222222
未 预见 0.1111111
禨 预见 0.1111111
正 端方 0.5000000
方 端方 0.5000000
所 智者 0.1111111
智 智者 0.5555556
者 智者 0.3333333
希 希一 1.0000000
齐 鄄城 0.2000000
伐 鄄城 0.2000000
鄄 鄄城 0.4000000
之 鄄城 0.2000000
六 四十六 0.3333333
十 四十六 0.3333333
四 四十六 0.3333333
乱 昏乱 0.1818182
昏 昏乱 0.1818182
惑乱 昏乱 0.1818182
惛 昏乱 0.0909091
昏乱 昏乱 0.1818182
秏 昏乱 0.0909091
上 昏乱 0.0909091
郐 郐国 0.8333333
之 郐国 0.1666667
见 受骗 0.4000000
智 受骗 0.2000000
欺 受骗 0.4000000
既 启程 0.2500000
行 启程 0.7500000
十 十五邑 0.3333333
五 十五邑 0.3333333
归 十五邑 0.3333333
康 成侯 0.0270270
成侯 成侯 0.9729730
郊 郊外 0.7297297
会 郊外 0.0270270
之 郊外 0.0270270
虽 郊外 0.0270270
麋鹿 郊外 0.0270270
郊祀 郊外 0.0540541
拜 郊外 0.0270270
野 郊外 0.0810811
止 停 0.4722222
出 停 0.0277778
而 停 0.0833333
檥 停 0.0277778
耒 停 0.0277778
日夜 停 0.0555556
屋 停 0.0277778
殃 停 0.0277778
则 停 0.0555556
留守 停 0.0277778
有 停 0.0277778
衰 停 0.0277778
巿 停 0.0277778
立 停 0.0277778
留 停 0.0555556
丁 丁 0.8888889
太丁 丁 0.0370370
武丁 丁 0.0370370
者 丁 0.0370370
入 消除 0.0833333
驱 消除 0.0833333
弭 消除 0.0833333
振 消除 0.0833333
灭 消除 0.1666667
烹 消除 0.0833333
匈奴 消除 0.0833333
张耳 消除 0.0833333
除 消除 0.2500000
太甲 帝太甲 0.5000000
帝 帝太甲 0.5000000
合 参合 0.3333333
参 参合 0.3333333
居 参合 0.3333333
斗鸡 斗鸡 1.0000000
修 重修 0.1428571
脩 重修 0.4285714
亶父 重修 0.1428571
复 重修 0.2857143
望 望尘莫及 0.3333333
而 望尘莫及 0.3333333
焉 望尘莫及 0.3333333
宦 勃鞮的宦者 0.2000000
勃 勃鞮的宦者 0.2000000
者 勃鞮的宦者 0.2000000
之 勃鞮的宦者 0.2000000
鞮 勃鞮的宦者 0.2000000
虎 侯虎 0.3333333
侯 侯虎 0.3333333
崇 侯虎 0.3333333
卯 癸卯日 0.5000000
癸 癸卯日 0.5000000
十 十级 0.5000000
级 十级 0.5000000
得 出公辄 0.1428571
辄 出公辄 0.1428571
卫君 出公辄 0.2857143
出公辄 出公辄 0.4285714
侧 侍候 0.0769231
帚 侍候 0.0769231
从 侍候 0.0769231
箕 侍候 0.0769231
焉 侍候 0.0769231
侍 侍候 0.5384615
饭 侍候 0.0769231
方 驶 0.5000000
轨 驶 0.5000000
法 违法乱纪 0.2500000
诸 违法乱纪 0.2500000
不 违法乱纪 0.2500000
代 违法乱纪 0.2500000
辞谢 谦虚 0.1666667
抑 谦虚 0.1666667
自 谦虚 0.1666667
谦让 谦虚 0.1666667
谦 谦虚 0.1666667
损 谦虚 0.1666667
可 机不可失 0.2500000
也 机不可失 0.2500000
不 机不可失 0.2500000
失 机不可失 0.2500000
百 园邑 0.1428571
邑 园邑 0.2857143
园 园邑 0.1428571
家 园邑 0.4285714
光 千古 0.2000000
垂 千古 0.4000000
于 千古 0.2000000
休 千古 0.2000000
行 赶往 1.0000000
君 是弦 1.0000000
无 不疑 0.1250000
不 不疑 0.3750000
薨 不疑 0.1250000
疑 不疑 0.3750000
毋 磨光 1.0000000
置酒 喝道 1.0000000
不 毫不费力 0.2500000
拱 毫不费力 0.2500000
弊 毫不费力 0.2500000
而 毫不费力 0.2500000
淫 诬秽 0.3333333
祇 诬秽 0.3333333
神 诬秽 0.3333333
头 於期 0.0625000
樊 於期 0.0625000
于 於期 0.4375000
期 於期 0.4375000
地图 上地图 1.0000000
曲直 正邪 0.3333333
回 正邪 0.3333333
邪 正邪 0.3333333
言 话多 0.5000000
多 话多 0.5000000
制 皇权 1.0000000
搏 一旦 0.0256410
弛 一旦 0.0256410
见 一旦 0.0256410
旦 一旦 0.1282051
擅 一旦 0.0256410
有 一旦 0.0769231
一 一旦 0.3076923
壹 一旦 0.0512821
得 一旦 0.0256410
卒 一旦 0.0512821
夫 一旦 0.0256410
以 一旦 0.0256410
霸 一旦 0.0256410
弗 一旦 0.0256410
日 一旦 0.0256410
天 一旦 0.0256410
信 一旦 0.0256410
从 一旦 0.0256410
构 一旦 0.0256410
细 一旦 0.0256410
下 淇 0.5000000
淇 淇 0.5000000
土 土星 0.7500000
金 土星 0.2500000
里 惊 0.1250000
患 惊 0.1250000
嘻 惊 0.1250000
眄 惊 0.1250000
而 惊 0.1250000
怪 惊 0.2500000
视 惊 0.1250000
气 柔 0.1666667
柔 柔 0.8333333
害 种种 0.0625000
檐 种种 0.0625000
甾 种种 0.0625000
状 种种 0.0625000
其 种种 0.0625000
赵高 种种 0.0625000
百 种种 0.0625000
各 种种 0.0625000
应 种种 0.0625000
昭 种种 0.0625000
绝 种种 0.0625000
云 种种 0.0625000
备 种种 0.0625000
欲 种种 0.0625000
设 种种 0.0625000
神 种种 0.0625000
举 史举 1.0000000
守 安心 0.1111111
安 安心 0.2222222
儋 安心 0.1111111
适 安心 0.1111111
之 安心 0.1111111
乐 安心 0.1111111
心 安心 0.1111111
枕 安心 0.1111111
平 建平 0.5000000
建 建平 0.5000000
则 国被 1.0000000
西周 西周 0.5238095
咎 西周 0.0238095
君 西周 0.0238095
受 西周 0.0238095
周 西周 0.2380952
名 西周 0.0238095
假 西周 0.0238095
敝 西周 0.0476190
二 西周 0.0476190
迹 西周 0.0238095
舅 舅父 0.4000000
也 舅父 0.2000000
舅父 舅父 0.2000000
氏 舅父 0.2000000
苦 刻苦 0.3333333
身 刻苦 0.3333333
读 刻苦 0.3333333
沱 支流 0.2500000
甚 支流 0.2500000
九 支流 0.2500000
中 支流 0.2500000
下 无敌于天下 0.2000000
天 无敌于天下 0.2000000
敌 无敌于天下 0.2000000
无 无敌于天下 0.2000000
于 无敌于天下 0.2000000
不 不窋 0.4285714
用 不窋 0.1428571
窋 不窋 0.4285714
许 许地 1.0000000
而 把玩 0.5000000
刓 把玩 0.5000000
六 六亲 0.5000000
亲 六亲 0.5000000
季氏 氏也 0.5000000
将 氏也 0.5000000
为 公称 0.5000000
公 公称 0.5000000
茝 的芷草 1.0000000
尽 尽失 1.0000000
亶 熊亶 1.0000000
衍 驺衍 0.5000000
驺 驺衍 0.5000000
惧 必然 0.0217391
情性 必然 0.0217391
然 必然 0.0217391
矣 必然 0.0434783
必 必然 0.7173913
形势 必然 0.0434783
道 必然 0.0217391
贯 必然 0.0217391
壅 必然 0.0217391
我 必然 0.0217391
举 必然 0.0217391
新 必然 0.0217391
周舍 周舍 1.0000000
者 蒙恬 0.0263158
恬 蒙恬 0.1842105
蒙氏 蒙恬 0.0263158
蒙恬 蒙恬 0.7631579
帝 帝舜 0.4285714
舜 帝舜 0.4285714
咸 帝舜 0.1428571
门 向里 0.5000000
反 向里 0.5000000
既 泓 0.1250000
于 泓 0.2500000
泓 泓 0.6250000
财物 房屋 0.0454545
庑 房屋 0.0454545
郭 房屋 0.0454545
庐 房屋 0.0454545
宅 房屋 0.1363636
数 房屋 0.0454545
屋 房屋 0.2727273
邸 房屋 0.0454545
室 房屋 0.2272727
房 房屋 0.0454545
笫 房屋 0.0454545
侯 犀侯 0.5000000
犀 犀侯 0.5000000
郭 背面 0.5000000
周 背面 0.5000000
按 制止 0.0625000
正 制止 0.0625000
止 制止 0.4375000
一 制止 0.0625000
制 制止 0.1250000
匡 制止 0.0625000
之 制止 0.1875000
酬 应酬 0.3333333
其 应酬 0.3333333
应 应酬 0.3333333
关 驻扎 0.0107527
伍 驻扎 0.0107527
止 驻扎 0.0215054
漳 驻扎 0.0215054
次 驻扎 0.0537634
阪 驻扎 0.0107527
钜 驻扎 0.0107527
秦军 驻扎 0.0107527
历 驻扎 0.0215054
卒 驻扎 0.0107527
章邯 驻扎 0.0107527
屯兵 驻扎 0.0107527
河内 驻扎 0.0107527
雍丘 驻扎 0.0107527
荥阳 驻扎 0.0107527
汉军 驻扎 0.0107527
军 驻扎 0.5591398
棘 驻扎 0.0107527
焉 驻扎 0.0107527
在 驻扎 0.0322581
屯 驻扎 0.0537634
居 驻扎 0.0645161
舍 驻扎 0.0215054
陨 逼 0.1250000
鸱 逼 0.1250000
挤 逼 0.1250000
毛遂 逼 0.1250000
以 逼 0.1250000
劫 逼 0.1250000
诣 逼 0.1250000
急 逼 0.1250000
肾 肾脏 1.0000000
国 北狄 0.2000000
北 北狄 0.2000000
狄 北狄 0.2000000
貊 北狄 0.2000000
之 北狄 0.2000000
酂 酂 1.0000000
山崩 梁山 0.5000000
梁 梁山 0.5000000
密姬 密姬 1.0000000
所 襄王黜 0.3333333
襄王 襄王黜 0.3333333
绌 襄王黜 0.3333333
没 顺意 0.5000000
幸 顺意 0.5000000
交 新朋友 0.2500000
后 新朋友 0.2500000
人 新朋友 0.2500000
之 新朋友 0.2500000
翟 狄 1.0000000
祠 后稷庙 0.5000000
后稷 后稷庙 0.5000000
间 万物 0.0074074
节 万物 0.0074074
和 万物 0.0074074
洗 万物 0.0074074
万 万物 0.4148148
近 万物 0.0074074
润 万物 0.0074074
风雨 万物 0.0074074
在 万物 0.0074074
化 万物 0.0074074
物 万物 0.4740741
流 万物 0.0074074
终始 万物 0.0074074
静 万物 0.0074074
别 万物 0.0222222
帝 帝少康 0.5000000
少康 帝少康 0.5000000
紫 紫布 1.0000000
人 残疾人 0.3333333
如 残疾人 0.3333333
令 残疾人 0.3333333
荥 汇 0.0909091
既 汇 0.2727273
沣 汇 0.0909091
沮 汇 0.0909091
属 汇 0.0909091
播 汇 0.0909091
所 汇 0.0909091
彭蠡 汇 0.0909091
泾 汇 0.0909091
自 正面 0.5000000
当 正面 0.5000000
略 劫掠 0.2000000
误 劫掠 0.1000000
收 劫掠 0.1000000
寇 劫掠 0.1000000
掠 劫掠 0.1000000
劫 劫掠 0.3000000
盗 劫掠 0.1000000
均 贡品 0.0833333
因 贡品 0.0833333
致 贡品 0.0833333
异姓 贡品 0.0833333
周 贡品 0.0833333
之 贡品 0.0833333
贡 贡品 0.1666667
皮 贡品 0.0833333
献 贡品 0.0833333
室 贡品 0.0833333
江 贡品 0.0833333
大 汹涌 0.5000000
水 汹涌 0.5000000
孤 丧父 1.0000000
龙门 龙门 1.0000000
终 永无 0.1666667
无 永无 0.1666667
而 永无 0.1666667
复 永无 0.3333333
戾 永无 0.1666667
劝 鼓励 0.4545455
士 鼓励 0.0909091
以 鼓励 0.0909091
教 鼓励 0.0909091
励 鼓励 0.1818182
陌 鼓励 0.0909091
晋 晋定 1.0000000
美 俊美 1.0000000
次 子代 0.5000000
代 子代 0.5000000
为 左 0.0140845
右 左 0.0140845
稍 左 0.0140845
审食其 左 0.0140845
其 左 0.0140845
丞 左 0.0140845
告 左 0.0140845
左 左 0.5774648
左右 左 0.2535211
偏 左 0.0140845
左师 左 0.0422535
相 左 0.0140845
犹 嘴巴 0.0666667
而 嘴巴 0.1333333
之 嘴巴 0.0666667
其 嘴巴 0.0666667
口 嘴巴 0.4000000
也 嘴巴 0.0666667
不 嘴巴 0.0666667
注 嘴巴 0.0666667
吟 嘴巴 0.0666667
三 夷伯 0.3333333
夷 夷伯 0.3333333
伯 夷伯 0.3333333
人 寡人 0.4736842
寡 寡人 0.5263158
重 重刑酷 0.5000000
刑 重刑酷 0.5000000
欣然 欣然 0.1428571
于是 欣然 0.1428571
欣 欣然 0.1428571
庶 欣然 0.1428571
然 欣然 0.1428571
歆 欣然 0.1428571
忻 欣然 0.1428571
郦 郦氏 0.5000000
氏 郦氏 0.5000000
割地 国割 0.2500000
以 国割 0.2500000
之 国割 0.2500000
割 国割 0.2500000
东壁 东壁宿 1.0000000
肃然 沙沙 0.5000000
风 沙沙 0.5000000
公 失势 0.3333333
势 失势 0.3333333
损 失势 0.3333333
郧公 郧公 1.0000000
幸 同房 1.0000000
驰 飞驰 1.0000000
会人 会人 1.0000000
水 水银 0.5000000
银 水银 0.5000000
闭 关上 0.5000000
自 关上 0.5000000
子 琴瑟 0.1428571
未 琴瑟 0.1428571
琴瑟 琴瑟 0.5714286
桐 琴瑟 0.1428571
舒 舒国 1.0000000
敦 史敦 1.0000000
致 毒刺 0.3333333
之 毒刺 0.3333333
虿 毒刺 0.3333333
宾客 高朋 0.5000000
堂 高朋 0.5000000
使 失利 0.0833333
不 失利 0.4166667
考烈王 失利 0.0833333
利 失利 0.4166667
公 公午 0.5000000
午 公午 0.5000000
光 有光 0.5000000
有 有光 0.5000000
冠 刘氏冠 0.5000000
刘氏 刘氏冠 0.5000000
贪 贪利 0.5000000
利 贪利 0.1666667
戾 贪利 0.3333333
百 诗经 0.0370370
整 诗经 0.0370370
云 诗经 0.1111111
诗书 诗经 0.1111111
淫 诗经 0.0370370
述 诗经 0.0370370
诗 诗经 0.5555556
已 诗经 0.0370370
颂 诗经 0.0370370
者 黄霸 0.3333333
霸 黄霸 0.6666667
肝 误食马肝 1.0000000
起兵 出兵 0.0409836
去 出兵 0.0081967
出 出兵 0.2704918
赴 出兵 0.0081967
发兵 出兵 0.0819672
荆 出兵 0.0081967
山戎 出兵 0.0081967
河东 出兵 0.0081967
肯 出兵 0.0163934
王 出兵 0.0081967
终 出兵 0.0081967
下 出兵 0.0081967
攻 出兵 0.0081967
师 出兵 0.0081967
因 出兵 0.0163934
兴兵 出兵 0.0327869
盛 出兵 0.0081967
数 出兵 0.0081967
事 出兵 0.0081967
南郑 出兵 0.0081967
举兵 出兵 0.0081967
行 出兵 0.0081967
起 出兵 0.0081967
来 出兵 0.0081967
怒 出兵 0.0081967
徼 出兵 0.0081967
伐 出兵 0.0491803
巴蜀 出兵 0.0081967
以 出兵 0.0081967
盂 出兵 0.0081967
骠 出兵 0.0081967
救 出兵 0.0245902
信陵君 出兵 0.0245902
兵 出兵 0.2459016
星 群星 0.5000000
众 群星 0.5000000
蕲 在蕲 0.6666667
我 在蕲 0.1666667
而 在蕲 0.1666667
父 道义 0.0303030
义 道义 0.7575758
道 道义 0.0909091
德义 道义 0.0303030
殄 道义 0.0303030
焉 道义 0.0303030
已 道义 0.0303030
御 力量 0.0135135
周市 力量 0.0135135
彊 力量 0.0405405
樗里疾 力量 0.0135135
务 力量 0.0270270
戢 力量 0.0135135
民 力量 0.0270270
主 力量 0.0405405
劲 力量 0.0135135
依 力量 0.0135135
卑 力量 0.0135135
党 力量 0.0135135
辅 力量 0.0135135
功 力量 0.0135135
焉 力量 0.0135135
围 力量 0.0270270
助 力量 0.0135135
也 力量 0.0675676
求 力量 0.0135135
社稷 力量 0.0135135
益 力量 0.0135135
弊 力量 0.0135135
力 力量 0.3108108
取 力量 0.0135135
临 力量 0.0135135
尚 力量 0.0135135
怪 力量 0.0135135
雪 力量 0.0135135
慧 力量 0.0135135
得 力量 0.0135135
卒 力量 0.0135135
以 力量 0.0135135
而 力量 0.0135135
弗 力量 0.0135135
挑战 力量 0.0135135
缭 力量 0.0135135
敝 力量 0.0135135
室 力量 0.0270270
举 力量 0.0270270
贵 昂贵 1.0000000
苦 吃苦 1.0000000
沮 谏阻 0.5000000
谏 谏阻 0.5000000
服 禹还 1.0000000
大 广袤 0.5000000
称 广袤 0.5000000
乡 先是 0.3333333
章 先是 0.3333333
中 先是 0.3333333
施惠 布施 0.4000000
布 布施 0.1000000
施德 布施 0.1000000
而 布施 0.1000000
用 布施 0.1000000
故 布施 0.1000000
傅 布施 0.1000000
槁 摧枯拉朽 0.2500000
若 摧枯拉朽 0.2500000
举 摧枯拉朽 0.2500000
振 摧枯拉朽 0.2500000
忧 忧郁 0.6666667
含 忧郁 0.3333333
伐 公攻 0.5000000
荡 公攻 0.5000000
公 公司 0.5000000
司空 公司 0.5000000
堙 不快 0.1666667
不 不快 0.1666667
且 不快 0.1666667
而 不快 0.1666667
郁 不快 0.1666667
怿 不快 0.1666667
陈 战甲 0.5000000
甲 战甲 0.5000000
数 遵用 0.5000000
用 遵用 0.5000000
族 姐妹 0.2500000
弟 姐妹 0.2500000
一 姐妹 0.2500000
昆 姐妹 0.2500000
忿 忿忿不平 0.3333333
怨 忿忿不平 0.3333333
职 忿忿不平 0.3333333
柱 秦时 0.2500000
秦 秦时 0.2500000
亦 秦时 0.2500000
时 秦时 0.2500000
气 飞扬 0.3333333
扬 飞扬 0.6666667
其 解说其意 0.5000000
意 解说其意 0.5000000
落 潦倒 0.2000000
困 潦倒 0.2000000
为 潦倒 0.2000000
魄 潦倒 0.2000000
辱 潦倒 0.2000000
垣 墙垣 1.0000000
逐 挨家 1.0000000
里 日行千里 0.2727273
日 日行千里 0.1818182
行 日行千里 0.0909091
一 日行千里 0.1818182
千 日行千里 0.2727273
遗 道不拾遗 0.2500000
道 道不拾遗 0.2500000
不 道不拾遗 0.2500000
拾 道不拾遗 0.2500000
妾 贱妾 0.4000000
公 贱妾 0.2000000
姞 贱妾 0.2000000
贱 贱妾 0.2000000
送 伴送 1.0000000
推 推荐 0.0169492
悼 推荐 0.0169492
子 推荐 0.0169492
于 推荐 0.0508475
景监 推荐 0.0169492
縠 推荐 0.0169492
辟 推荐 0.0169492
柢 推荐 0.0169492
所 推荐 0.0508475
诵 推荐 0.0169492
恨 推荐 0.0169492
平原君 推荐 0.0169492
嬖 推荐 0.0169492
言 推荐 0.1864407
谈 推荐 0.0169492
滑 推荐 0.0169492
重任 推荐 0.0169492
荀 推荐 0.0169492
祁傒 推荐 0.0169492
进 推荐 0.3050847
荐 推荐 0.1186441
祁 推荐 0.0169492
欲 唯其 0.5000000
唯 唯其 0.5000000
苟 一意 0.3333333
利 一意 0.1666667
生 一意 0.1666667
之 一意 0.3333333
丑 丑日 1.0000000
入 入于 0.5000000
柳 入于 0.1111111
于 入于 0.0555556
箕 入于 0.1111111
旅 入于 0.0555556
营室 入于 0.1111111
旦 入于 0.0555556
不 败将 0.3333333
军 败将 0.3333333
败 败将 0.3333333
伤 受伤害 1.0000000
见 儋拜见 0.5000000
儋 儋拜见 0.5000000
破 能够 0.0097561
育 能够 0.0048780
云气 能够 0.0048780
辟 能够 0.0048780
疏 能够 0.0097561
忘 能够 0.0048780
能 能够 0.1756098
所 能够 0.0048780
若 能够 0.0097561
彊 能够 0.0048780
岩 能够 0.0048780
利 能够 0.0048780
达 能够 0.0048780
江东 能够 0.0048780
足 能够 0.0536585
奈 能够 0.0048780
内 能够 0.0048780
霸 能够 0.0048780
荆轲 能够 0.0048780
安 能够 0.0048780
也 能够 0.0048780
谦让 能够 0.0048780
圬 能够 0.0048780
微 能够 0.0097561
福 能够 0.0048780
存 能够 0.0048780
奇 能够 0.0048780
求 能够 0.0048780
光 能够 0.0048780
因 能够 0.0048780
凡 能够 0.0048780
风俗 能够 0.0048780
力 能够 0.0048780
可 能够 0.0926829
自 能够 0.0048780
道 能够 0.0097561
养老 能够 0.0048780
知 能够 0.0048780
有 能够 0.0048780
沉 能够 0.0048780
尚 能够 0.0048780
应 能够 0.0048780
豢 能够 0.0048780
会盟 能够 0.0048780
获 能够 0.0048780
得 能够 0.2195122
继 能够 0.0048780
席卷 能够 0.0048780
幸得 能够 0.0146341
以 能够 0.1219512
之 能够 0.0146341
彬 能够 0.0048780
尝 能够 0.0048780
在 能够 0.0048780
转 能够 0.0048780
反 能够 0.0048780
借 能够 0.0048780
改 能够 0.0048780
闳夭 能够 0.0048780
贾 能够 0.0048780
恻 能够 0.0048780
甘茂 能够 0.0048780
原 能够 0.0146341
羽 珍禽异兽 0.2000000
兽 珍禽异兽 0.2000000
珍 珍禽异兽 0.2000000
齿 珍禽异兽 0.2000000
毛 珍禽异兽 0.2000000
俀 俀为鲁君 1.0000000
事 奉事秦国 0.5000000
秦 奉事秦国 0.5000000
律历 律历 1.0000000
以 撞 0.0769231
而 撞 0.1538462
高 撞 0.0769231
覆 撞 0.0769231
触 撞 0.0769231
树 撞 0.0769231
撞 撞 0.2307692
璧 撞 0.0769231
柱 撞 0.1538462
可 寻求 0.0714286
苛 寻求 0.0714286
求 寻求 0.6428571
安 寻求 0.0714286
为 寻求 0.0714286
家财 寻求 0.0714286
其 埋伏 0.0666667
士 埋伏 0.1333333
高祖 埋伏 0.0666667
棘门 埋伏 0.0666667
甲 埋伏 0.0666667
伏 埋伏 0.5333333
窟 埋伏 0.0666667
申 重复 0.2222222
去 重复 0.1111111
之 重复 0.1111111
复 重复 0.4444444
相 重复 0.1111111
约 誓约 0.7142857
誓 誓约 0.1428571
初 誓约 0.1428571
劳 劳 0.3333333
功 劳 0.3333333
敕 劳 0.3333333
世 万世 0.4444444
万 万世 0.5555556
糟糠 酒渣 1.0000000
斫 斧头 0.2000000
卢 斧头 0.2000000
市 斧头 0.2000000
质 斧头 0.2000000
斧 斧头 0.2000000
荒 昏愦 0.5000000
矣 昏愦 0.5000000
倍 专横 1.0000000
下 见识 0.0833333
见 见识 0.0833333
明 见识 0.0833333
阅 见识 0.0833333
高 见识 0.0833333
天 见识 0.0833333
所 见识 0.0833333
翼 见识 0.0833333
雄 见识 0.0833333
俊 见识 0.0833333
博 见识 0.0833333
愚 见识 0.0833333
豚 小豬 1.0000000
奚 怎么样 0.0125000
何 怎么样 0.4375000
哉 怎么样 0.0125000
可 怎么样 0.0125000
若 怎么样 0.0125000
闳夭 怎么样 0.0125000
也 怎么样 0.0250000
命 怎么样 0.0125000
楚悼王 怎么样 0.0125000
知 怎么样 0.0125000
光辉 怎么样 0.0125000
如 怎么样 0.4125000
仪 怎么样 0.0125000
皇 汉皇 0.5000000
汉 汉皇 0.5000000
处 议和 0.1111111
平 议和 0.1111111
结 议和 0.1111111
公仲 议和 0.1111111
和 议和 0.4444444
新 议和 0.1111111
夫 援救 0.0172414
以 援救 0.0172414
之 援救 0.0689655
救 援救 0.8103448
不 援救 0.0172414
肯 援救 0.0172414
来 援救 0.0172414
阿 援救 0.0172414
遣 援救 0.0172414
不 清净 0.5000000
清 清净 0.5000000
引 引路 0.5000000
导 引路 0.5000000
牛 老牛 1.0000000
曰 改称为 0.3333333
丞相 改称为 0.3333333
更 改称为 0.3333333
西南 西南 0.8000000
巴蜀 西南 0.1000000
西 西南 0.1000000
赤 色 0.1818182
之 色 0.0303030
黑 色 0.0909091
其 色 0.0303030
青 色 0.0303030
裻 色 0.0606061
黄 色 0.0909091
成 色 0.0303030
白 色 0.1212121
容 色 0.0303030
色白 色 0.0303030
色 色 0.2727273
贫民 贫民 0.2857143
假 贫民 0.0714286
人 贫民 0.0714286
贫穷 贫民 0.0714286
适 贫民 0.0714286
者 贫民 0.0714286
渔阳 贫民 0.0714286
贫 贫民 0.1428571
役 贫民 0.1428571
祠 将士 0.0204082
战胜 将士 0.0204082
赏赐 将士 0.0204082
大 将士 0.0204082
士 将士 0.2653061
项羽 将士 0.0204082
士卒 将士 0.0408163
中 将士 0.0204082
卒 将士 0.1020408
吏 将士 0.0204082
夫 将士 0.1020408
置 将士 0.0204082
尸 将士 0.0408163
军 将士 0.0408163
将 将士 0.0408163
尔 将士 0.0204082
也 将士 0.0204082
土 将士 0.0204082
成 将士 0.0204082
乃 将士 0.0204082
谋 将士 0.0204082
戎 将士 0.0204082
兵 将士 0.0204082
抚 将士 0.0204082
吴芮 将士 0.0204082
奈 万民 0.0434783
兆民 万民 0.0434783
万民 万民 0.4782609
蒸 万民 0.0434783
其 万民 0.0434783
曰 万民 0.0434783
苦 万民 0.0434783
教化 万民 0.0434783
民 万民 0.1304348
朕 万民 0.0434783
首 万民 0.0434783
衣食 丝织品 1.0000000
之 图谋 0.0937500
污 图谋 0.0312500
欲 图谋 0.0937500
谋 图谋 0.3437500
乃 图谋 0.0312500
存 图谋 0.0312500
谋反 图谋 0.0625000
图 图谋 0.3125000
人 先走 0.3333333
前 先走 0.3333333
行 先走 0.3333333
貌 尊容 0.5000000
玉 尊容 0.5000000
言 叙说 0.5000000
家 叙说 0.5000000
论功 功过 0.5000000
而 功过 0.5000000
土 黄土 0.5000000
黄 黄土 0.5000000
袴 爬 0.1250000
于 爬 0.1250000
行 爬 0.1250000
出 爬 0.2500000
虫 爬 0.2500000
膝 爬 0.1250000
二 二等 0.3333333
减 二等 0.1111111
又 二等 0.1111111
等 二等 0.3333333
中 二等 0.1111111
小 小市 0.3333333
当 小市 0.3333333
市 小市 0.3333333
邑 邑是 0.3333333
， 邑是 0.3333333
崔 邑是 0.3333333
天 天使 0.2500000
也 天使 0.2500000
使 天使 0.2500000
阳侯 天使 0.2500000
得 险境 0.1666667
行 险境 0.1666667
脱 险境 0.5000000
者 险境 0.1666667
好 姣美 0.5000000
而 姣美 0.2500000
倩 姣美 0.2500000
足 脚力 0.1666667
费 脚力 0.1666667
不 脚力 0.1666667
僦 脚力 0.1666667
甚 脚力 0.1666667
相 脚力 0.1666667
视 仰视 1.0000000
嚼 物 0.0238095
穷 物 0.0238095
芝 物 0.0238095
则 物 0.0714286
百 物 0.0238095
二 物 0.0238095
慎 物 0.0238095
贵 物 0.0476190
动 物 0.0476190
乱 物 0.0238095
诱 物 0.0238095
怪物 物 0.0476190
转 物 0.0238095
诸 物 0.0238095
物 物 0.4523810
使 物 0.0238095
俎豆 物 0.0238095
识 物 0.0476190
肉 马肉 0.2500000
善 马肉 0.2500000
马 马肉 0.5000000
而 枕头 0.3333333
枕 枕头 0.6666667
夏声 夏声 0.5000000
夏 夏声 0.5000000
圄 监狱 0.2500000
廷尉 监狱 0.2500000
狱 监狱 0.5000000
反 死子反 0.5000000
子 死子反 0.5000000
胶 极为 0.0588235
辽 极为 0.0588235
厚 极为 0.0588235
致 极为 0.0588235
甚 极为 0.1764706
盛 极为 0.0588235
至 极为 0.1176471
极 极为 0.0588235
景 极为 0.0588235
困 极为 0.0588235
后 极为 0.0588235
设 极为 0.0588235
信 极为 0.0588235
急 极为 0.0588235
夹 对垒 0.2500000
众 对垒 0.2500000
荥阳 对垒 0.2500000
相 对垒 0.2500000
冉 起用 0.0714286
忠臣 起用 0.0714286
化 起用 0.0714286
举 起用 0.0714286
起 起用 0.0714286
用 起用 0.3571429
者 起用 0.0714286
立 起用 0.0714286
练 起用 0.0714286
良 起用 0.0714286
也 夷族 0.3333333
会 夷族 0.3333333
夷 夷族 0.3333333
俟 车驾 0.0833333
东莱 车驾 0.0833333
增 车驾 0.0833333
御 车驾 0.0833333
骖 车驾 0.0833333
驾 车驾 0.1666667
辨 车驾 0.0833333
马 车驾 0.0833333
所 车驾 0.0833333
待 车驾 0.0833333
行 车驾 0.0833333
忠信 忠实 0.5000000
奉 忠实 0.5000000
贰 二心 0.1250000
二 二心 0.2500000
虑 二心 0.1250000
矣 二心 0.1250000
心 二心 0.3750000
慈 败家子 0.2500000
子 败家子 0.2500000
以 败家子 0.2500000
败 败家子 0.2500000
公 到狐 0.2000000
于 到狐 0.2000000
单 到狐 0.2000000
狐 到狐 0.2000000
心 到狐 0.2000000
为 制做 0.2000000
滨 制做 0.2000000
治 制做 0.2000000
砮 制做 0.2000000
之 制做 0.2000000
景 屡屡 0.1111111
数 屡屡 0.4444444
诛 屡屡 0.1111111
屡 屡屡 0.1111111
孝 屡屡 0.1111111
而 屡屡 0.1111111
国 矛盾 0.1000000
间 矛盾 0.1000000
内 矛盾 0.1000000
和 矛盾 0.1000000
免 矛盾 0.1000000
不 矛盾 0.1000000
闻 矛盾 0.1000000
郤 矛盾 0.3000000
下 严查 0.3333333
吏 严查 0.3333333
治 严查 0.3333333
求 求援 0.1111111
救 求援 0.1111111
如 求援 0.1111111
晋 求援 0.1111111
告急 求援 0.5555556
公 让公 0.5000000
立 让公 0.5000000
侨 伯侨 0.5000000
伯 伯侨 0.5000000
卜 掌 0.0714286
于 掌 0.0714286
属 掌 0.0714286
政 掌 0.0714286
符 掌 0.0714286
外 掌 0.0714286
擅 掌 0.0714286
操 掌 0.0714286
鲁 掌 0.0714286
主 掌 0.0714286
用 掌 0.1428571
掌 掌 0.1428571
昭王 承接 0.3333333
蒙 承接 0.3333333
故 承接 0.3333333
所 无依无靠 0.2000000
倚 无依无靠 0.2000000
无 无依无靠 0.2000000
寡 无依无靠 0.2000000
鳏 无依无靠 0.2000000
大 下气 0.3333333
卑 下气 0.6666667
莫 肃静 1.0000000
可 死生祸福无不宜 0.2500000
无 死生祸福无不宜 0.2500000
物 死生祸福无不宜 0.2500000
不 死生祸福无不宜 0.2500000
转 子转 1.0000000
毋 关东 0.0769231
能 关东 0.0769231
坏 关东 0.0769231
隔 关东 0.0769231
持戟 关东 0.0769231
关东 关东 0.4615385
东 关东 0.0769231
山东 关东 0.0769231
少 文化 1.0000000
潢 天潢 1.0000000
死 死范痤 1.0000000
嫉 嫉恨 0.2500000
睢 嫉恨 0.2500000
妒 嫉恨 0.2500000
之 嫉恨 0.2500000
韩信 反汉 1.0000000
都 大都城 0.2500000
国 大都城 0.2500000
大 大都城 0.2500000
也 大都城 0.2500000
夹 夹击 0.3333333
击 夹击 0.3333333
外 夹击 0.3333333
子 夫弃子而嫁 0.3333333
而 夫弃子而嫁 0.3333333
嫁 夫弃子而嫁 0.3333333
益 晋爵三级 0.2500000
三 晋爵三级 0.2500000
级 晋爵三级 0.2500000
爵 晋爵三级 0.2500000
反 扭转 0.3333333
存 扭转 0.3333333
覆 扭转 0.3333333
曰 言说 0.5000000
言 言说 0.5000000
地 伏地 0.5000000
据 伏地 0.5000000
誓 肸誓 0.4000000
肸 肸誓 0.4000000
此 肸誓 0.2000000
谢 告别 0.1428571
别 告别 0.1428571
行 告别 0.1428571
冯欢 告别 0.1428571
辞 告别 0.2857143
去 告别 0.1428571
金 金印 0.2000000
印 金印 0.8000000
逐 驱逐 0.8888889
驱 驱逐 0.0222222
放逐 驱逐 0.0222222
出 驱逐 0.0222222
辟 驱逐 0.0222222
遣 驱逐 0.0222222
茀 茀出宫 0.3333333
宫 茀出宫 0.3333333
出 茀出宫 0.3333333
文 外交 0.1250000
交 外交 0.3125000
乘车 外交 0.0625000
厚 外交 0.0625000
客 外交 0.0625000
外 外交 0.0625000
也 外交 0.0625000
设 外交 0.0625000
举 外交 0.0625000
对 外交 0.0625000
僚 外交 0.0625000
祠 谬忌 0.2222222
于 谬忌 0.1111111
忌 谬忌 0.5555556
诱 谬忌 0.1111111
肘 用肘 0.4000000
于 用肘 0.2000000
用 用肘 0.2000000
接 用肘 0.2000000
尚书 书令 0.5000000
令 书令 0.5000000
璧 璧 1.0000000
小 小雨 0.5000000
雨 小雨 0.5000000
火 生火灾 1.0000000
因 托 0.1000000
吏 托 0.1000000
既已 托 0.1000000
吊 托 0.1000000
以 托 0.1000000
属 托 0.1000000
旦 托 0.1000000
委 托 0.2000000
问 托 0.1000000
色 芒角变色 0.5000000
变 芒角变色 0.5000000
足 资格 0.1428571
可 资格 0.2857143
以 资格 0.4285714
权 资格 0.1428571
闻 无人不晓 0.3333333
不 无人不晓 0.3333333
莫 无人不晓 0.3333333
朱 朱邑 1.0000000
不 纵汉 0.5000000
之 纵汉 0.5000000
重 重叠 1.0000000
屯 过夜 0.3333333
乎 过夜 0.3333333
宿 过夜 0.3333333
纛 装饰 0.0714286
旄 装饰 0.0714286
雕 装饰 0.0714286
豭 装饰 0.0714286
衡 装饰 0.0714286
饰 装饰 0.5714286
珠 装饰 0.0714286
也 宗主 0.5000000
宗室 宗主 0.5000000
昌 宋昌 0.2000000
宋昌 宋昌 0.8000000
为 当作家 0.5000000
家 当作家 0.5000000
黎 黎民百姓 0.2857143
万民 黎民百姓 0.1428571
黎民 黎民百姓 0.4285714
首 黎民百姓 0.1428571
涂山 涂山氏之女 1.0000000
不 不侈 1.0000000
连 基层 1.0000000
愿 叔父 0.0344828
父 叔父 0.2758621
项梁 叔父 0.0344828
叔 叔父 0.2758621
之 叔父 0.0344828
所 叔父 0.0344828
也 叔父 0.1034483
季 叔父 0.2068966
皆 一个个 0.1428571
无 一个个 0.1428571
不 一个个 0.1428571
妒 一个个 0.1428571
焉 一个个 0.1428571
冻 一个个 0.1428571
贤 一个个 0.1428571
听 忠告 0.3333333
忠 忠告 0.3333333
矣 忠告 0.3333333
日 一卦 0.1428571
卜 一卦 0.2857143
龟 一卦 0.1428571
当 一卦 0.1428571
兆 一卦 0.1428571
之 一卦 0.1428571
令尹 令尹 1.0000000
脯 干肉 1.0000000
台 登台 0.2500000
尽 登台 0.2500000
登 登台 0.5000000
与 与众 0.4000000
乃 与众 0.2000000
以 与众 0.2000000
鲍牧 与众 0.2000000
善 不怀好意 0.3333333
不 不怀好意 0.3333333
代 不怀好意 0.3333333
竖 毛孩子 0.5000000
子 毛孩子 0.5000000
都 齐将田 0.2500000
齐将田 齐将田 0.7500000
姓 万人之上 0.2000000
百 万人之上 0.2000000
上 万人之上 0.2000000
之 万人之上 0.4000000
带 横流 0.3333333
渭 横流 0.3333333
河 横流 0.3333333
孝公 的胙 0.2000000
秦 的胙 0.4000000
胙 的胙 0.4000000
督责 执行 0.0740741
先 执行 0.0370370
奉 执行 0.1111111
以 执行 0.0370370
趋 执行 0.0370370
能 执行 0.0370370
承 执行 0.0370370
审 执行 0.0370370
共 执行 0.0370370
宽舒 执行 0.0370370
行 执行 0.4074074
执 执行 0.0740741
司 执行 0.0370370
亦 礼品 0.1111111
质 礼品 0.1111111
厚礼 礼品 0.1111111
赠 礼品 0.1111111
事 礼品 0.1111111
也 礼品 0.1111111
委 礼品 0.1111111
送 礼品 0.1111111
享 礼品 0.1111111
脩 王后脩 0.2857143
后 王后脩 0.2857143
王 王后脩 0.4285714
十 五十弦的瑟 0.2500000
五 五十弦的瑟 0.2500000
瑟 五十弦的瑟 0.2500000
弦 五十弦的瑟 0.2500000
芮 芮二 1.0000000
狐 飞狐 0.5000000
飞 飞狐 0.5000000
珠玉 珠玉 0.6250000
室 珠玉 0.1250000
出 珠玉 0.1250000
宝玉 珠玉 0.1250000
异 立场 0.2000000
居 立场 0.2000000
去 立场 0.2000000
臣 立场 0.2000000
心 立场 0.2000000
残 谗臣 0.5000000
谗 谗臣 0.5000000
赴 报丧 0.7500000
诈 报丧 0.1250000
告 报丧 0.1250000
国 国政 0.3023256
明 国政 0.0232558
允 国政 0.0232558
之 国政 0.0232558
政 国政 0.3488372
事 国政 0.0465116
摄 国政 0.0232558
笃 国政 0.0232558
代 国政 0.0232558
治 国政 0.0232558
执政 国政 0.0465116
职 国政 0.0232558
权 国政 0.0465116
懈 国政 0.0232558
曰 文识 0.5000000
识 文识 0.5000000
穣 穰相全 1.0000000
则 口水 1.0000000
通 断绝 0.0125000
卒 断绝 0.0125000
祀 断绝 0.0375000
往来 断绝 0.0125000
决 断绝 0.0125000
食 断绝 0.0125000
断 断绝 0.0125000
而 断绝 0.0125000
和亲 断绝 0.0125000
绝 断绝 0.8000000
俱 断绝 0.0125000
粮 断绝 0.0125000
不 断绝 0.0375000
立 泽封 0.3333333
刘泽 泽封 0.6666667
听 反对 0.0370370
争 反对 0.1111111
废 反对 0.0370370
奭 反对 0.0370370
姓 反对 0.0370370
不 反对 0.0740741
恨 反对 0.0370370
夺 反对 0.0370370
之 反对 0.0370370
非 反对 0.0370370
反 反对 0.3333333
欲 反对 0.0370370
也 反对 0.0370370
畔 反对 0.0370370
禁 反对 0.0370370
否 反对 0.0370370
安 董 0.3636364
赤 董 0.0909091
董 董 0.2727273
董安于 董 0.1818182
董翳 董 0.0909091
法 刑名 0.2000000
术 刑名 0.2000000
刑名 刑名 0.6000000
尊卑 不同 0.0133333
贵贱 不同 0.0133333
祭 不同 0.0133333
轻重 不同 0.0266667
行赏 不同 0.0133333
笔 不同 0.0133333
齐 不同 0.0133333
各 不同 0.0133333
各异 不同 0.0133333
不 不同 0.1466667
随 不同 0.0133333
性命 不同 0.0133333
声 不同 0.0133333
度 不同 0.0133333
异 不同 0.3066667
纆 不同 0.0133333
乎 不同 0.0133333
而 不同 0.0133333
何 不同 0.0133333
禨 不同 0.0133333
也 不同 0.0266667
殊 不同 0.0933333
错 不同 0.0133333
终始 不同 0.0133333
监 不同 0.0133333
同 不同 0.1066667
壤 不同 0.0133333
直 不同 0.0133333
剖符 代代相传 0.2500000
勿 代代相传 0.2500000
世 代代相传 0.5000000
桥 桥下 0.2000000
下 桥下 0.4000000
圯 桥下 0.2000000
梁 桥下 0.2000000
察 称号 0.0625000
称号 称号 0.0625000
祝融 称号 0.0625000
义帝 称号 0.0625000
于 称号 0.1250000
归 称号 0.0625000
名 称号 0.0625000
伯 称号 0.1250000
也 称号 0.0625000
平国君 称号 0.0625000
号 称号 0.2500000
祖 祖 0.6000000
公 祖 0.1000000
者 祖 0.1000000
配 祖 0.1000000
昆 祖 0.1000000
杀 杀猪 0.3333333
豕 杀猪 0.3333333
进 杀猪 0.3333333
异 孩子 0.0263158
骨 孩子 0.0263158
孤 孩子 0.0263158
男 孩子 0.0789474
子 孩子 0.5263158
弃 孩子 0.0263158
儿 孩子 0.0263158
路 孩子 0.0263158
公主 孩子 0.0263158
田婴 孩子 0.0263158
者 孩子 0.0526316
孺子 孩子 0.0526316
畜 孩子 0.0263158
此 孩子 0.0263158
祥 孩子 0.0263158
纠 纷繁 0.3333333
纷 纷繁 0.6666667
耳 废 0.0400000
其 废 0.0400000
在 废 0.0400000
咎 废 0.0400000
用 废 0.0400000
废 废 0.8000000
曰 反问 0.5000000
因 反问 0.5000000
陵 建陵墓 1.0000000
得 栾 0.0416667
大 栾 0.2500000
栾 栾 0.6250000
栾布 栾 0.0416667
帷帐 栾 0.0416667
仲 穆仲 0.5000000
穆 穆仲 0.5000000
祠 祠坛 0.6666667
于 祠坛 0.3333333
人 之徒 0.1666667
淫 之徒 0.1666667
徒 之徒 0.1666667
谄 之徒 0.1666667
者 之徒 0.1666667
之 之徒 0.1666667
几 差一点 1.0000000
士 游士 0.5000000
游 游士 0.5000000
术 扬 0.1250000
阶 扬 0.1250000
宣 扬 0.1250000
久远 扬 0.1250000
而 扬 0.1250000
称 扬 0.2500000
扬 扬 0.1250000
下 劫下 0.5000000
劫 劫下 0.5000000
敢 禹所定 0.5000000
而 禹所定 0.5000000
邴 名字 0.0833333
丞相 名字 0.1666667
令 名字 0.0833333
名 名字 0.6666667
兆 京兆尹 0.3333333
而 京兆尹 0.3333333
丞相 京兆尹 0.3333333
拂 拍打 0.5000000
之 拍打 0.5000000
捥 祝 0.0454545
赤 祝 0.0454545
止 祝 0.0454545
五帝 祝 0.0454545
祝 祝 0.6818182
太祝 祝 0.0454545
领 祝 0.0454545
除 祝 0.0454545
不 不合时宜 0.4000000
腐 不合时宜 0.2000000
时 不合时宜 0.4000000
赵王 进京 1.0000000
乎 衰微 0.0454545
卑 衰微 0.1818182
微 衰微 0.2272727
衰 衰微 0.3636364
秏 衰微 0.0454545
衰微 衰微 0.1363636
妇 女子 0.0253165
神君 女子 0.0126582
娀 女子 0.0126582
子 女子 0.1139241
娶 女子 0.0126582
女 女子 0.6455696
雍氏 女子 0.0126582
女主 女子 0.0126582
也 女子 0.0632911
氏女 女子 0.0126582
献 女子 0.0126582
缶 女子 0.0126582
伯服 女子 0.0126582
粲 女子 0.0126582
姬 女子 0.0253165
界 为界 0.5000000
夹 为界 0.1666667
而 为界 0.1666667
之 为界 0.1666667
择 首领 0.0588235
田单 首领 0.0588235
也 首领 0.0588235
长 首领 0.5294118
君 首领 0.0588235
傅 首领 0.0588235
伯 首领 0.1764706
出 时出动 1.0000000
粮 保证 0.1666667
必 保证 0.1666667
剖符 保证 0.1666667
也 保证 0.1666667
不 保证 0.1666667
之 保证 0.1666667
师 方术 0.0344828
方术 方术 0.0344828
方士 方术 0.0344828
方 方术 0.8275862
哉 方术 0.0344828
真 方术 0.0344828
得 去路 0.3333333
不 去路 0.3333333
西 去路 0.3333333
引 陆陆续续 0.3333333
者 陆陆续续 0.3333333
稍 陆陆续续 0.3333333
姓 姓名 0.3333333
金 姓名 0.0833333
旁 姓名 0.0833333
名 姓名 0.5000000
六 侯晋封 0.1666667
昌平 侯晋封 0.0833333
勒 侯晋封 0.0833333
年 侯晋封 0.0833333
侯 侯晋封 0.5000000
济川王 侯晋封 0.0833333
钩 刀剑 0.3333333
厉 刀剑 0.3333333
锋 刀剑 0.3333333
邢 菑南 0.3333333
南 菑南 0.3333333
说 菑南 0.3333333
请 二氏来齐 0.5000000
来 二氏来齐 0.5000000
以 以旦 0.5000000
旦 以旦 0.5000000
明 下明 1.0000000
未敢 动 0.0357143
于 动 0.0357143
悉 动 0.0357143
去 动 0.0714286
废 动 0.0357143
甲 动 0.0357143
全 动 0.0357143
缀 动 0.0357143
行 动 0.0357143
动 动 0.3214286
重 动 0.0357143
笞 动 0.0357143
近 动 0.0714286
欲 动 0.0357143
摇 动 0.0357143
徙 动 0.0357143
躁 动 0.0357143
时 动 0.0357143
私 暗中活动 0.5000000
晋 暗中活动 0.5000000
刚 讲求 0.2000000
信 讲求 0.2000000
臣 讲求 0.2000000
故 讲求 0.4000000
窃 兵符 0.1250000
兵符 兵符 0.3750000
矫 兵符 0.1250000
行 兵符 0.1250000
符 兵符 0.2500000
作 手工 1.0000000
五 国龙 0.3333333
四 国龙 0.3333333
龙 国龙 0.3333333
陵 葬在陵圉 0.3333333
葬 葬在陵圉 0.3333333
圉 葬在陵圉 0.3333333
义 义法 1.0000000
龁 龁借 0.5000000
因 龁借 0.5000000
得 中土地 0.2500000
而 中土地 0.2500000
黔 中土地 0.2500000
中 中土地 0.2500000
则 在祠 0.5000000
祠 在祠 0.5000000
知 人生在世 1.0000000
老 余力 1.0000000
抑 惧 0.1250000
自 惧 0.1250000
慑 惧 0.1250000
伏 惧 0.1250000
畏 惧 0.3750000
之 惧 0.1250000
既已 上车 0.1250000
车 上车 0.5000000
上 上车 0.3750000
吕 吕嬃 0.5000000
媭 吕嬃 0.5000000
夫 无愧 0.3333333
疚 无愧 0.3333333
不 无愧 0.3333333
所 名马 0.3333333
乘 名马 0.3333333
马 名马 0.3333333
亡 死亡 0.0952381
卒 死亡 0.0476190
也 死亡 0.0476190
人 死亡 0.0476190
死 死亡 0.6666667
者 死亡 0.0476190
限 死亡 0.0476190
服 心服口服 1.0000000
散 散发 1.0000000
可 可观 0.5000000
观 可观 0.5000000
府 天府 1.0000000
正 法官 0.1428571
吏 法官 0.1428571
直 法官 0.1428571
治 法官 0.1428571
适 法官 0.1428571
王 法官 0.1428571
狱吏 法官 0.1428571
女 淫荡 0.1666667
憙 淫荡 0.1666667
淫 淫荡 0.3333333
侯 淫荡 0.1666667
九 淫荡 0.1666667
存亡 保存 0.0714286
夫 保存 0.0357143
而 保存 0.0357143
矣 保存 0.0357143
复 保存 0.0357143
策 保存 0.0357143
他 保存 0.0357143
藏 保存 0.0357143
封 保存 0.0357143
董安于 保存 0.0357143
存 保存 0.6071429
婕 婕妤 0.5000000
妤 婕妤 0.5000000
七 二百七十 1.0000000
三 裯已 1.0000000
乡 感戴 0.3333333
戴 感戴 0.3333333
风 感戴 0.3333333
古 往古 1.0000000
材 多才多艺 0.2222222
多 多才多艺 0.4444444
艺 多才多艺 0.2222222
乃 多才多艺 0.1111111
发 说中 0.3333333
中 说中 0.3333333
奇 说中 0.3333333
甲兵 铠甲 0.0666667
甲 铠甲 0.6000000
窟 铠甲 0.0666667
被 铠甲 0.2666667
酸 酸味 1.0000000
畔 背叛暴秦 0.5000000
秦 背叛暴秦 0.5000000
时 禹时代 0.5000000
夏 禹时代 0.5000000
外黄 起先 0.5000000
不 起先 0.5000000
曰 答道 0.7500000
答 答道 0.2500000
高庙 禀报 0.0714286
言 禀报 0.1428571
报 禀报 0.4285714
随何 禀报 0.0714286
致 禀报 0.0714286
奏 禀报 0.1428571
上 禀报 0.0714286
形 长相 0.3333333
状貌 长相 0.3333333
容 长相 0.3333333
公 吕尚 0.0454545
本 吕尚 0.0454545
吕尚 吕尚 0.5909091
之 吕尚 0.0454545
盖 吕尚 0.0454545
杖 吕尚 0.0454545
曰 吕尚 0.0909091
者 吕尚 0.0454545
尚 吕尚 0.0454545
殷 卬为殷王 0.3333333
为 卬为殷王 0.3333333
王 卬为殷王 0.3333333
印 印之 1.0000000
殷 殷周 0.2500000
世 殷周 0.2500000
周 殷周 0.2500000
之 殷周 0.2500000
甲 车衣甲 1.0000000
言 送行 0.0555556
士 送行 0.1111111
使 送行 0.0555556
送 送行 0.5555556
者 送行 0.0555556
之 送行 0.1111111
灞 送行 0.0555556
虐 疯狂 0.5000000
已 疯狂 0.5000000
法 废除谥法 0.3333333
谥 废除谥法 0.3333333
除 废除谥法 0.3333333
敌 匹配 0.1000000
人 匹配 0.2000000
也 匹配 0.2000000
当 匹配 0.1000000
矣 匹配 0.1000000
主 匹配 0.2000000
配 匹配 0.1000000
已 协议 1.0000000
力 时力 0.5000000
时 时力 0.5000000
得 拴 0.2500000
羁 拴 0.2500000
兮 拴 0.2500000
甿 拴 0.2500000
高祖 光复 0.3333333
于 光复 0.3333333
复 光复 0.3333333
陋 简陋 0.2000000
穷 简陋 0.2000000
宫室 简陋 0.2000000
露 简陋 0.2000000
荜 简陋 0.2000000
巨 得以亿万 0.5000000
万 得以亿万 0.5000000
迁徙 的戌卒 0.3333333
徒 的戌卒 0.3333333
之 的戌卒 0.3333333
薄姬 薄姬 0.7500000
薄 薄姬 0.0833333
而 薄姬 0.0833333
姬 薄姬 0.0833333
记 不可胜计 0.1428571
可 不可胜计 0.1428571
数 不可胜计 0.1428571
也 不可胜计 0.1428571
不 不可胜计 0.1428571
胜 不可胜计 0.2857143
饿 极了 0.1250000
善 极了 0.1250000
也 极了 0.1250000
琴 极了 0.1250000
衰 极了 0.1250000
” 极了 0.1250000
矣 极了 0.1250000
哉 极了 0.1250000
貌 动听 0.2500000
钟磬 动听 0.2500000
柔 动听 0.2500000
甘 动听 0.2500000
衡山 衡山 0.8888889
衡 衡山 0.1111111
婚 亲家 0.6666667
宾 亲家 0.3333333
笑 发笑 0.5000000
之 发笑 0.5000000
嫂 私通 0.1111111
通 私通 0.2222222
私通 私通 0.2777778
私 私通 0.1111111
于 私通 0.1111111
悝 私通 0.0555556
庆父 私通 0.0555556
鲍 私通 0.0555556
齐 封齐悼 0.4000000
悼 封齐悼 0.2000000
以 封齐悼 0.2000000
封 封齐悼 0.2000000
闲 僮 0.5000000
僮 僮 0.5000000
项梁 有恩 0.1111111
于 有恩 0.2222222
有 有恩 0.3333333
德 有恩 0.3333333
茧 蚕茧 1.0000000
为 代地 0.0188679
掠 代地 0.0188679
赵 代地 0.0188679
代地 代地 0.2641509
赦 代地 0.0188679
陈豨 代地 0.0188679
歇 代地 0.0188679
利 代地 0.0188679
劫 代地 0.0188679
代 代地 0.5849057
曰 名子 0.1666667
命 名子 0.3333333
兔 名子 0.1666667
巫咸 名子 0.1666667
涉 名子 0.1666667
为 逞凶暴 0.5000000
桀 逞凶暴 0.5000000
也 继尧 0.5000000
继 继尧 0.5000000
责 觉悟 0.0714286
觉 觉悟 0.0714286
之 觉悟 0.1428571
寤 觉悟 0.3571429
自 觉悟 0.0714286
也 觉悟 0.0714286
一 觉悟 0.0714286
悟 觉悟 0.1428571
择 择其 0.3333333
采 择其 0.3333333
贤 择其 0.3333333
杵臼 臼 0.4285714
褒姒 臼 0.1428571
臼 臼 0.4285714
示 此书 0.5000000
书 此书 0.5000000
蚡冒 蚡冒 1.0000000
八 八代 0.4000000
世 八代 0.4000000
之 八代 0.2000000
康 康诏 0.5000000
诰 康诏 0.5000000
蜚 害虫 0.3333333
鸿 害虫 0.3333333
满 害虫 0.3333333
蓝田 大战 0.0500000
凡 大战 0.0500000
脱 大战 0.0500000
芷阳 大战 0.0500000
大 大战 0.2500000
战 大战 0.4500000
野 大战 0.0500000
曲 大战 0.0500000
遗 身孕 0.1000000
有 身孕 0.2000000
腹 身孕 0.2000000
身 身孕 0.5000000
望 栗姬 0.0714286
栗姬 栗姬 0.8571429
之 栗姬 0.0714286
产 产地 0.5000000
去 产地 0.5000000
送 送璧 0.5000000
璧 送璧 0.5000000
皆 惠 0.0769231
遇 惠 0.0769231
主父 惠 0.1538462
惠 惠 0.6153846
远 惠 0.0769231
望 脚尖 0.3333333
归 脚尖 0.3333333
跂 脚尖 0.3333333
足 尖 0.1666667
喙 尖 0.1666667
见 尖 0.1666667
末 尖 0.3333333
中 尖 0.1666667
成皋 守成皋 1.0000000
颈 砍头 0.5000000
折 砍头 0.5000000
纣 纣答允 0.3333333
乃 纣答允 0.3333333
许 纣答允 0.3333333
遂 手掌心 1.0000000
足 恐不够 0.5000000
不 恐不够 0.5000000
则 揖让 0.1250000
从 揖让 0.1250000
让 揖让 0.3750000
揖 揖让 0.3750000
赵武 武藏 1.0000000
授 无误 1.0000000
听 凭 0.0232558
剖符 凭 0.0232558
刀 凭 0.0232558
以 凭 0.6046512
太尉 凭 0.0232558
何 凭 0.1860465
所 凭 0.0232558
女 凭 0.0232558
陈涉 凭 0.0232558
恣 凭 0.0232558
劫 凭 0.0232558
望见 此情此景 1.0000000
使 前击筑 0.2500000
前 前击筑 0.2500000
击 前击筑 0.2500000
筑 前击筑 0.2500000
牧野 誓师 0.3333333
誓 誓师 0.6666667
弟 堂弟 0.6000000
从 堂弟 0.4000000
尽 工匠 0.0714286
匠 工匠 0.2142857
共工 工匠 0.0714286
工 工匠 0.6428571
枭 自在 1.0000000
所 判罪 0.2500000
罪 判罪 0.2500000
之 判罪 0.2500000
坐 判罪 0.2500000
为 斯为长史 0.5000000
长史 斯为长史 0.5000000
， 亥， 0.3333333
者 亥， 0.3333333
亥 亥， 0.3333333
槐 熊槐 0.5000000
熊 熊槐 0.5000000
宝 珍视 0.6666667
用 珍视 0.3333333
害 相当 0.0666667
财物 相当 0.0666667
为 相当 0.0666667
夫 相当 0.0666667
周 相当 0.0666667
之 相当 0.0666667
金 相当 0.0666667
什 相当 0.0666667
米 相当 0.0666667
当 相当 0.0666667
称 相当 0.0666667
妤 相当 0.0666667
比 相当 0.2000000
动 动过 1.0000000
闭门 关上门 1.0000000
季康子 季康子 0.6250000
复 季康子 0.0625000
康子 季康子 0.3125000
易 燕易王 0.3333333
燕 燕易王 0.3333333
王 燕易王 0.3333333
郊 商郊 0.3333333
商 商郊 0.6666667
人 使劲 1.0000000
锡 水色 1.0000000
倍 之交 1.0000000
长 校长 0.5000000
校 校长 0.5000000
无 家邑 0.5000000
家 家邑 0.5000000
柏 隐藏 0.0476190
其 隐藏 0.0476190
阳气 隐藏 0.0476190
藏 隐藏 0.0476190
匿 隐藏 0.5714286
昼 隐藏 0.0476190
伏 隐藏 0.0476190
隐 隐藏 0.1428571
在 阴在酉 0.3333333
酉 阴在酉 0.3333333
阴 阴在酉 0.3333333
琅邪 琅邪郡 1.0000000
尽 耗尽 0.2500000
肥 耗尽 0.2500000
王 耗尽 0.2500000
竭 耗尽 0.2500000
虚 名不虚传 0.3333333
不 名不虚传 0.3333333
矣 名不虚传 0.3333333
苦 苦恼 0.5000000
之 苦恼 0.5000000
舌 三寸之舌 0.4000000
寸 三寸之舌 0.4000000
三 三寸之舌 0.2000000
加 细绳 0.5000000
缴 细绳 0.5000000
化 化育 1.0000000
公 公灵 0.5000000
灵 公灵 0.5000000
长 负责人 0.5000000
答 负责人 0.2000000
舍 负责人 0.3000000
得 得志 0.1000000
不 得志 0.1000000
得志 得志 0.5000000
温 得志 0.1000000
已 得志 0.1000000
达 得志 0.1000000
余祭 余祭 0.7500000
， 余祭 0.2500000
灭 若敖氏 0.1666667
若敖 若敖氏 0.3333333
击 若敖氏 0.1666667
氏 若敖氏 0.3333333
丹 秦国 0.0006566
张仪 秦国 0.0006566
予 秦国 0.0013132
倍 秦国 0.0019698
负 秦国 0.0006566
去 秦国 0.0006566
钜 秦国 0.0006566
塞 秦国 0.0006566
到 秦国 0.0006566
芒 秦国 0.0006566
粟 秦国 0.0013132
东 秦国 0.0006566
偷 秦国 0.0006566
攻 秦国 0.0006566
犁 秦国 0.0006566
遂 秦国 0.0006566
公仲 秦国 0.0006566
媾 秦国 0.0006566
粮 秦国 0.0006566
募 秦国 0.0006566
索 秦国 0.0006566
拔 秦国 0.0006566
缶 秦国 0.0006566
郤 秦国 0.0006566
讲 秦国 0.0006566
筑 秦国 0.0006566
王孙满 秦国 0.0006566
郑朱 秦国 0.0013132
秩 秦国 0.0006566
接 秦国 0.0006566
复 秦国 0.0013132
力 秦国 0.0006566
都 秦国 0.0013132
秦军 秦国 0.0013132
阴晋 秦国 0.0006566
关内 秦国 0.0006566
地 秦国 0.0039396
郡县 秦国 0.0006566
南 秦国 0.0006566
苟 秦国 0.0006566
而 秦国 0.0032830
绝 秦国 0.0013132
之 秦国 0.0124754
王稽 秦国 0.0006566
败 秦国 0.0013132
闭 秦国 0.0013132
春秋 秦国 0.0006566
缭 秦国 0.0006566
宜阳 秦国 0.0006566
籓 秦国 0.0006566
兵 秦国 0.0039396
魏章 秦国 0.0013132
图 秦国 0.0006566
刃 秦国 0.0006566
听 秦国 0.0006566
国 秦国 0.0124754
先 秦国 0.0006566
入 秦国 0.0039396
西 秦国 0.0013132
战胜 秦国 0.0006566
营 秦国 0.0006566
出 秦国 0.0013132
归 秦国 0.0065660
县 秦国 0.0006566
晋国 秦国 0.0006566
制 秦国 0.0006566
据 秦国 0.0013132
者 秦国 0.0019698
少梁 秦国 0.0006566
秦将王 秦国 0.0013132
吏 秦国 0.0006566
南阳 秦国 0.0013132
功 秦国 0.0006566
焉 秦国 0.0006566
猛虎 秦国 0.0006566
逐 秦国 0.0006566
宾 秦国 0.0006566
也 秦国 0.0078792
安邑 秦国 0.0006566
秦昭王 秦国 0.0006566
作 秦国 0.0013132
与 秦国 0.0026264
吕省 秦国 0.0006566
蜰 秦国 0.0006566
因 秦国 0.0026264
芒卯 秦国 0.0006566
城 秦国 0.0006566
兴兵 秦国 0.0006566
争 秦国 0.0006566
宗室 秦国 0.0006566
差 秦国 0.0006566
其 秦国 0.0013132
带 秦国 0.0026264
奔 秦国 0.0013132
几 秦国 0.0006566
行 秦国 0.0006566
酺 秦国 0.0006566
应 秦国 0.0006566
关内侯 秦国 0.0006566
来 秦国 0.0019698
商鞅 秦国 0.0006566
币 秦国 0.0006566
伐 秦国 0.0019698
申包胥 秦国 0.0006566
夫 秦国 0.0059094
河间 秦国 0.0013132
脱 秦国 0.0006566
秦 秦国 0.8424163
往 秦国 0.0019698
借 秦国 0.0006566
必 秦国 0.0013132
夷吾 秦国 0.0006566
举 秦国 0.0013132
郡 秦国 0.0006566
注 秦国 0.0006566
白起 秦国 0.0006566
伍子胥 秦国 0.0006566
遣 秦国 0.0006566
子 子舆 0.5000000
舆 子舆 0.5000000
砨 砥砨 0.5000000
砥 砥砨 0.5000000
哭 哭泣 0.1290323
哭泣 哭泣 0.1290323
泣 哭泣 0.6129032
涕 哭泣 0.1290323
册 策略 0.0238095
计谋 策略 0.0238095
则 策略 0.0238095
术 策略 0.0476190
道 策略 0.0238095
观望 策略 0.0238095
者 策略 0.0476190
连衡 策略 0.0238095
遗 策略 0.0476190
策 策略 0.0476190
转 策略 0.0238095
计 策略 0.3095238
缔 策略 0.0238095
宾 策略 0.0238095
长 策略 0.0238095
也 策略 0.1428571
谋 策略 0.0476190
此 策略 0.0714286
诗 诗经·大雅 1.0000000
辰 日 0.0625000
既已 日 0.0069444
负 日 0.0069444
日夜 日 0.0069444
寅 日 0.0277778
气 日 0.0069444
甲 日 0.0277778
溪 日 0.0069444
履 日 0.0069444
丑 日 0.0486111
日 日 0.2916667
正 日 0.0069444
寡 日 0.0069444
申 日 0.0694444
夕 日 0.0069444
方 日 0.0277778
酉 日 0.0277778
过 日 0.0069444
丁未 日 0.0277778
癸 日 0.0069444
光 日 0.0208333
亥 日 0.0138889
其 日 0.0277778
高祖 日 0.0069444
伏 日 0.0138889
释 日 0.0069444
卒 日 0.0069444
午 日 0.0625000
未 日 0.0138889
戌 日 0.0763889
巳 日 0.0069444
甲午 日 0.0416667
时 日 0.0138889
壁 深沟高垒 0.5000000
深 深沟高垒 0.5000000
有 龙飞 0.3333333
亢 龙飞 0.3333333
龙 龙飞 0.3333333
恶 攻讦 0.3333333
谗 攻讦 0.3333333
之 攻讦 0.3333333
亭长 亭长 1.0000000
文 警告 0.1428571
告 警告 0.5714286
檄 警告 0.1428571
“ 警告 0.1428571
绥 跌 0.3333333
堕 跌 0.3333333
僵 跌 0.3333333
叔孙 引证 0.5000000
称 引证 0.5000000
师 主意 0.0400000
为 主意 0.0400000
然 主意 0.0400000
胡衍 主意 0.0400000
之 主意 0.0400000
曹伯 主意 0.0400000
计 主意 0.4000000
纪信 主意 0.0400000
也 主意 0.0400000
谋 主意 0.0400000
沛公 主意 0.0400000
主 主意 0.0800000
者 主意 0.0800000
此 主意 0.0400000
西 西进发 1.0000000
郊 郊处 0.3333333
我 郊处 0.3333333
兵 郊处 0.3333333
大 施恩德 0.2500000
德 施恩德 0.2500000
修德 施恩德 0.2500000
惠 施恩德 0.2500000
素 真情 0.2857143
知 真情 0.1428571
情 真情 0.4285714
应 真情 0.1428571
防 防风氏 0.5000000
风 防风氏 0.5000000
帝 帝禹号 0.5000000
禹 帝禹号 0.5000000
蔓 嫩枝 0.2500000
牦 嫩枝 0.2500000
豪 嫩枝 0.2500000
绝 嫩枝 0.2500000
计 会计 0.5000000
诸 会计 0.2500000
会 会计 0.2500000
为 嚷 0.5000000
缪 嚷 0.5000000
遣 攻关 1.0000000
齐 嫡子为齐王 0.2000000
为 嫡子为齐王 0.2000000
子 嫡子为齐王 0.2000000
适 嫡子为齐王 0.2000000
王 嫡子为齐王 0.2000000
夫 广陵 0.1250000
未 广陵 0.1250000
广陵 广陵 0.7500000
匿 暗藏 0.5000000
私 暗藏 0.5000000
父兄 兄 0.0714286
也 兄 0.1428571
次 兄 0.0714286
而 兄 0.1428571
兄 兄 0.5714286
正 正道 0.2777778
道 正道 0.4444444
见 正道 0.0555556
三 正道 0.1111111
道德 正道 0.0555556
弃 正道 0.0555556
五 第十五 1.0000000
大 大流星 0.2500000
星 大流星 0.2500000
奔 大流星 0.2500000
流星 大流星 0.2500000
过 之过 0.3333333
者 之过 0.3333333
拂 之过 0.3333333
纲纪 着力 1.0000000
得 虏得 0.3333333
所 虏得 0.3333333
诸侯 虏得 0.3333333
圈 圆圈 0.3333333
回 圆圈 0.3333333
王 圆圈 0.3333333
而 九鼎 0.0769231
九 九鼎 0.3846154
鼎 九鼎 0.5384615
光 夜光之璧 0.2500000
夜 夜光之璧 0.2500000
璧 夜光之璧 0.2500000
之 夜光之璧 0.2500000
奔 逃到温 0.3333333
温 逃到温 0.3333333
出 逃到温 0.3333333
而 无知 0.0344828
鲰 无知 0.0172414
其 无知 0.0172414
狂 无知 0.0172414
无 无知 0.4482759
侗 无知 0.0172414
知 无知 0.4310345
妄 无知 0.0172414
豪 所有 0.0111111
诸侯 所有 0.0111111
田氏 所有 0.0111111
出 所有 0.0111111
攸 所有 0.0111111
纵 所有 0.0111111
秋 所有 0.0111111
黎 所有 0.0111111
所 所有 0.0777778
淮南 所有 0.0111111
麾 所有 0.0111111
独 所有 0.0111111
张 所有 0.0111111
鼎 所有 0.0111111
爱 所有 0.0111111
九 所有 0.0111111
轺 所有 0.0111111
城郭 所有 0.0111111
桥 所有 0.0111111
巨 所有 0.0111111
官 所有 0.0111111
灵 所有 0.0111111
禁 所有 0.0111111
乂 所有 0.0111111
姬 所有 0.0111111
抵 所有 0.0111111
凡 所有 0.0111111
悉 所有 0.0666667
内史 所有 0.0111111
则 所有 0.0111111
尽 所有 0.1444444
持戟 所有 0.0111111
骆 所有 0.0111111
有 所有 0.1000000
地 所有 0.0111111
如 所有 0.0111111
踊 所有 0.0111111
贬 所有 0.0111111
县官 所有 0.0111111
及 所有 0.0111111
洽 所有 0.0111111
宝剑 所有 0.0111111
夫 所有 0.0222222
楚 所有 0.0111111
而 所有 0.0111111
之 所有 0.0222222
高 所有 0.0111111
尝 所有 0.0111111
诸 所有 0.0888889
纪 所有 0.0111111
如 士公 0.5000000
会 士公 0.5000000
非 借古非今 0.3333333
古 借古非今 0.3333333
以 借古非今 0.3333333
为 为乐 0.5000000
乐 为乐 0.5000000
砀 砀郡 0.3333333
砀郡 砀郡 0.6666667
咏 处身 1.0000000
帝 后帝相 0.3333333
后 后帝相 0.3333333
相 后帝相 0.3333333
崩 烈王 0.1428571
烈王 烈王 0.8571429
言 挠 0.3333333
虚 挠 0.3333333
以 挠 0.3333333
逐 追捕 0.5555556
卒 追捕 0.1111111
发 追捕 0.1111111
捕 追捕 0.2222222
久 长期存在 0.3333333
者 长期存在 0.3333333
存 长期存在 0.3333333
凤 雄雌 0.5000000
谓 雄雌 0.5000000
伐 来伐吴 0.5000000
来 来伐吴 0.5000000
涓 名叫涓 1.0000000
恫 人人 0.0294118
皆 人人 0.1470588
涕 人人 0.0294118
莫 人人 0.0294118
各自 人人 0.0588235
奄 人人 0.0294118
承 人人 0.0294118
人 人人 0.5882353
贱 人人 0.0294118
宿 人人 0.0294118
其 来得 0.5000000
来 来得 0.5000000
事 主掌 0.5000000
用 主掌 0.5000000
因 偕同 0.3333333
北地 偕同 0.3333333
以 偕同 0.3333333
行 横行无忌 0.5000000
恣 横行无忌 0.5000000
音 音是 1.0000000
田 田猎 1.0000000
其 灌 0.0769231
灌 灌 0.5384615
彊 灌 0.1538462
畴 灌 0.0769231
坐 灌 0.0769231
阿 灌 0.0769231
逐 放逐 0.0769231
迁 放逐 0.2307692
咎 放逐 0.0769231
放 放逐 0.5384615
房陵 放逐 0.0769231
西河 西岸 0.2000000
西 西岸 0.2000000
惟 西岸 0.2000000
济 西岸 0.2000000
之 西岸 0.2000000
包 繁茂 0.5000000
渐 繁茂 0.5000000
入 侵汉 0.5000000
汉 侵汉 0.5000000
星出 现时 0.3333333
时 现时 0.3333333
今 现时 0.3333333
厄 困境 0.1250000
困 困境 0.2500000
穷 困境 0.1250000
患 困境 0.1250000
于 困境 0.1250000
救 困境 0.1250000
苏代 困境 0.1250000
子 痛恨子常 0.5000000
常 痛恨子常 0.5000000
卒 哨所 0.2500000
设 哨所 0.2500000
庐 哨所 0.2500000
甚 哨所 0.2500000
纣 纣帝 0.5000000
帝 纣帝 0.5000000
亿 亿 1.0000000
亟 对日 1.0000000
象 象一 0.2500000
共 象一 0.2500000
甪 象一 0.2500000
疥 象一 0.2500000
陵 竟陵 0.6666667
竟 竟陵 0.3333333
灭 卑梁 0.1428571
卑梁 卑梁 0.7142857
兵 卑梁 0.1428571
御 君伯御 0.3333333
君 君伯御 0.3333333
伯 君伯御 0.3333333
国 依仗 0.0952381
持 依仗 0.0476190
勇 依仗 0.0476190
因 依仗 0.0476190
夫 依仗 0.0476190
阻 依仗 0.0476190
负 依仗 0.0476190
恃 依仗 0.1904762
辨 依仗 0.0476190
万 依仗 0.0476190
将 依仗 0.0476190
赖 依仗 0.1428571
其 依仗 0.0476190
倚 依仗 0.0476190
保 依仗 0.0476190
所 用于 0.0714286
缘 用于 0.0714286
诸 用于 0.1428571
于 用于 0.3571429
务 用于 0.0714286
用 用于 0.2857143
田广 幅员 1.0000000
秋 四季属秋 1.0000000
狂 高远 0.1428571
广 高远 0.1428571
志 高远 0.2857143
高 高远 0.4285714
卬 孙卬 1.0000000
颇 行为 0.0192308
伪 行为 0.0192308
滋 行为 0.0192308
为 行为 0.0192308
负 行为 0.0192308
后宫 行为 0.0192308
侧 行为 0.0192308
事 行为 0.0192308
僭 行为 0.0192308
扰 行为 0.0192308
赃 行为 0.0192308
利 行为 0.0192308
行 行为 0.5384615
绳 行为 0.0192308
者 行为 0.0192308
虔 行为 0.0192308
义 行为 0.0384615
处 行为 0.0192308
捷 行为 0.0192308
也 行为 0.0192308
礼 行为 0.0192308
市 行为 0.0192308
尤 行为 0.0192308
黄屋 行为 0.0192308
翠 翠凤旗 0.3333333
旗 翠凤旗 0.3333333
凤 翠凤旗 0.3333333
皆 外传 0.5000000
禁 外传 0.5000000
有 无话 0.3333333
以 无话 0.3333333
应 无话 0.3333333
是 指出 0.2000000
指示 指出 0.2000000
闻 指出 0.2000000
指 指出 0.4000000
疵 执疵 0.5000000
执 执疵 0.5000000
其 当夜 0.1250000
于是 当夜 0.1250000
是 当夜 0.1250000
夜 当夜 0.6250000
贼 推诿 0.5000000
解 推诿 0.5000000
庶 嫡立庶 0.3636364
适 嫡立庶 0.2727273
立 嫡立庶 0.3636364
北 敌军 0.0344828
破 敌军 0.2413793
废丘 敌军 0.0344828
南 敌军 0.0344828
七 敌军 0.0344828
之 敌军 0.2068966
军 敌军 0.0344828
敌 敌军 0.1724138
解扬 敌军 0.0344828
人 敌军 0.0344828
犯 敌军 0.0344828
河水 敌军 0.0344828
驰道 敌军 0.0344828
兵 敌军 0.0344828
勇 斗 0.0400000
尾 斗 0.0400000
万 斗 0.0800000
魁 斗 0.1200000
粟 斗 0.1200000
， 斗 0.0400000
斗 斗 0.4400000
庾 斗 0.0400000
刃 斗 0.0400000
锋 斗 0.0400000
其 相安 0.5000000
安 相安 0.5000000
诏书 诏书 0.0666667
次序 诏书 0.0333333
玺 诏书 0.0333333
诏 诏书 0.2000000
下诏 诏书 0.2000000
扶苏 诏书 0.0333333
遗诏 诏书 0.0666667
书 诏书 0.3000000
赐 诏书 0.0666667
望 来来往往 0.5000000
相 来来往往 0.5000000
武 陈武 0.4285714
棘蒲侯 陈武 0.1428571
陈 陈武 0.4285714
自 自负 0.5000000
负 自负 0.5000000
踞 倚 0.2500000
倚 倚 0.2500000
旗 倚 0.2500000
冯 倚 0.2500000
纣 子孙季纣 0.5000000
季 子孙季纣 0.5000000
寡 交换 0.0714286
易 交换 0.7142857
炊 交换 0.0714286
而 交换 0.0714286
请 交换 0.0714286
始 既定 1.0000000
第 宅第 0.4000000
列侯 宅第 0.2000000
甲 宅第 0.2000000
， 宅第 0.2000000
木 竖起 0.1428571
尔 竖起 0.1428571
于 竖起 0.1428571
指 竖起 0.1428571
立 竖起 0.2857143
已 竖起 0.1428571
广 亢奋 0.2500000
奋 亢奋 0.2500000
贲 亢奋 0.2500000
末 亢奋 0.2500000
黯 肤色 0.3333333
然 肤色 0.3333333
而 肤色 0.3333333
孤竹 孤竹国 1.0000000
间 夸赞 0.3333333
弟 夸赞 0.3333333
母 夸赞 0.3333333
推 转移 0.1428571
攻 转移 0.1428571
贰 转移 0.1428571
转 转移 0.2857143
移 转移 0.2857143
举 抬举 0.6666667
称 抬举 0.3333333
两 统率 0.0344828
连 统率 0.0344828
陵 统率 0.0689655
资 统率 0.0344828
帅 统率 0.0344828
并 统率 0.0344828
将 统率 0.7586207
攻 乘此 0.5000000
因袭 乘此 0.5000000
从 时势 0.1666667
遂 时势 0.1666667
者 时势 0.1666667
时 时势 0.5000000
诸 国公子 0.1666667
人 国公子 0.1666667
祠 国公子 0.1666667
遇 国公子 0.1666667
公子 国公子 0.3333333
人 人工 0.5000000
徒 人工 0.5000000
兴 伏羲氏 1.0000000
其 牵牛 0.1428571
径 牵牛 0.2857143
牵牛 牵牛 0.2857143
者 牵牛 0.1428571
北河 牵牛 0.1428571
之 晓谕 0.5000000
喻 晓谕 0.5000000
援 投诚 1.0000000
弗 论列 0.1666667
脩 论列 0.1666667
修 论列 0.3333333
列 论列 0.1666667
论 论列 0.1666667
效 被诛 1.0000000
境 相接壤 0.2500000
也 相接壤 0.2500000
壤 相接壤 0.2500000
接 相接壤 0.2500000
狗 恶狗 0.5000000
名 恶狗 0.5000000
其 作到 0.1666667
备 作到 0.1666667
举 作到 0.1666667
者 作到 0.1666667
扰乱 作到 0.1666667
敬 作到 0.1666667
皆 和虞 0.3333333
疆土 和虞 0.3333333
有 和虞 0.3333333
怨 陷害 0.3333333
绳 陷害 0.3333333
卖 陷害 0.3333333
于 福肉 0.5000000
胙 福肉 0.5000000
弧 为弧 1.0000000
无 贪欲 0.2500000
欲 贪欲 0.7500000
子 子比 0.4285714
同 子比 0.0476190
比 子比 0.5238095
重 郑重 0.2500000
发 郑重 0.2500000
敬 郑重 0.5000000
楚 楚汉 0.2500000
濊 楚汉 0.2500000
中 楚汉 0.2500000
汉 楚汉 0.2500000
昏 昭彰 0.1666667
蔑 昭彰 0.1666667
闻 昭彰 0.1666667
祇 昭彰 0.1666667
章 昭彰 0.1666667
显 昭彰 0.1666667
光 辟光 0.6666667
辟 辟光 0.3333333
闲 安闲 0.2000000
拱 安闲 0.2000000
甚 安闲 0.2000000
燕 安闲 0.2000000
暇 安闲 0.2000000
不 不尊敬 0.3333333
尊 不尊敬 0.3333333
敬 不尊敬 0.3333333
吕泽 立即 0.0149254
饥 立即 0.0149254
引 立即 0.0447761
悉 立即 0.0149254
子綦 立即 0.0149254
接 立即 0.0149254
客 立即 0.0149254
驰 立即 0.0447761
辄 立即 0.0597015
发兵 立即 0.0149254
杀 立即 0.0149254
退 立即 0.0149254
薛公 立即 0.0149254
犬 立即 0.0149254
立 立即 0.1194030
释 立即 0.0149254
召见 立即 0.0149254
以 立即 0.0149254
亡 立即 0.0149254
即位 立即 0.0149254
范增 立即 0.0149254
疾 立即 0.0149254
乃 立即 0.0298507
即 立即 0.2537313
使 立即 0.0298507
对 立即 0.0149254
房 立即 0.0149254
兵 立即 0.0149254
急 立即 0.0895522
肃侯 立即 0.0149254
肉 肥肉 0.5000000
投 肥肉 0.2500000
肥 肥肉 0.2500000
于 接来 0.3333333
稷 接来 0.3333333
奸 接来 0.3333333
入 不好 0.0270270
道 不好 0.0270270
不 不好 0.3243243
行 不好 0.0270270
治 不好 0.0540541
善 不好 0.0810811
唯恐 不好 0.0270270
毁 不好 0.0540541
登 不好 0.0540541
体 不好 0.0270270
疾 不好 0.0270270
安 不好 0.0270270
赡 不好 0.0270270
敞 不好 0.0270270
恶 不好 0.1351351
成 不好 0.0270270
否 不好 0.0270270
术 谙于 0.5000000
读书 谙于 0.5000000
气 气上腾 0.5000000
上 气上腾 0.5000000
而 乐而忘返 0.2500000
归 乐而忘返 0.2500000
乐 乐而忘返 0.2500000
忘 乐而忘返 0.2500000
宋 淮北 0.0625000
淮北 淮北 0.8125000
地 淮北 0.0625000
、 淮北 0.0625000
入 运进 0.5000000
鼎 运进 0.5000000
既 轲 0.0350877
搏 轲 0.0175439
诺 轲 0.0175439
轲 轲 0.1228070
荆卿 轲 0.0526316
左手 轲 0.0175439
千 轲 0.0175439
造 轲 0.0175439
荆轲 轲 0.6315789
则 轲 0.0175439
发 轲 0.0175439
匕首 轲 0.0175439
畏 轲 0.0175439
后 才刚 0.2500000
于 才刚 0.2500000
而 才刚 0.2500000
今 才刚 0.2500000
谋 机谋 0.5000000
横 机谋 0.5000000
约 公约 1.0000000
羊 公羊 0.5000000
羝 公羊 0.2500000
羖 公羊 0.2500000
道 交游 0.1666667
游 交游 0.6666667
脱身 交游 0.1666667
施惠 酒筵 0.1666667
持 酒筵 0.1666667
饮酒 酒筵 0.3333333
具 酒筵 0.1666667
更 酒筵 0.1666667
言 御鞅的话 0.2000000
御 御鞅的话 0.2000000
从 御鞅的话 0.2000000
鞅 御鞅的话 0.2000000
之 御鞅的话 0.2000000
快意 说穿 1.0000000
藏 蕴藏 0.5000000
宛 蕴藏 0.5000000
汉 附汉国 1.0000000
辙 印迹 1.0000000
油 绿油油 1.0000000
九 九江 0.5200000
江王 九江 0.1800000
江 九江 0.3000000
守 戌守 0.1666667
谪 戌守 0.1666667
徙 戌守 0.1666667
长城 戌守 0.1666667
籓 戌守 0.1666667
而 戌守 0.1666667
著 措辞 0.2000000
妙 措辞 0.2000000
称 措辞 0.2000000
辞 措辞 0.4000000
袒 露出 0.5625000
矜 露出 0.0625000
特 露出 0.0625000
喜 露出 0.0625000
有 露出 0.0625000
惊 露出 0.0625000
惭 露出 0.0625000
骄 露出 0.0625000
鱼 腌鱼 1.0000000
义 高义 0.5000000
慕 高义 0.5000000
既 禘祭 0.5000000
禘 禘祭 0.5000000
自 自救 0.1666667
救 自救 0.6666667
各自 自救 0.1666667
久 持久 0.5000000
无 持久 0.5000000
婚 姻亲 0.4000000
求 姻亲 0.2000000
子 姻亲 0.2000000
亲 姻亲 0.2000000
紫 紫宫 0.5000000
宫 紫宫 0.5000000
所 后尘 0.3333333
纣 后尘 0.3333333
为 后尘 0.3333333
困 水利 0.3333333
水 水利 0.3333333
利 水利 0.3333333
修 施 0.0227273
皆 施 0.0227273
引 施 0.0227273
绌 施 0.0227273
乡里 施 0.0227273
废 施 0.0227273
政 施 0.0227273
暴 施 0.0681818
远 施 0.0227273
所 施 0.0227273
脩 施 0.0227273
齐 施 0.0227273
流 施 0.0227273
德 施 0.0227273
行 施 0.0681818
反间 施 0.0227273
刑 施 0.0227273
施 施 0.2045455
仁 施 0.0227273
牛马 施 0.0227273
施德 施 0.0909091
加 施 0.0227273
之 施 0.0454545
将 施 0.0227273
醢 施 0.0227273
设 施 0.0227273
用 施 0.0227273
祥 施 0.0227273
言 言谈 0.3000000
及 言谈 0.1000000
私 言谈 0.1000000
语 言谈 0.1000000
恂 言谈 0.1000000
其 言谈 0.1000000
谏 言谈 0.1000000
终日 言谈 0.1000000
临 临周 0.5000000
周 临周 0.5000000
处 子禽处 0.5000000
禽 子禽处 0.5000000
者 担 0.3333333
谁 担 0.3333333
担 担 0.3333333
侯 此间 0.2500000
九 此间 0.2500000
五 此间 0.2500000
伯 此间 0.2500000
父 重见 0.3333333
士 重见 0.3333333
见 重见 0.3333333
非 不对头 0.5000000
故 不对头 0.5000000
阪 山腰 0.5000000
中 山腰 0.5000000
子 心满意足 0.2500000
于 心满意足 0.2500000
甘心 心满意足 0.2500000
朽 心满意足 0.2500000
是 岁首 0.1250000
岁 岁首 0.1250000
上 岁首 0.1250000
雨 岁首 0.1250000
黑 岁首 0.1250000
事 岁首 0.1250000
光明 岁首 0.1250000
首 岁首 0.1250000
子 充任 1.0000000
矣 效劳 0.3333333
用 效劳 0.6666667
可 不可不 0.3636364
不 不可不 0.6363636
驵 泥 0.2000000
伐 泥 0.2000000
苏 泥 0.2000000
泥 泥 0.2000000
騺 泥 0.2000000
面 四周 0.1000000
方 四周 0.1000000
郭 四周 0.1000000
地 四周 0.1000000
四 四周 0.5000000
周 四周 0.1000000
为 为有虞 0.3333333
有 为有虞 0.3333333
虞 为有虞 0.3333333
亡 叛逃 0.5000000
久 叛逃 0.5000000
抱 璧玉 0.0666667
其 璧玉 0.1333333
还 璧玉 0.0666667
槽 璧玉 0.0666667
投 璧玉 0.0666667
璧 璧玉 0.4666667
逆 璧玉 0.0666667
玉 璧玉 0.0666667
木 盘曲 0.5000000
蟠 盘曲 0.5000000
王龁 龁带兵 0.5000000
将 龁带兵 0.5000000
几 差点 1.0000000
沟 入土 0.3333333
填 入土 0.3333333
壑 入土 0.3333333
不 无底 0.5000000
， 无底 0.5000000
彀 善射 0.2500000
射 善射 0.2500000
善 善射 0.2500000
今 善射 0.2500000
物 精怪 1.0000000
南 南梁 0.5000000
梁 南梁 0.5000000
听 国听 0.3333333
陈 国听 0.3333333
， 国听 0.3333333
以 赤手空拳 0.3333333
手 赤手空拳 0.6666667
姓 更名改姓 0.3333333
变 更名改姓 0.3333333
名 更名改姓 0.3333333
饿 饥饿 0.3333333
饥 饥饿 0.4444444
委 饥饿 0.1111111
馁 饥饿 0.1111111
正 牧正之官 0.5000000
牧 牧正之官 0.5000000
调 调节 1.0000000
德 周未 0.5000000
周 周未 0.5000000
死 厚葬 0.2500000
恶 厚葬 0.2500000
厚葬 厚葬 0.2500000
世 厚葬 0.2500000
下 拜望 0.3333333
门 拜望 0.3333333
造 拜望 0.3333333
事 搞明白 0.3333333
明 搞明白 0.3333333
辨 搞明白 0.3333333
如姬 如姬 1.0000000
太戊 太庙 0.1666667
大 太庙 0.1666667
飨 太庙 0.1666667
庙 太庙 0.3333333
赞 太庙 0.1666667
为 中宫为君 0.3333333
君 中宫为君 0.3333333
宫 中宫为君 0.3333333
子 黑痣 0.5000000
黑 黑痣 0.5000000
北 称臣 0.0303030
面 称臣 0.0909091
入 称臣 0.0303030
为 称臣 0.1515152
于 称臣 0.0303030
也 称臣 0.0303030
臣 称臣 0.5151515
称 称臣 0.0606061
卫 称臣 0.0303030
朝 称臣 0.0303030
剔成 剔成 1.0000000
其 大吉利 0.3333333
国 大吉利 0.3333333
昌 大吉利 0.3333333
得志 猜 0.3333333
论 猜 0.3333333
兮 猜 0.3333333
通 水路 0.0833333
海 水路 0.0833333
水 水路 0.0833333
于 水路 0.2500000
而 水路 0.0833333
漕 水路 0.1666667
载 水路 0.0833333
行 水路 0.0833333
淮 水路 0.0833333
伐 借兵伐魏 0.3333333
借兵 借兵伐魏 0.3333333
魏 借兵伐魏 0.3333333
攻 急速 0.1250000
言 急速 0.1250000
卒 急速 0.1250000
驰 急速 0.1250000
急 急速 0.5000000
圃 外園 0.5000000
外 外園 0.5000000
终 永远 0.1578947
重 永远 0.0526316
常 永远 0.0526316
永 永远 0.1578947
之 永远 0.1052632
传 永远 0.1052632
偃 永远 0.0526316
长 永远 0.2105263
情 永远 0.0526316
戎 永远 0.0526316
所 埋藏 0.3333333
祸 埋藏 0.3333333
伏 埋藏 0.3333333
客游 梁 0.0068493
见 梁 0.0068493
田横 梁 0.0068493
孝 梁 0.0136986
西 梁 0.0068493
狱 梁 0.0068493
梁 梁 0.5273973
辞谢 梁 0.0068493
诸吕 梁 0.0068493
宫殿 梁 0.0068493
梁孝王 梁 0.0958904
景帝 梁 0.0068493
限 梁 0.0068493
来 梁 0.0068493
母 梁 0.0068493
称病 梁 0.0068493
梁王 梁 0.1232877
梁地 梁 0.0410959
血 梁 0.0068493
于是 梁 0.0068493
谁 梁 0.0068493
而 梁 0.0342466
惠王 梁 0.0068493
阴 梁 0.0068493
迎 梁 0.0068493
竟 梁 0.0068493
诡 梁 0.0068493
羊胜 梁 0.0068493
望 梁 0.0068493
赐 梁 0.0068493
志 情面 1.0000000
推 时代 0.0344828
业 时代 0.0344828
并 时代 0.0344828
之 时代 0.1034483
策 时代 0.0344828
际 时代 0.0689655
景 时代 0.0344828
云 时代 0.0344828
相印 时代 0.0344828
始 时代 0.0344828
世 时代 0.0689655
色 时代 0.0344828
时 时代 0.4482759
蛮夷 外族 0.2000000
是 外族 0.2000000
率 外族 0.2000000
夷 外族 0.4000000
吊 伤悼 0.6666667
之 伤悼 0.3333333
慢 不敬 0.0416667
有 不敬 0.0833333
不 不敬 0.4166667
敬 不敬 0.4583333
大 大节 0.3333333
节 大节 0.3333333
礼 大节 0.3333333
得 不得意 0.3333333
意 不得意 0.3333333
不 不得意 0.3333333
下 袭 0.0833333
冒 袭 0.0833333
止 袭 0.0833333
袭 袭 0.5000000
沿 袭 0.0833333
乐 袭 0.0833333
赵氏 袭 0.0833333
亡 介子推 0.0769231
则 介子推 0.0769231
其 介子推 0.0769231
推 介子推 0.2307692
也 介子推 0.0769231
对 介子推 0.0769231
介子推 介子推 0.3846154
文 文公 0.0289855
公 文公 0.0072464
行赏 文公 0.0072464
烧 文公 0.0072464
无 文公 0.0072464
知 文公 0.0072464
不 文公 0.0072464
文成 文公 0.0072464
焚 文公 0.0072464
丧 文公 0.0072464
于是 文公 0.0144928
介子推 文公 0.0072464
亦 文公 0.0072464
尝 文公 0.0144928
文公 文公 0.7898551
亡 文公 0.0217391
僖 文公 0.0072464
曰 文公 0.0072464
迎 文公 0.0072464
馃 文公 0.0072464
闻 文公 0.0072464
年 文公 0.0072464
居 文公 0.0072464
铅 铅 1.0000000
诏 转告 0.1111111
言 转告 0.1111111
绁 转告 0.1111111
告 转告 0.1111111
主 转告 0.1111111
语 转告 0.1111111
之 转告 0.2222222
具 转告 0.1111111
厕 厕身 1.0000000
使 再派 0.5000000
复 再派 0.5000000
躯 身躯 0.3333333
纵 身躯 0.3333333
浴 身躯 0.3333333
国 王国 0.5000000
经 王国 0.5000000
虑 多加 0.5000000
孰 多加 0.5000000
投 跌倒 1.0000000
先 争先 0.2500000
争 争先 0.7500000
谷 嘉谷 0.5000000
嘉 嘉谷 0.5000000
引 引来 1.0000000
明 明目张胆 0.5000000
乃 明目张胆 0.5000000
下 下乡 0.4000000
其 下乡 0.2000000
乡 下乡 0.4000000
射牛 隆重 0.0833333
祠 隆重 0.0833333
加 隆重 0.0833333
厚葬 隆重 0.0833333
置 隆重 0.1666667
厚礼 隆重 0.1666667
宾 隆重 0.0833333
大 隆重 0.0833333
承 隆重 0.0833333
待 隆重 0.0833333
缗钱 隐匿 0.1428571
自 隐匿 0.1428571
藏 隐匿 0.1428571
告缗 隐匿 0.2857143
匿 隐匿 0.2857143
自 谄媚 0.0909091
媚 谄媚 0.0909091
于 谄媚 0.0909091
谄 谄媚 0.2727273
佞 谄媚 0.2727273
色 谄媚 0.0909091
谀 谄媚 0.0909091
尽力 卖力 1.0000000
见 眼见 0.5000000
夫 眼见 0.5000000
狭 宽窄 0.5000000
阔 宽窄 0.5000000
东方 东风 0.3333333
从 东风 0.3333333
风 东风 0.3333333
好 天性 0.0833333
之 天性 0.0833333
天 天性 0.2500000
盖 天性 0.0833333
天性 天性 0.1666667
性 天性 0.1666667
也 天性 0.0833333
资 天性 0.0833333
感 打动 0.2500000
动 打动 0.2500000
策 打动 0.2500000
奇 打动 0.2500000
险 水为险阻 1.0000000
常 素常 1.0000000
乃 不畏 0.5000000
畏 不畏 0.5000000
关 闭关 0.5000000
闭 闭关 0.5000000
泰 泰 0.8636364
祀 泰 0.0454545
祠 泰 0.0454545
南越 泰 0.0454545
嬴 所以嬴 0.5000000
故 所以嬴 0.5000000
公孙 公孙奭 0.5000000
奭 公孙奭 0.5000000
予 归属 0.0250000
入 归属 0.2000000
为 归属 0.0750000
河南 归属 0.0250000
属 归属 0.5250000
焉 归属 0.0250000
所 归属 0.0500000
其 归属 0.0250000
安 归属 0.0250000
有 归属 0.0250000
少翁 招引 1.0000000
为 虮虱 0.0909091
质 虮虱 0.1818182
楚 虮虱 0.0909091
虮虱 虮虱 0.6363636
共 共享 0.3333333
虑 共享 0.3333333
之 共享 0.3333333
汤武 正是 0.0196078
于 正是 0.0196078
吕 正是 0.0196078
周 正是 0.0196078
盛 正是 0.0196078
襄公 正是 0.0196078
所 正是 0.1568627
知 正是 0.0196078
当 正是 0.0196078
谓 正是 0.0196078
获罪 正是 0.0196078
王 正是 0.0196078
孙 正是 0.0196078
是 正是 0.0588235
灵公 正是 0.0196078
辛 正是 0.0196078
矣 正是 0.0196078
而 正是 0.0196078
布衣 正是 0.0196078
之 正是 0.0980392
盖 正是 0.0196078
田单 正是 0.0196078
欲 正是 0.0196078
也 正是 0.0392157
乃 正是 0.0588235
方 正是 0.0588235
新 正是 0.0196078
此 正是 0.1176471
处 少女 0.1000000
之 少女 0.1000000
女 少女 0.3000000
氏女 少女 0.1000000
合 少女 0.1000000
鼓 少女 0.1000000
想 少女 0.1000000
野 少女 0.1000000
以 主是 0.5000000
主 主是 0.5000000
无 篱笆 0.5000000
籓 篱笆 0.5000000
场 广场 0.2500000
斧 广场 0.2500000
伏 广场 0.2500000
具 广场 0.2500000
报 报偿 0.5000000
责 报偿 0.5000000
杲 公杲 0.3333333
鲁 公杲 0.3333333
于 公杲 0.3333333
娥 书求娥 0.5000000
请 书求娥 0.5000000
先 先尝 0.5000000
尝 先尝 0.5000000
若 厚待 0.0666667
厚 厚待 0.4666667
以 厚待 0.0666667
遇 厚待 0.2666667
复 厚待 0.0666667
之 厚待 0.0666667
巴 巴蜀 0.0769231
悉 巴蜀 0.0769231
巴蜀 巴蜀 0.7692308
蜀 巴蜀 0.0769231
师 赵良 0.1250000
弗 赵良 0.1250000
赵良 赵良 0.7500000
者 博取 0.2500000
高 博取 0.5000000
名 博取 0.2500000
奚 何 0.0256410
观 何 0.0256410
弛 何 0.0256410
于 何 0.0512821
营 何 0.0256410
轧 何 0.0256410
二 何 0.0256410
盍 何 0.0769231
如 何 0.0256410
纷 何 0.0256410
税 何 0.0256410
以 何 0.0256410
何 何 0.5384615
验 何 0.0256410
盖 何 0.0256410
胡 何 0.0256410
丁公 丁公 1.0000000
业 剧 0.5000000
剧 剧 0.5000000
遗 馀也 0.5000000
亦 馀也 0.5000000
数 阵亡 0.1428571
亡 阵亡 0.1428571
死 阵亡 0.2857143
镇 阵亡 0.1428571
享 阵亡 0.1428571
尸 阵亡 0.1428571
羽 慷慨激昂 1.0000000
青 红里圈青者 0.5000000
中 红里圈青者 0.5000000
成 促成 0.7500000
亦 促成 0.2500000
丹 刘丹 1.0000000
后 后园 0.3333333
园 后园 0.6666667
嚄 勇猛 0.0555556
孟贲 勇猛 0.0555556
勇 勇猛 0.2777778
剽 勇猛 0.0555556
僄 勇猛 0.0555556
乌获 勇猛 0.0555556
力 勇猛 0.0555556
噭 勇猛 0.0555556
彊 勇猛 0.0555556
趣 勇猛 0.1111111
悍 勇猛 0.1111111
锋 勇猛 0.0555556
自 栾布 0.1666667
鄃 栾布 0.1666667
布 栾布 0.1666667
栾布 栾布 0.5000000
国 论功 0.1428571
论功 论功 0.2857143
惠 论功 0.1428571
功 论功 0.4285714
观 偷看 0.5000000
骈 偷看 0.5000000
诛 不得己 1.0000000
骑 骑射 0.1666667
骑射 骑射 0.8333333
太 长叹 0.1111111
叹 长叹 0.5555556
喟然 长叹 0.3333333
言 众说纷纭 0.2500000
殊 众说纷纭 0.2500000
人 众说纷纭 0.5000000
漏 摔破 0.5000000
决 摔破 0.5000000
子 由子 0.3333333
于 由子 0.3333333
决 由子 0.3333333
毕 行过 0.3333333
吉 行过 0.3333333
填 行过 0.3333333
公 拦 0.2500000
遮 拦 0.2500000
沮 拦 0.2500000
吾 拦 0.2500000
璧 国宝璧 1.0000000
事 管事 0.1428571
有 管事 0.4285714
九 管事 0.1428571
趋 管事 0.1428571
管 管事 0.1428571
长安 爱长 0.5000000
贤 爱长 0.5000000
下 长长的 0.5000000
珣 长长的 0.5000000
射 取 0.0250000
引 取 0.0250000
穴 取 0.0250000
援 取 0.0750000
颓当 取 0.0250000
奉 取 0.0250000
玺 取 0.0250000
四 取 0.0250000
胜 取 0.0250000
弃 取 0.0250000
关内 取 0.0250000
取 取 0.4500000
弋 取 0.0250000
号 取 0.0250000
张 取 0.0250000
功 取 0.0250000
庶 取 0.0250000
合 取 0.0250000
拔 取 0.0250000
尤 取 0.0250000
细 取 0.0250000
得 进去 0.0400000
听 进去 0.0800000
彭越 进去 0.0200000
入 进去 0.6800000
劳 进去 0.0200000
为 进去 0.0200000
范叔 进去 0.0200000
内 进去 0.0200000
俱 进去 0.0200000
也 进去 0.0200000
进 进去 0.0200000
克 进去 0.0200000
缺 进去 0.0200000
弁 皮帽 0.5000000
皮 皮帽 0.5000000
闻 骊姬 0.0357143
谓 骊姬 0.0357143
怒 骊姬 0.0357143
骊姬 骊姬 0.8928571
弗 子弗湟 0.5000000
湟 子弗湟 0.5000000
青 外圈 0.4000000
赤 外圈 0.2000000
外 外圈 0.4000000
有 时有 0.2500000
时 时有 0.2500000
之 时有 0.2500000
户 时有 0.2500000
出 出猎 0.2000000
周 出猎 0.2000000
猎 出猎 0.6000000
汝阴 阴侯 0.5000000
侯 阴侯 0.5000000
文 精炼 0.5000000
约 精炼 0.5000000
繁 繁荣 1.0000000
南 渭南 0.5000000
渭 渭南 0.5000000
陨 败落 0.3333333
也 败落 0.3333333
败 败落 0.3333333
先 先导 0.2000000
驱 先导 0.2000000
武王 先导 0.2000000
开 先导 0.4000000
求 方式 0.1666667
所 方式 0.0833333
官 方式 0.0833333
谪 方式 0.0833333
也 方式 0.1666667
道 方式 0.0833333
方 方式 0.1666667
如 方式 0.0833333
逆 方式 0.0833333
彊 竭力 0.3750000
吕泽 竭力 0.1250000
伐 竭力 0.1250000
为 竭力 0.1250000
节 竭力 0.1250000
莫 竭力 0.1250000
后 绝后 0.3333333
无 绝后 0.1666667
绝 绝后 0.5000000
顿 叩 0.5000000
拜 叩 0.1666667
首 叩 0.3333333
终 终身 0.0476190
卿相 终身 0.0476190
鄙 终身 0.0476190
极 终身 0.0476190
所 终身 0.0476190
临 终身 0.0476190
睹 终身 0.0476190
终身 终身 0.6190476
身 终身 0.0476190
若 不如 0.0760870
然 不如 0.0036232
加 不如 0.0036232
不 不如 0.4456522
绌 不如 0.0036232
莫 不如 0.0434783
如 不如 0.4166667
宁 不如 0.0036232
贫贱 不如 0.0036232
遍 遍 0.1764706
观 遍 0.0294118
燧 遍 0.0294118
燀 遍 0.0294118
周 遍 0.0588235
复 遍 0.0294118
耀 遍 0.0294118
习 遍 0.0294118
威 遍 0.0294118
剖符 遍 0.0294118
加 遍 0.0294118
之 遍 0.1470588
尝 遍 0.0294118
备 遍 0.0294118
成 遍 0.0588235
曹 遍 0.0294118
奏 遍 0.1176471
始 遍 0.0294118
阕 遍 0.0588235
都 西关 0.5000000
西 西关 0.5000000
天 传于天 0.2000000
于 传于天 0.2000000
有 传于天 0.2000000
令 传于天 0.2000000
名 传于天 0.2000000
阳 阳坡 0.3333333
自 阳坡 0.3333333
上 阳坡 0.3333333
服 镇服 0.5000000
用 镇服 0.5000000
豕 又名封豕 0.5000000
封 又名封豕 0.5000000
治 公诸子 0.3333333
胡 公诸子 0.3333333
公子 公诸子 0.3333333
加 开赴 0.3333333
业已 开赴 0.3333333
万 开赴 0.3333333
在 落于 0.2500000
必 落于 0.2500000
及 落于 0.2500000
政 落于 0.2500000
所 说的话 0.3333333
三 说的话 0.3333333
语 说的话 0.3333333
海内 海内 0.7857143
海 海内 0.0714286
莫 海内 0.0714286
黑 海内 0.0714286
所 论著 0.3333333
论 论著 0.3333333
焉 论著 0.3333333
北 北燕 0.5000000
燕 北燕 0.5000000
烽火 烽火 0.7500000
烽 烽火 0.2500000
予 金子 0.5000000
斤 金子 0.5000000
之 阴山 0.2000000
山 阴山 0.4000000
阴 阴山 0.4000000
海 勃海 0.3333333
勃 勃海 0.6666667
时 时侯 1.0000000
省 禁地 0.5000000
中 禁地 0.5000000
敬仲 敬仲 0.8333333
仲 敬仲 0.1666667
其 人事 0.1666667
人 人事 0.1666667
典 人事 0.1666667
参 人事 0.1666667
符 人事 0.1666667
工 人事 0.1666667
为 虎头 0.5000000
首 虎头 0.5000000
其 建章 0.5000000
建章 建章 0.5000000
指 脚趾 1.0000000
下 兼并天下 0.3333333
天 兼并天下 0.3333333
并 兼并天下 0.3333333
季历 季历 1.0000000
鹿 涿鹿 0.5000000
涿 涿鹿 0.5000000
言 栎对 0.3333333
于 栎对 0.3333333
栎 栎对 0.3333333
争 无济于事 0.5000000
之 无济于事 0.5000000
子 子郢 0.5000000
郢 子郢 0.5000000
珍 下熊珍 0.5000000
熊 下熊珍 0.5000000
非 妃嫔 0.1428571
诸 妃嫔 0.1428571
夫 妃嫔 0.1428571
者 妃嫔 0.1428571
后宫 妃嫔 0.2857143
姬 妃嫔 0.1428571
悼 悼侯 0.5714286
侯 悼侯 0.4285714
为 意为 0.5000000
意 意为 0.5000000
辛 祖辛 1.0000000
察 洞察 0.1666667
于 洞察 0.1666667
见 洞察 0.1666667
明 洞察 0.3333333
以 洞察 0.1666667
反 魏豹 0.0714286
王 魏豹 0.0714286
魏 魏豹 0.1071429
豹 魏豹 0.4642857
魏豹 魏豹 0.2857143
数 精壮 0.2000000
人 精壮 0.2000000
壮士 精壮 0.4000000
千 精壮 0.2000000
师 声言 0.2222222
曰 声言 0.1111111
言 声言 0.5555556
因 声言 0.1111111
破 胜 0.0085470
丛 胜 0.0085470
战胜 胜 0.0256410
能 胜 0.0085470
胜 胜 0.6495726
所 胜 0.0085470
布 胜 0.0085470
陈 胜 0.0170940
张胜 胜 0.0598291
者 胜 0.0085470
志 胜 0.0085470
王 胜 0.0085470
涉 胜 0.0085470
得 胜 0.0170940
言 胜 0.0085470
纷 胜 0.0085470
之 胜 0.0170940
冯亭 胜 0.0085470
陈涉 胜 0.0170940
克 胜 0.0085470
羊胜 胜 0.0085470
衣冠 胜 0.0085470
陈胜 胜 0.0683761
补 补益 0.6666667
